{
    "architecture": "NN",
    "layers": [
        {
            "layer_name": "flatten",
            "layer_type": "Flatten",
            "parameters": {}
        },
        {
            "layer_name": "linear_relu_stack",
            "layer_type": "Sequential",
            "parameters": {
                "0.weight": [
                    [
                        -0.03377871587872505,
                        0.04743724316358566,
                        0.08602018654346466,
                        -0.006905109155923128,
                        0.06634899228811264,
                        -0.020480960607528687,
                        -0.03324972838163376,
                        -0.045385800302028656,
                        -0.050535619258880615,
                        -0.013576507568359375,
                        -0.06796516478061676,
                        -0.054053690284490585,
                        -0.04133496433496475,
                        -0.021383702754974365,
                        0.02352103590965271,
                        -0.0014179125428199768,
                        -0.08259936422109604,
                        0.07388485968112946,
                        0.00010763760656118393,
                        0.070651575922966,
                        -0.0077927615493535995,
                        -0.013166846707463264,
                        0.04710293188691139,
                        -0.010151791386306286,
                        0.033133458346128464,
                        0.05393286794424057,
                        -0.044565897434949875,
                        0.00985939335078001,
                        0.06268750876188278,
                        -0.012912169098854065,
                        -0.014394938945770264,
                        0.014198707416653633,
                        0.022785186767578125,
                        -0.03204171732068062,
                        -0.0183491762727499,
                        0.008581054396927357,
                        -0.034327708184719086,
                        0.07217845320701599,
                        0.05768745392560959,
                        -0.025324856862425804,
                        -0.020556222647428513,
                        0.041241858154535294,
                        0.045099928975105286,
                        0.03527725115418434,
                        -0.05735824629664421,
                        0.004503936506807804,
                        -0.05884178355336189,
                        -0.017204977571964264,
                        0.00766459945589304,
                        0.026811115443706512,
                        0.01461920514702797,
                        -0.05798996984958649,
                        0.011624922975897789,
                        -0.02555231750011444,
                        0.02152583748102188,
                        -0.047884535044431686,
                        0.06639594584703445,
                        -0.03318517655134201,
                        0.014195431023836136,
                        -0.008769339881837368,
                        0.03881903365254402,
                        0.08181769400835037,
                        0.030441878363490105,
                        0.04927937686443329,
                        0.07426365464925766,
                        0.02763688564300537,
                        -0.054143570363521576,
                        0.0681077092885971,
                        0.033891793340444565,
                        0.02727518230676651,
                        -0.006192175205796957,
                        0.0443270243704319,
                        -0.007998883724212646,
                        -0.04088189825415611,
                        0.04316655546426773,
                        0.07311344146728516,
                        -0.020064134150743484,
                        0.035972610116004944,
                        -0.004025696311146021,
                        0.02614900842308998,
                        0.005278068128973246,
                        -0.04228071868419647,
                        -0.07555947452783585,
                        0.020229823887348175,
                        -0.03100072406232357,
                        0.047277890145778656,
                        0.02656935155391693,
                        0.04074389487504959
                    ],
                    [
                        0.05585937201976776,
                        0.0001908913254737854,
                        -0.07722554355859756,
                        -0.003845167811959982,
                        -0.04569388926029205,
                        -0.0041539836674928665,
                        0.030405249446630478,
                        0.05701892822980881,
                        -0.07792828977108002,
                        0.0729476809501648,
                        0.0413614958524704,
                        -0.09150676429271698,
                        -0.007702442817389965,
                        -0.03467940166592598,
                        0.06630741059780121,
                        -0.011083193123340607,
                        0.01469496451318264,
                        -0.0639813169836998,
                        0.001385573297739029,
                        0.008825654163956642,
                        -0.04177907109260559,
                        -0.017417794093489647,
                        0.040380727499723434,
                        0.049181487411260605,
                        -0.025912290439009666,
                        0.04598873108625412,
                        0.021451355889439583,
                        -0.034747060388326645,
                        0.0014859195798635483,
                        -0.032900795340538025,
                        0.023898150771856308,
                        0.046286895871162415,
                        -0.03208443149924278,
                        -0.02163236401975155,
                        0.06621358543634415,
                        0.03409309312701225,
                        -0.07680903375148773,
                        0.020597422495484352,
                        0.010354581288993359,
                        0.018994348123669624,
                        0.058316439390182495,
                        0.013585572130978107,
                        0.01139991357922554,
                        0.010444773361086845,
                        -0.03465902432799339,
                        0.06748536229133606,
                        -0.045989133417606354,
                        -0.03444627672433853,
                        0.0026790257543325424,
                        0.003674169071018696,
                        0.03799489885568619,
                        0.005948523059487343,
                        -0.04045026749372482,
                        0.001481425017118454,
                        0.02961866185069084,
                        0.033600807189941406,
                        0.04711976274847984,
                        0.04518755152821541,
                        0.04035327583551407,
                        0.0037870830856263638,
                        -0.05022276192903519,
                        0.020136790350079536,
                        0.006392480805516243,
                        -0.019872212782502174,
                        0.047602567821741104,
                        -0.011755719780921936,
                        -0.030487773939967155,
                        0.048689913004636765,
                        0.010997422970831394,
                        0.04000145569443703,
                        0.008652360178530216,
                        -0.03421182185411453,
                        -0.0615290142595768,
                        0.03309888392686844,
                        0.007702820003032684,
                        0.03251456096768379,
                        0.02250569686293602,
                        -0.015795011073350906,
                        0.04410940036177635,
                        -0.03868642449378967,
                        0.04740661010146141,
                        -0.017071912065148354,
                        0.0261146929115057,
                        0.0031205592676997185,
                        -0.03921873867511749,
                        -0.06665298342704773,
                        0.06749291718006134,
                        0.03176358714699745
                    ],
                    [
                        0.00982697494328022,
                        0.026118960231542587,
                        -0.007841271348297596,
                        -0.03770513832569122,
                        0.022270670160651207,
                        -0.019689252600073814,
                        0.0757562667131424,
                        -0.0013463175855576992,
                        0.07009236514568329,
                        -0.07958532124757767,
                        0.020161453634500504,
                        -0.06106065958738327,
                        0.05765363946557045,
                        0.06289771944284439,
                        -0.05285802483558655,
                        0.015412180684506893,
                        0.055588070303201675,
                        0.0015142248012125492,
                        -0.00609972607344389,
                        0.07119385898113251,
                        0.06916793435811996,
                        -0.038298599421978,
                        0.054360322654247284,
                        -0.03921757638454437,
                        -0.0064718276262283325,
                        -0.028241852298378944,
                        -0.01948530413210392,
                        -0.003526388667523861,
                        -0.0074135190807282925,
                        -0.05776851624250412,
                        0.08342419564723969,
                        -0.016463803127408028,
                        -0.011052468791604042,
                        -0.07206641882658005,
                        0.04108568653464317,
                        -0.029220301657915115,
                        0.04375327751040459,
                        -0.06572816520929337,
                        -0.016924530267715454,
                        0.02519030123949051,
                        0.012125504203140736,
                        -0.07636559754610062,
                        0.0013818908482789993,
                        -0.04012547805905342,
                        0.03779807314276695,
                        0.07309827208518982,
                        -0.01750211790204048,
                        0.019898993894457817,
                        0.08256058394908905,
                        0.008577503263950348,
                        0.02833576127886772,
                        -0.08953744173049927,
                        -0.012011216022074223,
                        -0.07506902515888214,
                        0.04742718115448952,
                        -0.06548269093036652,
                        0.07634297013282776,
                        -0.003996275365352631,
                        0.014281944371759892,
                        0.04495449364185333,
                        -0.05320417881011963,
                        0.02686792053282261,
                        -0.05703416466712952,
                        -0.06990783661603928,
                        0.04284554719924927,
                        -0.03257118910551071,
                        -0.06491190195083618,
                        -0.08181427419185638,
                        -0.039866648614406586,
                        -0.03809395059943199,
                        -0.03721420094370842,
                        -0.031977519392967224,
                        -0.058355510234832764,
                        0.0903138816356659,
                        -0.07647653669118881,
                        -0.07113313674926758,
                        0.04294498264789581,
                        -0.0675826147198677,
                        0.07058443874120712,
                        -0.04466792941093445,
                        -0.035264141857624054,
                        0.030034702271223068,
                        -0.017718758434057236,
                        -0.026026654988527298,
                        -0.0679001659154892,
                        0.014132414013147354,
                        -0.030936628580093384,
                        -0.02424991875886917
                    ],
                    [
                        0.06446785479784012,
                        -0.06281305849552155,
                        -0.04499134421348572,
                        0.01981460116803646,
                        -0.01409163698554039,
                        -0.06205102056264877,
                        -0.04985244572162628,
                        -0.02816421538591385,
                        0.00048132194206118584,
                        -0.00022231321781873703,
                        0.018345599994063377,
                        -0.008034216240048409,
                        0.010860992595553398,
                        0.035123538225889206,
                        0.024365650489926338,
                        0.08419573307037354,
                        -0.04442569985985756,
                        0.04578904062509537,
                        0.045055001974105835,
                        -0.0751975029706955,
                        0.03308505564928055,
                        0.03753641992807388,
                        -0.04181589558720589,
                        -0.06628938019275665,
                        0.06537675857543945,
                        0.07526218891143799,
                        -0.0018224213272333145,
                        -0.06039000675082207,
                        0.012502849102020264,
                        -0.05833502858877182,
                        -0.04065198451280594,
                        -0.020566102117300034,
                        -0.029897233471274376,
                        0.07439196854829788,
                        0.04931382089853287,
                        0.03734186664223671,
                        -0.03560936823487282,
                        0.07969118654727936,
                        -0.017685025930404663,
                        0.07279293984174728,
                        0.022888682782649994,
                        0.0790473148226738,
                        -0.012237582355737686,
                        0.027415115386247635,
                        -0.06407071650028229,
                        0.05306870862841606,
                        -0.040678720921278,
                        -0.024569429457187653,
                        -0.015784040093421936,
                        0.06496592611074448,
                        -0.010347699746489525,
                        0.00645026471465826,
                        0.01023912150412798,
                        -0.025177085772156715,
                        0.0572981983423233,
                        -0.04611198604106903,
                        -0.051601238548755646,
                        0.031991615891456604,
                        0.09576679766178131,
                        0.0059046670794487,
                        0.07924666255712509,
                        -0.04647212475538254,
                        -0.03001033514738083,
                        0.019055182114243507,
                        -0.03013468347489834,
                        0.07802671194076538,
                        -0.06489100307226181,
                        -0.013175873085856438,
                        -0.011922820471227169,
                        -0.06776203215122223,
                        -0.02050270140171051,
                        0.0028301728889346123,
                        -0.023166805505752563,
                        -0.026222743093967438,
                        -0.010886394418776035,
                        -0.06306210160255432,
                        -0.08528345823287964,
                        -0.061398930847644806,
                        0.032450802624225616,
                        0.000729207880795002,
                        -0.012207870371639729,
                        0.04987041652202606,
                        -0.04868503659963608,
                        0.030734172090888023,
                        -0.02835898846387863,
                        0.049175165593624115,
                        -0.07497373968362808,
                        0.07993459701538086
                    ],
                    [
                        -0.0044886283576488495,
                        -0.010763830505311489,
                        0.015842769294977188,
                        -0.049190156161785126,
                        -0.0190100260078907,
                        -0.03826522454619408,
                        0.039408642798662186,
                        -0.0628528892993927,
                        -0.010839618742465973,
                        0.003219091333448887,
                        0.07203346490859985,
                        0.023008868098258972,
                        0.0071429600939154625,
                        0.014644883573055267,
                        -0.07507283985614777,
                        0.047298964112997055,
                        0.043233826756477356,
                        -0.006343952380120754,
                        0.000792400911450386,
                        0.010363681241869926,
                        -0.07764042913913727,
                        -0.03748351335525513,
                        0.02847418189048767,
                        0.02072909101843834,
                        -0.017287667840719223,
                        -0.026477310806512833,
                        0.06831104308366776,
                        -0.015573347918689251,
                        0.0012480467557907104,
                        -0.019102975726127625,
                        0.04692396521568298,
                        -0.005804266780614853,
                        -0.014241727069020271,
                        0.08338786661624908,
                        -0.02294476330280304,
                        -0.05385354906320572,
                        0.019687136635184288,
                        -0.06064838171005249,
                        -0.049777764827013016,
                        0.006693555973470211,
                        -0.06161443516612053,
                        0.004581066779792309,
                        0.06563736498355865,
                        0.06365315616130829,
                        0.0026009553112089634,
                        0.022483842447400093,
                        -0.007140612229704857,
                        -0.07472889125347137,
                        -0.06166467070579529,
                        -0.0636359304189682,
                        0.05891043320298195,
                        -0.0029185526072978973,
                        -0.0009783192072063684,
                        -0.07026016712188721,
                        -0.0023194998502731323,
                        0.04839909449219704,
                        -0.0847947746515274,
                        0.023068351671099663,
                        -0.09338794648647308,
                        0.04931378364562988,
                        0.06255434453487396,
                        0.006498782429844141,
                        0.03610945865511894,
                        -0.05794446915388107,
                        0.07005183398723602,
                        -0.03337111324071884,
                        -0.04004056006669998,
                        0.02086682617664337,
                        -0.011965793557465076,
                        -0.06522918492555618,
                        -4.84539195895195e-05,
                        -0.06507033109664917,
                        -0.02007412165403366,
                        0.03391468897461891,
                        -0.06398315727710724,
                        0.07827004045248032,
                        -0.0013403091579675674,
                        -0.05956786870956421,
                        0.05471740663051605,
                        0.008499338291585445,
                        0.029308121651411057,
                        0.05242815986275673,
                        -0.03658170998096466,
                        0.02481016144156456,
                        0.006250911392271519,
                        -0.01334376074373722,
                        0.039865702390670776,
                        -0.0034811394289135933
                    ],
                    [
                        -0.025793183594942093,
                        0.007139610126614571,
                        0.024304496124386787,
                        0.06955122947692871,
                        0.005265537183731794,
                        -0.03541974723339081,
                        -0.04946327954530716,
                        -0.014306783676147461,
                        0.028624985367059708,
                        0.022898193448781967,
                        0.004907344467937946,
                        -0.019528357312083244,
                        -0.004037432372570038,
                        -0.007303993217647076,
                        0.0025656428188085556,
                        -0.05953812599182129,
                        -0.041436515748500824,
                        -0.04783233255147934,
                        0.04984063655138016,
                        -0.019253820180892944,
                        0.04272201284766197,
                        0.016169698908925056,
                        0.04656592756509781,
                        -0.07926378399133682,
                        -0.0196644589304924,
                        -0.0539049357175827,
                        -0.021734796464443207,
                        -0.04337632656097412,
                        -0.035661835223436356,
                        -0.021712390705943108,
                        -0.0742456242442131,
                        0.039747823029756546,
                        0.009529221802949905,
                        0.04882434383034706,
                        0.06579071283340454,
                        -0.01310199499130249,
                        -0.04480592906475067,
                        -0.010871454142034054,
                        0.03513537719845772,
                        -0.07686862349510193,
                        -0.02168431505560875,
                        -0.06907281279563904,
                        -0.022645140066742897,
                        0.0663939118385315,
                        -0.02491399273276329,
                        -0.06428901851177216,
                        -0.04761553555727005,
                        -0.015607268549501896,
                        -0.035201799124479294,
                        0.049821753054857254,
                        0.003793214913457632,
                        0.05706421285867691,
                        0.010655177757143974,
                        0.06496237218379974,
                        0.03755481541156769,
                        0.017159204930067062,
                        -0.009370371699333191,
                        0.03669999912381172,
                        0.030589865520596504,
                        0.0580645389854908,
                        0.009193526580929756,
                        0.05888618528842926,
                        0.019409535452723503,
                        0.008590003475546837,
                        -0.021988520398736,
                        -0.0461813360452652,
                        -0.019724557176232338,
                        -0.0024690255522727966,
                        0.004559612832963467,
                        0.07675472646951675,
                        0.03476158529520035,
                        -0.07695244252681732,
                        -0.013100959360599518,
                        -0.06313952803611755,
                        0.0036163695622235537,
                        -0.05813409388065338,
                        -0.06239233538508415,
                        0.07676476240158081,
                        0.07204766571521759,
                        0.01969420351088047,
                        0.06708291918039322,
                        0.02150370366871357,
                        -0.04391052946448326,
                        -0.04065971076488495,
                        -0.028588328510522842,
                        -0.02127157710492611,
                        0.02734210342168808,
                        -0.011402486823499203
                    ],
                    [
                        -0.04278964549303055,
                        0.04474756866693497,
                        0.0006515152053907514,
                        -0.0221541915088892,
                        -0.05066819116473198,
                        0.03586104139685631,
                        0.03684353083372116,
                        -0.04115370288491249,
                        0.006472238339483738,
                        -0.06655769795179367,
                        -0.039271291345357895,
                        0.05900288373231888,
                        -0.03387540951371193,
                        0.06924132257699966,
                        -0.01127532497048378,
                        0.03889116272330284,
                        -0.02449340932071209,
                        0.06977719068527222,
                        -0.0017170673236250877,
                        -0.015813611447811127,
                        0.05461853742599487,
                        0.07010404020547867,
                        0.08882993459701538,
                        0.028783679008483887,
                        0.006461820565164089,
                        -0.02861684374511242,
                        -0.04288288205862045,
                        -0.0279855839908123,
                        0.034725822508335114,
                        0.045887380838394165,
                        0.0016844002529978752,
                        0.0356651246547699,
                        0.03716196492314339,
                        -0.0311345923691988,
                        -0.02460648864507675,
                        -0.01146913506090641,
                        0.017886687070131302,
                        0.019413189962506294,
                        0.06503848731517792,
                        0.02607654221355915,
                        0.016610480844974518,
                        0.04341651499271393,
                        0.050137974321842194,
                        -0.06695777922868729,
                        -0.04583124443888664,
                        -0.062475431710481644,
                        -0.020351525396108627,
                        0.0539686493575573,
                        0.06736813485622406,
                        0.062210146337747574,
                        0.004645311273634434,
                        0.06020686775445938,
                        -0.04973142221570015,
                        0.06979592144489288,
                        0.022899288684129715,
                        -0.04956037923693657,
                        0.005425547249615192,
                        -0.04762181639671326,
                        0.04565126448869705,
                        -0.035491153597831726,
                        -0.035058245062828064,
                        0.04117216542363167,
                        -0.03432958573102951,
                        -0.05611764267086983,
                        0.015451468527317047,
                        0.00781894102692604,
                        0.08808581531047821,
                        -0.04124022647738457,
                        0.013813160359859467,
                        0.007493472658097744,
                        0.018982356414198875,
                        0.01555289700627327,
                        0.06675468385219574,
                        -0.005058477632701397,
                        -0.009089041501283646,
                        0.055814698338508606,
                        -0.04091936722397804,
                        0.0008168518543243408,
                        0.06513415277004242,
                        0.05036403238773346,
                        -0.03017483651638031,
                        -0.029805904254317284,
                        -0.04147304594516754,
                        0.06308313459157944,
                        -0.052431508898735046,
                        0.05617036670446396,
                        0.023249059915542603,
                        -0.0488702617585659
                    ],
                    [
                        -0.017788413912057877,
                        -0.024738986045122147,
                        -0.07435667514801025,
                        -0.02786354161798954,
                        -0.013191446661949158,
                        0.08945602178573608,
                        -0.029551152139902115,
                        -0.03773786872625351,
                        -0.0382063128054142,
                        -0.03444203361868858,
                        -0.0007043089717626572,
                        -0.021576113998889923,
                        -0.03489535301923752,
                        0.02603497914969921,
                        0.027397915720939636,
                        0.031009558588266373,
                        0.0746864601969719,
                        0.052137650549411774,
                        -0.03690969944000244,
                        -0.06793427467346191,
                        0.015564333647489548,
                        -0.030931010842323303,
                        -0.04124659672379494,
                        -0.04882469028234482,
                        -0.012883300893008709,
                        -0.01019910629838705,
                        0.0442902073264122,
                        0.029938722029328346,
                        0.06956890225410461,
                        -0.06600276380777359,
                        0.012248150072991848,
                        0.07060430198907852,
                        0.001705210655927658,
                        -0.04145070165395737,
                        0.08368775993585587,
                        0.0951765775680542,
                        0.010735847055912018,
                        -0.05448148399591446,
                        0.030908972024917603,
                        -0.011612209491431713,
                        -0.07081147283315659,
                        0.05532592535018921,
                        0.017657198011875153,
                        0.03777700290083885,
                        -0.02006228268146515,
                        -0.03471250832080841,
                        0.020888710394501686,
                        0.038577042520046234,
                        0.034660279750823975,
                        -0.0027952631935477257,
                        0.06542859971523285,
                        0.08330265432596207,
                        -0.08633775264024734,
                        0.06421402841806412,
                        -0.04152023792266846,
                        0.006567862816154957,
                        -0.017978161573410034,
                        0.04578861966729164,
                        -0.07918035984039307,
                        0.018031522631645203,
                        0.06072918698191643,
                        0.022326678037643433,
                        -0.04397241771221161,
                        0.04342316463589668,
                        -0.013433322310447693,
                        0.0617377832531929,
                        -0.009944797493517399,
                        0.05841585993766785,
                        -0.01289865467697382,
                        -0.009578607976436615,
                        0.041460826992988586,
                        0.03657590597867966,
                        -0.06432117521762848,
                        0.009926749393343925,
                        -0.05432042479515076,
                        0.0032826410606503487,
                        -0.007891533896327019,
                        0.04415053874254227,
                        0.013223662041127682,
                        -0.008168201893568039,
                        0.05501669645309448,
                        0.028515076264739037,
                        0.05096311867237091,
                        0.07895425707101822,
                        0.0264756940305233,
                        0.011516844853758812,
                        -0.03332671523094177,
                        0.01495521143078804
                    ],
                    [
                        -0.01869342476129532,
                        0.013147097080945969,
                        0.050548896193504333,
                        0.05039586126804352,
                        0.028135186061263084,
                        0.025949805974960327,
                        -0.04231077432632446,
                        0.00832718051970005,
                        -0.03812679648399353,
                        0.03816474229097366,
                        0.01665368303656578,
                        0.05039321631193161,
                        0.04992929846048355,
                        0.0008717644959688187,
                        0.07016002386808395,
                        0.0082189766690135,
                        0.06489673256874084,
                        -0.014636651612818241,
                        -0.012112012133002281,
                        0.05799996852874756,
                        0.040253885090351105,
                        0.0023532938212156296,
                        -0.009595499373972416,
                        -0.0670509934425354,
                        -0.06083301827311516,
                        0.02386900596320629,
                        0.030020251870155334,
                        -0.01690564677119255,
                        0.00562185887247324,
                        0.02349720522761345,
                        0.02476673573255539,
                        0.015378476120531559,
                        0.023113422095775604,
                        -0.04526279494166374,
                        0.04867403954267502,
                        -0.01233663223683834,
                        -0.005347109399735928,
                        -0.014333155006170273,
                        -0.03161122649908066,
                        -0.05309944599866867,
                        -0.024805231019854546,
                        0.04883510619401932,
                        -0.04092586413025856,
                        -0.0836959034204483,
                        0.07016775012016296,
                        -0.07672789692878723,
                        0.03293392434716225,
                        0.033755529671907425,
                        -0.043996118009090424,
                        -0.06386861205101013,
                        0.045415833592414856,
                        -0.01652645133435726,
                        -0.005549537017941475,
                        -0.0673714354634285,
                        0.03292291611433029,
                        0.044158197939395905,
                        0.049227871000766754,
                        -0.01761200651526451,
                        0.08120502531528473,
                        0.004136594943702221,
                        -0.08574585616588593,
                        -0.03143402934074402,
                        0.009049270302057266,
                        -0.036221861839294434,
                        -0.06021958589553833,
                        -0.07587273418903351,
                        -0.006405283696949482,
                        -0.07692164182662964,
                        -0.03276054188609123,
                        -0.061354685574769974,
                        0.044630300253629684,
                        -0.014883939176797867,
                        0.010535693727433681,
                        0.030256250873208046,
                        0.04069940745830536,
                        -0.0855783000588417,
                        -0.008642319589853287,
                        0.009972400031983852,
                        -0.06286516785621643,
                        -0.015882011502981186,
                        0.05197568237781525,
                        0.06147554889321327,
                        -0.0069605507887899876,
                        0.07651238888502121,
                        0.04400854557752609,
                        0.055191680788993835,
                        -0.02480073645710945,
                        0.08093532919883728
                    ],
                    [
                        -0.057674750685691833,
                        -0.05436421185731888,
                        -0.041126761585474014,
                        0.06344388425350189,
                        -0.08717235177755356,
                        0.019427306950092316,
                        -0.0017338640755042434,
                        0.07405808568000793,
                        -0.047275662422180176,
                        0.0474184975028038,
                        0.025178691372275352,
                        0.02515292726457119,
                        -0.05692862719297409,
                        0.049723755568265915,
                        0.05023578181862831,
                        -0.01394269336014986,
                        0.005697186570614576,
                        -0.07456128299236298,
                        0.053666017949581146,
                        -0.0599340945482254,
                        -0.013513591140508652,
                        0.032397687435150146,
                        0.06279802322387695,
                        0.0347028523683548,
                        0.007890703156590462,
                        -0.009134402498602867,
                        -0.011001599952578545,
                        -0.02766842395067215,
                        0.018722521141171455,
                        0.005364203359931707,
                        -0.004017386585474014,
                        0.004843063652515411,
                        0.020625142380595207,
                        -0.02918330952525139,
                        0.030969738960266113,
                        -0.047860682010650635,
                        0.0637378916144371,
                        -0.02362656220793724,
                        0.049045391380786896,
                        0.021175894886255264,
                        0.02787211537361145,
                        0.0303279310464859,
                        -0.07014131546020508,
                        0.02893489971756935,
                        -0.007774064317345619,
                        -0.01615329459309578,
                        0.025932159274816513,
                        0.02522682212293148,
                        -0.03494095429778099,
                        -0.05698108673095703,
                        -0.048042841255664825,
                        0.08445493876934052,
                        -0.057771194726228714,
                        0.05800854414701462,
                        -0.034579262137413025,
                        -0.054633889347314835,
                        -0.016012217849493027,
                        0.03464743122458458,
                        0.04000858962535858,
                        -0.024339783936738968,
                        0.029361143708229065,
                        0.0033982452005147934,
                        0.09519636631011963,
                        0.04794949293136597,
                        0.03820038586854935,
                        -0.05112617090344429,
                        0.04389737546443939,
                        0.041391633450984955,
                        0.052285335958004,
                        0.05543769523501396,
                        -0.06252431124448776,
                        -0.010835830122232437,
                        -0.030209962278604507,
                        0.08974415063858032,
                        -0.03983904793858528,
                        0.023362308740615845,
                        0.06390140950679779,
                        -0.06540770828723907,
                        -0.05805679038167,
                        0.014652222394943237,
                        0.07975095510482788,
                        0.013091635890305042,
                        -0.03840860351920128,
                        0.0025047631934285164,
                        0.011555815115571022,
                        -0.009902892634272575,
                        -0.014242204837501049,
                        0.04375890642404556
                    ],
                    [
                        -0.029353037476539612,
                        -0.07857334613800049,
                        -0.09011340141296387,
                        0.021031402051448822,
                        -0.014005367644131184,
                        -0.03603034466505051,
                        -0.020221104845404625,
                        -0.057505376636981964,
                        0.03984235227108002,
                        0.022013328969478607,
                        0.011553043499588966,
                        0.0516514852643013,
                        -0.006285321898758411,
                        0.052960991859436035,
                        -0.042813826352357864,
                        0.0033513326197862625,
                        0.028117667883634567,
                        -0.07369500398635864,
                        0.07123612612485886,
                        -0.08583182096481323,
                        -0.08325444906949997,
                        -0.005249109119176865,
                        -0.03429964557290077,
                        0.012041759677231312,
                        -0.0395955890417099,
                        0.06633271276950836,
                        0.036178939044475555,
                        0.06186947971582413,
                        0.06858078390359879,
                        -0.026672838255763054,
                        -0.056663427501916885,
                        0.051920827478170395,
                        -0.02769777923822403,
                        0.014357038773596287,
                        0.03691958263516426,
                        -0.01799875684082508,
                        -0.06941342353820801,
                        0.013598896563053131,
                        -0.06650201231241226,
                        0.07344488799571991,
                        -0.01736382022500038,
                        0.06049384921789169,
                        -0.07665340602397919,
                        0.04288140684366226,
                        0.003779822960495949,
                        0.05010487139225006,
                        0.029225070029497147,
                        -0.03191350772976875,
                        0.0043412731029093266,
                        -0.05111787095665932,
                        -0.046437788754701614,
                        -0.0350765585899353,
                        0.027417222037911415,
                        0.0038147838786244392,
                        0.0703069269657135,
                        -0.03207802027463913,
                        0.025049885734915733,
                        -0.021547388285398483,
                        0.0343213826417923,
                        -0.03186041861772537,
                        0.06556860357522964,
                        0.06490015983581543,
                        0.07583577930927277,
                        0.04525274783372879,
                        0.023614797741174698,
                        -0.054957494139671326,
                        -0.0074213240295648575,
                        0.05372967943549156,
                        0.024364899843931198,
                        -0.030199263244867325,
                        0.05711628496646881,
                        -0.014433571137487888,
                        -0.04890744015574455,
                        -0.06979048252105713,
                        0.08248400688171387,
                        -0.06391642987728119,
                        0.07845274358987808,
                        -0.048895642161369324,
                        0.04536515101790428,
                        -0.05106494948267937,
                        -0.049950432032346725,
                        0.09291794896125793,
                        0.0312039777636528,
                        -0.03536848723888397,
                        0.04569119215011597,
                        0.017209555953741074,
                        -0.009180264547467232,
                        0.00812431238591671
                    ],
                    [
                        -0.04008622467517853,
                        -0.04468035325407982,
                        0.0019172141328454018,
                        0.03226547688245773,
                        0.05671912059187889,
                        0.0719664990901947,
                        -0.012636369094252586,
                        0.019976668059825897,
                        0.005577688571065664,
                        0.03671696037054062,
                        0.08033997565507889,
                        0.02227557823061943,
                        -0.056227050721645355,
                        0.04197434335947037,
                        -0.03216582536697388,
                        -0.052161991596221924,
                        -0.012456705793738365,
                        0.04539911076426506,
                        -0.005011274479329586,
                        0.07140640914440155,
                        0.03856011852622032,
                        -0.011592056602239609,
                        -0.03400111198425293,
                        -0.01374843530356884,
                        0.06297264993190765,
                        0.05775369703769684,
                        -0.005537131801247597,
                        0.07799277454614639,
                        0.017518293112516403,
                        0.03579826280474663,
                        -0.07074384391307831,
                        0.008550425991415977,
                        0.026556558907032013,
                        0.04010464996099472,
                        0.006054699886590242,
                        0.006259215995669365,
                        -0.02028016373515129,
                        -0.00423386599868536,
                        -0.04212883859872818,
                        -0.019359422847628593,
                        0.04057913273572922,
                        -0.0001580212265253067,
                        0.04522744193673134,
                        -0.05760785937309265,
                        0.022489327937364578,
                        -0.02978961542248726,
                        0.021384183317422867,
                        0.05087275803089142,
                        -0.06849288940429688,
                        -0.01285152230411768,
                        -0.03807571530342102,
                        -0.06600557267665863,
                        -0.00517249247059226,
                        -0.03805448114871979,
                        0.015906361863017082,
                        -0.043051578104496,
                        -0.038940832018852234,
                        -0.0496995709836483,
                        0.004468366503715515,
                        -0.036365244537591934,
                        0.02795061096549034,
                        0.06396730244159698,
                        0.029093092307448387,
                        -0.008212724700570107,
                        -0.0013581737875938416,
                        0.05678107216954231,
                        0.01775788515806198,
                        0.005943122785538435,
                        -0.04356241971254349,
                        -0.09059574455022812,
                        -6.975606083869934e-06,
                        0.025782115757465363,
                        0.013982348144054413,
                        -0.06032133847475052,
                        -0.010566014796495438,
                        0.06947667896747589,
                        -0.005179625935852528,
                        0.05983710289001465,
                        0.006515266373753548,
                        -0.04695397987961769,
                        -0.01466721948236227,
                        -0.05652157589793205,
                        -0.016304384917020798,
                        -0.07837168127298355,
                        -0.016860364004969597,
                        -0.05099092051386833,
                        0.04583433270454407,
                        -0.015579787082970142
                    ],
                    [
                        0.04788932576775551,
                        0.06310679763555527,
                        -0.017484210431575775,
                        0.03055409900844097,
                        0.09842433035373688,
                        -0.08066712319850922,
                        0.0802091509103775,
                        0.039132654666900635,
                        -0.012521257624030113,
                        -0.03399418666958809,
                        -0.01439080573618412,
                        0.018497295677661896,
                        0.025625862181186676,
                        0.02928394265472889,
                        0.0837637186050415,
                        0.03667446970939636,
                        0.01073217298835516,
                        0.07131744176149368,
                        -0.023339778184890747,
                        -0.01994204707443714,
                        0.07244163006544113,
                        -0.08592088520526886,
                        0.0606391504406929,
                        -0.009415175765752792,
                        -0.0285473819822073,
                        -0.0025537097826600075,
                        0.05714285001158714,
                        -0.011303389444947243,
                        -0.02952195145189762,
                        -0.022182423621416092,
                        -0.06780674308538437,
                        0.04112386703491211,
                        -0.03261084854602814,
                        -0.03358388692140579,
                        0.030593285337090492,
                        0.051036350429058075,
                        0.053017303347587585,
                        0.06892455369234085,
                        -0.0425264909863472,
                        -0.014071181416511536,
                        0.043380796909332275,
                        0.04667888209223747,
                        0.06668085604906082,
                        -0.002716648392379284,
                        0.05358618125319481,
                        -0.10030637681484222,
                        0.03368168696761131,
                        -0.010363135486841202,
                        -0.0236845500767231,
                        -0.032012470066547394,
                        -0.058083824813365936,
                        0.02205774001777172,
                        -0.007884247228503227,
                        -0.009425725787878036,
                        -0.0781099796295166,
                        -0.024798113852739334,
                        -0.01368293259292841,
                        -0.016383415088057518,
                        0.07837054133415222,
                        -0.0481237955391407,
                        -0.048645079135894775,
                        -0.0106718260794878,
                        -0.07263307273387909,
                        -0.018490413203835487,
                        -0.02255595661699772,
                        0.05536346137523651,
                        0.025249017402529716,
                        -0.046693768352270126,
                        -0.013503246940672398,
                        0.06050166115164757,
                        -0.0009361905977129936,
                        0.03754919022321701,
                        0.0981646329164505,
                        -0.029636988416314125,
                        -0.021715600043535233,
                        0.049673594534397125,
                        0.007677458692342043,
                        -0.0159146748483181,
                        0.04164471477270126,
                        -0.008112083189189434,
                        -0.02872757986187935,
                        0.024713078513741493,
                        -0.04191363602876663,
                        -0.014455117285251617,
                        0.01251688040792942,
                        0.06364503502845764,
                        0.035096678882837296,
                        0.04113400727510452
                    ],
                    [
                        0.0034736739471554756,
                        0.013893252238631248,
                        -0.048855721950531006,
                        0.06293437629938126,
                        0.01654917746782303,
                        -0.04631456360220909,
                        0.007909609004855156,
                        0.0647859275341034,
                        -0.07619590312242508,
                        0.052031561732292175,
                        -0.020999938249588013,
                        -0.07482468336820602,
                        -0.004670538008213043,
                        -0.03154754638671875,
                        -0.02069106698036194,
                        0.05056338757276535,
                        -0.059298329055309296,
                        0.014169784262776375,
                        -0.030956635251641273,
                        -0.0314054861664772,
                        -0.03782586008310318,
                        0.057229556143283844,
                        0.044776029884815216,
                        0.06998996436595917,
                        0.08428806066513062,
                        -0.09096323698759079,
                        0.01600188948214054,
                        -0.002922743558883667,
                        0.02274312451481819,
                        -0.07924733310937881,
                        -0.013403540477156639,
                        -0.009268537163734436,
                        -0.06499417126178741,
                        -0.06975574791431427,
                        0.0011222492903470993,
                        -0.043977778404951096,
                        0.06396836042404175,
                        0.04403192549943924,
                        0.00897288229316473,
                        -0.006793275475502014,
                        0.0672338455915451,
                        -0.027992043644189835,
                        -0.07239788770675659,
                        -0.003907535225152969,
                        -0.0686153918504715,
                        -0.04409584775567055,
                        -0.03335344046354294,
                        -0.03185346722602844,
                        0.04190612584352493,
                        0.018652915954589844,
                        0.06068604439496994,
                        -0.051803093403577805,
                        -0.06457547098398209,
                        -0.07877254486083984,
                        -0.0133065702393651,
                        -0.04150727763772011,
                        -0.006690334528684616,
                        0.004133329726755619,
                        0.020989300683140755,
                        -0.018703870475292206,
                        0.06637971848249435,
                        -0.042415887117385864,
                        -0.019842196255922318,
                        0.05317041650414467,
                        -0.04814620316028595,
                        -0.018272288143634796,
                        -0.00466878991574049,
                        0.009417801164090633,
                        -0.06685847043991089,
                        -0.01215109322220087,
                        -0.058171339333057404,
                        -0.019334634765982628,
                        0.07923436164855957,
                        -0.037657368928194046,
                        0.041966311633586884,
                        0.05959452688694,
                        0.09754502773284912,
                        -0.04523705691099167,
                        -0.07689875364303589,
                        -0.0025676016230136156,
                        0.043555282056331635,
                        0.042561084032058716,
                        0.03589298948645592,
                        0.04486384242773056,
                        -0.05953557789325714,
                        0.0013647759333252907,
                        -0.07138772308826447,
                        -0.012608874589204788
                    ],
                    [
                        0.007428589276969433,
                        -0.021952208131551743,
                        -0.04322061687707901,
                        -0.0036965347826480865,
                        -0.04257059842348099,
                        -0.006498023401945829,
                        0.016421882435679436,
                        -0.07535060495138168,
                        -0.05763889104127884,
                        0.07701148092746735,
                        -0.0377824492752552,
                        0.008363159373402596,
                        0.06066414713859558,
                        -0.06726567447185516,
                        -0.05950285494327545,
                        -0.044902801513671875,
                        -0.03800206631422043,
                        -0.024289570748806,
                        -0.01419539749622345,
                        0.006481547374278307,
                        -0.015907801687717438,
                        -0.03255806490778923,
                        -0.06961704045534134,
                        0.0007837992161512375,
                        -0.0458587184548378,
                        0.025540171191096306,
                        0.027897153049707413,
                        0.0019041597843170166,
                        -0.03555427864193916,
                        0.03593100979924202,
                        -0.028107400983572006,
                        -0.04206990450620651,
                        -0.06823600083589554,
                        0.038092534989118576,
                        0.027382928878068924,
                        -0.008690567687153816,
                        -0.012563901022076607,
                        0.009380698204040527,
                        -0.020273201167583466,
                        0.048529718071222305,
                        0.052576638758182526,
                        0.02429644949734211,
                        0.04424121975898743,
                        0.006300147622823715,
                        0.06889203935861588,
                        -0.0013924605445936322,
                        -0.0627889633178711,
                        0.026721883565187454,
                        0.0015876145334914327,
                        -0.024320967495441437,
                        0.0053947907872498035,
                        -0.029065720736980438,
                        -0.07965727150440216,
                        -9.197555482387543e-05,
                        0.041002437472343445,
                        -0.011916467919945717,
                        0.01003666315227747,
                        -0.03230929374694824,
                        0.011859569698572159,
                        0.05049750208854675,
                        0.0814553052186966,
                        0.0279519185423851,
                        0.06384565681219101,
                        -0.0098694683983922,
                        0.021030202507972717,
                        -0.06391309201717377,
                        -0.008838812820613384,
                        0.018997495993971825,
                        0.022619303315877914,
                        -0.04324380308389664,
                        0.000931223388761282,
                        0.009168300777673721,
                        0.049719274044036865,
                        -0.0064738052897155285,
                        -0.03366119787096977,
                        -0.046470239758491516,
                        -0.06579376757144928,
                        -0.057182639837265015,
                        -0.04743576794862747,
                        0.044895172119140625,
                        0.016821082681417465,
                        0.06301753968000412,
                        -0.06698182970285416,
                        0.04624485969543457,
                        -0.04321800917387009,
                        -0.0006932169198989868,
                        -0.07474694401025772,
                        -0.08390460908412933
                    ],
                    [
                        0.053640276193618774,
                        -0.05101556330919266,
                        -0.015667829662561417,
                        -0.0718928873538971,
                        -0.022488903254270554,
                        -0.02088962309062481,
                        0.04638782888650894,
                        0.024574125185608864,
                        -0.010959215462207794,
                        0.0485619381070137,
                        -0.018528083339333534,
                        0.023846803233027458,
                        0.010170797817409039,
                        0.018395649269223213,
                        -0.021293938159942627,
                        0.0785389393568039,
                        -0.024309707805514336,
                        0.00020846922416239977,
                        -0.05311177298426628,
                        -0.0144345136359334,
                        0.04718565568327904,
                        -0.004406989552080631,
                        0.06887359917163849,
                        -0.04237715154886246,
                        -0.05505451560020447,
                        0.02444157749414444,
                        -0.01809178665280342,
                        -0.004239983391016722,
                        -0.06362301111221313,
                        -0.04349852725863457,
                        -0.042755141854286194,
                        -0.027577709406614304,
                        0.015291420742869377,
                        0.06421731412410736,
                        0.01582828164100647,
                        -0.053843818604946136,
                        -0.02384589985013008,
                        0.01514535304158926,
                        -0.04639987647533417,
                        -0.03979429602622986,
                        0.04668720066547394,
                        0.06224372610449791,
                        0.007494389079511166,
                        0.009431883692741394,
                        0.021343182772397995,
                        -0.040614739060401917,
                        0.0019323239102959633,
                        -0.03833092376589775,
                        0.02136923000216484,
                        -0.0060103703290224075,
                        -0.04950246587395668,
                        0.031325846910476685,
                        0.06220431625843048,
                        0.07523376494646072,
                        -0.08055619150400162,
                        0.02105959877371788,
                        0.05604062229394913,
                        0.03891003504395485,
                        0.03401379659771919,
                        0.05321156606078148,
                        0.06741905957460403,
                        0.04572424292564392,
                        0.046745091676712036,
                        0.0010488899424672127,
                        0.019838351756334305,
                        0.025038957595825195,
                        -0.043674714863300323,
                        -0.038435328751802444,
                        0.07458232343196869,
                        -0.029296495020389557,
                        0.020832616835832596,
                        0.033923838287591934,
                        0.007199760992079973,
                        -0.026555100455880165,
                        0.02087082341313362,
                        0.030949892476201057,
                        0.06779466569423676,
                        -0.02296888455748558,
                        0.014000313356518745,
                        -0.014220560900866985,
                        0.030562277883291245,
                        0.07186046987771988,
                        -0.028969619423151016,
                        0.005063018761575222,
                        -0.0366741381585598,
                        0.057594332844018936,
                        0.09402274340391159,
                        0.01472964882850647
                    ],
                    [
                        -0.04062233865261078,
                        -0.0420917272567749,
                        -0.012492375448346138,
                        -0.0292349960654974,
                        0.032114315778017044,
                        0.016337113454937935,
                        -0.0011806823313236237,
                        0.03581581637263298,
                        -0.0826614499092102,
                        -0.034793540835380554,
                        0.004517437890172005,
                        -0.045908521860837936,
                        -0.01032507698982954,
                        -0.05243263021111488,
                        0.005857110023498535,
                        0.032580580562353134,
                        -0.03458600863814354,
                        -0.012857005931437016,
                        -0.07416408509016037,
                        0.008109157904982567,
                        0.022458557039499283,
                        -0.03489072248339653,
                        0.03950002044439316,
                        -0.09241080284118652,
                        -0.012239880859851837,
                        0.021463001146912575,
                        -0.06380091607570648,
                        -0.07309672981500626,
                        0.07004247605800629,
                        -0.04734062775969505,
                        0.02919801138341427,
                        0.04632432386279106,
                        -0.056618060916662216,
                        0.08610139787197113,
                        0.008455364033579826,
                        0.058036237955093384,
                        0.07555007934570312,
                        0.015047987923026085,
                        -0.0596914067864418,
                        0.00224330835044384,
                        0.021834928542375565,
                        0.04386826604604721,
                        0.023690683767199516,
                        0.025500034913420677,
                        -0.01569872908294201,
                        -0.021849924698472023,
                        0.005604238249361515,
                        -0.030132481828331947,
                        0.006872800178825855,
                        -0.03309813141822815,
                        -0.08898405730724335,
                        0.01747065782546997,
                        0.0024997685104608536,
                        0.06479857861995697,
                        0.05141688138246536,
                        -0.002217221073806286,
                        0.07761463522911072,
                        0.003633596934378147,
                        -0.005266470834612846,
                        0.03321344777941704,
                        -0.02872461825609207,
                        0.029091252014040947,
                        -0.055769383907318115,
                        0.040828637778759,
                        0.013733860105276108,
                        0.04142117127776146,
                        0.05259624868631363,
                        0.04822182282805443,
                        0.020940575748682022,
                        -0.06613606214523315,
                        0.0025724866427481174,
                        -0.054790765047073364,
                        0.047790348529815674,
                        0.05677039176225662,
                        0.028081148862838745,
                        0.06732632964849472,
                        -0.0811278373003006,
                        0.01734035834670067,
                        0.03702333942055702,
                        0.07544367015361786,
                        0.002838592976331711,
                        -0.03259459510445595,
                        -0.08058543503284454,
                        -0.015893150120973587,
                        0.06843098998069763,
                        -0.020951736718416214,
                        -0.06116519123315811,
                        -0.0234735868871212
                    ],
                    [
                        0.02761966921389103,
                        -0.06863734126091003,
                        0.026224493980407715,
                        -0.016786543652415276,
                        0.028051044791936874,
                        0.016998395323753357,
                        -0.03693392872810364,
                        0.07655122876167297,
                        -0.015483098104596138,
                        -0.006986574269831181,
                        0.022799555212259293,
                        0.0016224291175603867,
                        0.036915455013513565,
                        -0.06400403380393982,
                        -0.018467573449015617,
                        -0.014065377414226532,
                        -0.07152372598648071,
                        0.0016975793987512589,
                        0.022638168185949326,
                        -0.0037597566843032837,
                        0.033200547099113464,
                        -0.0562359057366848,
                        0.05170368403196335,
                        -0.02641766518354416,
                        0.07890450209379196,
                        -0.028165843337774277,
                        0.02955997735261917,
                        -0.05283711850643158,
                        -0.08024223148822784,
                        0.016780920326709747,
                        0.027239959686994553,
                        0.01715352013707161,
                        0.06911225616931915,
                        -0.05151141807436943,
                        0.05240281671285629,
                        0.0005126884207129478,
                        0.0012592896819114685,
                        0.07691715657711029,
                        0.06263758987188339,
                        -0.0007939008064568043,
                        -0.0004783459007740021,
                        -0.0014687860384583473,
                        -0.0005027027800679207,
                        -0.06193225830793381,
                        -0.07524222135543823,
                        -0.01528523862361908,
                        -0.009684456512331963,
                        0.016086537390947342,
                        0.037760987877845764,
                        -0.05075004696846008,
                        0.02909788489341736,
                        -0.006958136335015297,
                        0.012582425959408283,
                        0.04671682044863701,
                        -0.0311659537255764,
                        -0.004424141254276037,
                        0.0494539812207222,
                        0.005237066186964512,
                        -0.08415054529905319,
                        0.020945273339748383,
                        0.007023710757493973,
                        -0.053597383201122284,
                        0.0697391927242279,
                        0.008018868044018745,
                        0.09380844235420227,
                        0.011473272927105427,
                        -0.04829178750514984,
                        -0.01474082749336958,
                        0.05633791163563728,
                        -0.04738577455282211,
                        0.019676335155963898,
                        -0.03191142901778221,
                        -0.035036034882068634,
                        -0.03845536708831787,
                        0.015540425665676594,
                        0.03160781040787697,
                        -0.029268018901348114,
                        -0.003781551029533148,
                        0.042255401611328125,
                        0.0314970538020134,
                        -0.02611733227968216,
                        -0.016486532986164093,
                        0.05944690853357315,
                        -0.03273903205990791,
                        0.07008150219917297,
                        0.020487627014517784,
                        0.01819690503180027,
                        -0.0470261350274086
                    ],
                    [
                        -0.03129814937710762,
                        0.06543388217687607,
                        0.05918518453836441,
                        0.008635359816253185,
                        0.0202714242041111,
                        0.03729051351547241,
                        0.0591738298535347,
                        -0.07777050137519836,
                        0.008268335834145546,
                        0.0829777866601944,
                        0.0457170344889164,
                        -0.014688138850033283,
                        -0.04847622290253639,
                        -0.02210509590804577,
                        0.03074507601559162,
                        -0.013278900645673275,
                        -0.05497319623827934,
                        -0.01104744989424944,
                        0.06890685856342316,
                        -0.013613127171993256,
                        -0.06756642460823059,
                        0.008725928142666817,
                        -0.06047064810991287,
                        -0.03157474845647812,
                        0.04842759296298027,
                        -0.060985416173934937,
                        0.062125541269779205,
                        -0.07731954753398895,
                        0.06405472755432129,
                        0.042681507766246796,
                        -0.04059853404760361,
                        0.022783873602747917,
                        -0.0009115990251302719,
                        0.07074545323848724,
                        0.01974281296133995,
                        0.06312623620033264,
                        -0.0462813675403595,
                        0.002640247344970703,
                        0.08028492331504822,
                        0.03813678026199341,
                        0.046978626400232315,
                        0.03644465282559395,
                        -0.06645816564559937,
                        -0.0049681589007377625,
                        0.0003964817151427269,
                        -0.03051803447306156,
                        0.024661002680659294,
                        -0.03770797699689865,
                        -0.05510222539305687,
                        0.06683072447776794,
                        0.030857179313898087,
                        -0.0848492980003357,
                        -0.0668935552239418,
                        -0.018929505720734596,
                        -0.012371042743325233,
                        -0.012660736218094826,
                        0.025557423010468483,
                        -0.00481829047203064,
                        -0.04639212042093277,
                        0.05872665345668793,
                        -0.04537498950958252,
                        0.013549888506531715,
                        0.05113080143928528,
                        0.03960151970386505,
                        -0.010074412450194359,
                        -0.018718354403972626,
                        -0.08729712665081024,
                        -0.009856640361249447,
                        -0.017854854464530945,
                        0.03066813200712204,
                        -0.054367560893297195,
                        0.035281166434288025,
                        0.018166285008192062,
                        0.02553475648164749,
                        -0.05650255084037781,
                        -0.022920992225408554,
                        -0.042600713670253754,
                        0.0290245171636343,
                        0.0015564262866973877,
                        -0.08134046941995621,
                        -0.0011530756019055843,
                        -0.05803405120968819,
                        -0.048815369606018066,
                        -0.05154234170913696,
                        0.06511041522026062,
                        -0.023498769849538803,
                        -0.06847132742404938,
                        -0.05480693280696869
                    ],
                    [
                        -0.08056068420410156,
                        -0.02381441369652748,
                        -0.011248835362493992,
                        -0.032275501638650894,
                        -0.009186930023133755,
                        -0.023163098841905594,
                        0.056025031954050064,
                        -0.08055566251277924,
                        0.00907227210700512,
                        0.02549126371741295,
                        0.02273726835846901,
                        -0.059275634586811066,
                        -0.006028609350323677,
                        0.017487777397036552,
                        0.0613647997379303,
                        0.06459368020296097,
                        -0.058766208589076996,
                        0.06981206685304642,
                        4.714448004961014e-05,
                        0.042099811136722565,
                        0.001333910971879959,
                        -0.060891278088092804,
                        -0.02467314898967743,
                        -0.07256864011287689,
                        0.012348601594567299,
                        0.0577496699988842,
                        0.01933513768017292,
                        -0.09283559769392014,
                        -0.0018557403236627579,
                        0.029058018699288368,
                        -0.06667490303516388,
                        -0.08047625422477722,
                        0.048895224928855896,
                        0.016363099217414856,
                        0.061489805579185486,
                        0.006061947904527187,
                        0.04627007618546486,
                        0.013418949209153652,
                        -0.047388412058353424,
                        -0.0958884060382843,
                        0.012565910816192627,
                        -0.07996505498886108,
                        0.05782424658536911,
                        0.008036801591515541,
                        0.047180116176605225,
                        -0.05294288322329521,
                        0.04916413128376007,
                        0.07030198723077774,
                        -0.05879954248666763,
                        0.00745387515053153,
                        0.03986440226435661,
                        0.06002865731716156,
                        -0.05592311546206474,
                        0.013995254412293434,
                        0.05385643243789673,
                        -0.0435238853096962,
                        -0.027876049280166626,
                        -0.05660679191350937,
                        0.057276591658592224,
                        -0.05623103305697441,
                        0.010804749093949795,
                        -0.02046317607164383,
                        -0.045030754059553146,
                        0.04448312520980835,
                        0.032069530338048935,
                        0.005709566175937653,
                        -0.005554426461458206,
                        0.05223029851913452,
                        0.024043699726462364,
                        0.008012080565094948,
                        0.005126597359776497,
                        0.01988045498728752,
                        0.0015511512756347656,
                        -0.016702741384506226,
                        -0.06381751596927643,
                        0.06381082534790039,
                        -0.055929988622665405,
                        -0.010369178839027882,
                        0.040377724915742874,
                        -0.05031018331646919,
                        0.08936202526092529,
                        -0.014560393989086151,
                        0.052961189299821854,
                        0.004167533479630947,
                        0.004371813498437405,
                        0.04291064664721489,
                        -0.07782894372940063,
                        -0.00721567589789629
                    ],
                    [
                        0.028734467923641205,
                        0.0011447016149759293,
                        -0.06648428738117218,
                        0.01831686869263649,
                        0.0355236791074276,
                        -0.018709596246480942,
                        0.011174040846526623,
                        0.012468161061406136,
                        -0.052320972084999084,
                        -0.022234221920371056,
                        0.010498693212866783,
                        -0.03937184810638428,
                        -0.0002586478367447853,
                        -0.061754219233989716,
                        0.01998206041753292,
                        0.053742796182632446,
                        -0.014073324389755726,
                        0.017721794545650482,
                        -0.04582682251930237,
                        0.04504961520433426,
                        0.004352082498371601,
                        0.03700396418571472,
                        -0.06295376271009445,
                        0.027854178100824356,
                        -0.033553943037986755,
                        0.000588512048125267,
                        0.05260658264160156,
                        0.003172879107296467,
                        0.03006419911980629,
                        -0.00785365141928196,
                        0.06041843816637993,
                        -0.047017987817525864,
                        0.05745160952210426,
                        0.03040749952197075,
                        -0.059408389031887054,
                        0.0246855691075325,
                        0.08377103507518768,
                        0.08628597855567932,
                        0.012381273321807384,
                        0.0625128298997879,
                        -0.02902664616703987,
                        -0.028940580785274506,
                        -0.06872380524873734,
                        0.06812328100204468,
                        0.08063433319330215,
                        -0.04700631648302078,
                        0.01924114115536213,
                        -0.02756495214998722,
                        0.003041796386241913,
                        -0.03783334046602249,
                        -0.07633207738399506,
                        -0.04960552603006363,
                        0.005066391080617905,
                        -0.041167426854372025,
                        0.03913073614239693,
                        0.02866629883646965,
                        -0.057800810784101486,
                        0.0033158583100885153,
                        0.06801190972328186,
                        -0.015264991670846939,
                        -0.0032075787894427776,
                        0.015717636793851852,
                        0.048387687653303146,
                        -0.028348717838525772,
                        -0.011066285893321037,
                        0.02154855616390705,
                        0.055498942732810974,
                        -0.0003902292810380459,
                        -0.04577351361513138,
                        0.05827518552541733,
                        0.06034605950117111,
                        0.0517648309469223,
                        0.0013616960495710373,
                        0.06876233965158463,
                        0.0080648735165596,
                        -0.016689714044332504,
                        -0.04855537414550781,
                        -0.023859884589910507,
                        -0.031302016228437424,
                        0.08017896115779877,
                        -0.06059068813920021,
                        0.00870675127953291,
                        0.002900076098740101,
                        0.0770200788974762,
                        0.08213932067155838,
                        0.06367523968219757,
                        -0.032965630292892456,
                        0.011186189018189907
                    ],
                    [
                        -0.04190783575177193,
                        0.06112706661224365,
                        0.043019842356443405,
                        -0.004555618390440941,
                        0.04746638983488083,
                        0.06992419809103012,
                        -0.012261729687452316,
                        0.0760933980345726,
                        -0.0006099361926317215,
                        0.052802398800849915,
                        -0.005087776575237513,
                        -0.028587475419044495,
                        0.02744021825492382,
                        0.03689217194914818,
                        0.0241957139223814,
                        0.01874179020524025,
                        0.06391245126724243,
                        -0.0036388449370861053,
                        0.03829316794872284,
                        -0.028984026983380318,
                        -0.030201148241758347,
                        -0.06946473568677902,
                        0.029527220875024796,
                        0.006345795467495918,
                        0.002810589037835598,
                        0.028967052698135376,
                        0.036664653569459915,
                        -0.052026160061359406,
                        -0.01040718611329794,
                        -0.05848844721913338,
                        0.008097578771412373,
                        0.04428168758749962,
                        0.05393766611814499,
                        -0.0634286105632782,
                        0.0708191841840744,
                        0.042786143720149994,
                        -0.002226762706413865,
                        0.013119541108608246,
                        -0.02433006837964058,
                        -0.036173321306705475,
                        0.05469202995300293,
                        0.01808086223900318,
                        -0.01612606830894947,
                        0.026209741830825806,
                        0.07694783061742783,
                        -0.08922213315963745,
                        0.042451292276382446,
                        0.03426457569003105,
                        0.05250819772481918,
                        -0.0034376103430986404,
                        0.06337348371744156,
                        0.04057241231203079,
                        0.02239205688238144,
                        0.010383887216448784,
                        0.06555131077766418,
                        -0.05097559466958046,
                        0.04509575664997101,
                        -0.05503912270069122,
                        -0.009820819832384586,
                        -0.07118699699640274,
                        -0.026748402044177055,
                        0.04759892821311951,
                        0.05389213562011719,
                        -0.022753383964300156,
                        0.07067962735891342,
                        -0.018611641600728035,
                        0.05835418030619621,
                        0.01230909675359726,
                        -0.01512167789041996,
                        0.027453383430838585,
                        0.0343681275844574,
                        -0.009059438481926918,
                        -0.05100540816783905,
                        -0.024392258375883102,
                        -0.08660851418972015,
                        -0.025328699499368668,
                        -0.05588170140981674,
                        -9.489711374044418e-05,
                        -0.029565107077360153,
                        -0.008584392257034779,
                        -0.0638711005449295,
                        0.045590050518512726,
                        0.007949268445372581,
                        -0.040969908237457275,
                        0.007933536544442177,
                        -0.01154433935880661,
                        0.04437171667814255,
                        -0.01857566274702549
                    ],
                    [
                        -0.004004571121186018,
                        -0.013507109135389328,
                        -0.00920147355645895,
                        -0.004429029766470194,
                        0.08551633358001709,
                        -0.0641152411699295,
                        0.04020553454756737,
                        -0.028200466185808182,
                        -0.08631490916013718,
                        0.0039710672572255135,
                        0.04495745524764061,
                        -0.011226088739931583,
                        -0.009131001308560371,
                        -0.0453999787569046,
                        -0.052490174770355225,
                        0.06299136579036713,
                        0.03303951770067215,
                        0.016030948609113693,
                        -0.05029190331697464,
                        -0.03325419872999191,
                        0.03132146596908569,
                        0.02280876785516739,
                        0.048794981092214584,
                        0.06770829856395721,
                        -0.07877492904663086,
                        0.045958951115608215,
                        0.05601834878325462,
                        -0.018208488821983337,
                        -0.04732675105333328,
                        0.005006890743970871,
                        -0.0026416233740746975,
                        -0.07064230740070343,
                        -0.07763358950614929,
                        -0.05937875062227249,
                        -0.02664583921432495,
                        0.03663351386785507,
                        0.018819911405444145,
                        -0.019293231889605522,
                        0.05972835421562195,
                        -0.04511094093322754,
                        0.020124005153775215,
                        0.04240518808364868,
                        -0.08557145297527313,
                        -0.01765058934688568,
                        -0.015079138800501823,
                        -0.03451133891940117,
                        -0.07054547965526581,
                        -0.04076549783349037,
                        -0.005820140242576599,
                        -0.0027960347943007946,
                        0.07502135634422302,
                        0.06429950892925262,
                        -0.055897537618875504,
                        0.015563610941171646,
                        -0.005012569949030876,
                        -0.031029880046844482,
                        -0.03689543530344963,
                        -0.04271233081817627,
                        -0.05399685353040695,
                        0.052040040493011475,
                        -0.034698233008384705,
                        -0.0004398468881845474,
                        0.019511748105287552,
                        0.003035902976989746,
                        0.01541855651885271,
                        -0.012872827239334583,
                        -0.011046178638935089,
                        0.011586887761950493,
                        0.04881949722766876,
                        0.020030561834573746,
                        -0.04136279970407486,
                        0.016464561223983765,
                        -0.017964808270335197,
                        -0.008026006631553173,
                        -0.016092607751488686,
                        0.022102944552898407,
                        -0.033723585307598114,
                        0.07734695076942444,
                        -0.0411672480404377,
                        0.04386058449745178,
                        -0.020276252180337906,
                        0.05620429664850235,
                        0.059596169739961624,
                        -0.026634622365236282,
                        -0.04920591413974762,
                        -0.04842759296298027,
                        -0.014208835549652576,
                        0.054053544998168945
                    ],
                    [
                        0.0492543987929821,
                        -0.007135388441383839,
                        0.08764219284057617,
                        0.026819180697202682,
                        0.02406669780611992,
                        -0.032457731664180756,
                        0.03559260815382004,
                        -0.06309860944747925,
                        0.0019200188107788563,
                        0.019838128238916397,
                        0.02163616195321083,
                        0.031063899397850037,
                        0.07131698727607727,
                        0.028061430901288986,
                        0.006423010490834713,
                        0.0032055601477622986,
                        0.08396704494953156,
                        -0.03165195882320404,
                        -0.05552172288298607,
                        -0.023965559899806976,
                        -0.03961430490016937,
                        0.03446149080991745,
                        -0.03643539175391197,
                        -0.025425517931580544,
                        0.014749088324606419,
                        0.07365281879901886,
                        -0.022994497790932655,
                        -0.014753837138414383,
                        0.04929657280445099,
                        0.034001316875219345,
                        -0.053610991686582565,
                        -0.05322930961847305,
                        0.07171274721622467,
                        0.032163091003894806,
                        -0.002766454592347145,
                        0.0209659431129694,
                        -0.018724123015999794,
                        -0.019198093563318253,
                        0.05023907124996185,
                        -0.01109529659152031,
                        0.03730997070670128,
                        -0.009150778874754906,
                        -0.04212060198187828,
                        0.0160287506878376,
                        -0.017839785665273666,
                        0.03513587638735771,
                        0.04859576374292374,
                        0.04534556344151497,
                        -0.0595688596367836,
                        -0.05552072823047638,
                        0.08494727313518524,
                        0.007620834279805422,
                        0.031164705753326416,
                        -0.04230307415127754,
                        -0.05353889614343643,
                        -0.026566628366708755,
                        -0.055795736610889435,
                        0.060088444501161575,
                        0.003970810677856207,
                        -0.06885018944740295,
                        0.014611242339015007,
                        0.03581058606505394,
                        -0.029416479170322418,
                        0.011517495848238468,
                        -0.02866974100470543,
                        0.035854898393154144,
                        0.05805329978466034,
                        0.06854605674743652,
                        0.02975270338356495,
                        -0.07223175466060638,
                        0.0758562982082367,
                        -0.028886597603559494,
                        0.03922934830188751,
                        -0.06072505563497543,
                        -0.03860943391919136,
                        -0.05080023407936096,
                        -0.02418796718120575,
                        -0.013049669563770294,
                        0.09488196671009064,
                        -0.044777512550354004,
                        0.04729711636900902,
                        -0.056825071573257446,
                        -0.02446061559021473,
                        0.048653170466423035,
                        0.010255258530378342,
                        0.008608022704720497,
                        0.01605704054236412,
                        0.0797227993607521
                    ],
                    [
                        -0.07309070229530334,
                        -0.016285445541143417,
                        -0.029738422483205795,
                        -0.0481158010661602,
                        0.06444655358791351,
                        0.021145494654774666,
                        0.01908024400472641,
                        0.07406449317932129,
                        -0.06326811015605927,
                        0.009450226090848446,
                        -0.04798185080289841,
                        0.015849808230996132,
                        -0.07185497134923935,
                        0.03243403136730194,
                        -0.025353049859404564,
                        0.023362968116998672,
                        0.04810098558664322,
                        0.04368487372994423,
                        -0.0011006419081240892,
                        -0.05031519755721092,
                        -0.03291616588830948,
                        -0.051892418414354324,
                        -0.060490358620882034,
                        -0.0730467140674591,
                        0.009151676669716835,
                        0.08007878810167313,
                        0.0451560840010643,
                        -0.006035645958036184,
                        0.041672784835100174,
                        -0.05556151270866394,
                        0.008726421743631363,
                        -0.0612138956785202,
                        -0.030075091868638992,
                        -0.051540929824113846,
                        0.0664248988032341,
