{
    "architecture": "NN",
    "layers": [
        {
            "layer_name": "flatten",
            "layer_type": "Flatten",
            "parameters": {}
        },
        {
            "layer_name": "linear_relu_stack",
            "layer_type": "Sequential",
            "parameters": {
                "0.weight": [
                    [
                        -0.005369916558265686,
                        -0.029354849830269814,
                        -0.06069740653038025,
                        0.02943006530404091,
                        0.031043771654367447,
                        -0.017741411924362183,
                        0.0035975133068859577,
                        -0.055052708834409714,
                        -0.015756534412503242,
                        -0.00022445002105087042,
                        0.017709197476506233,
                        0.054496753960847855,
                        -0.039871811866760254,
                        2.2545806132256985e-05,
                        0.011784855276346207,
                        0.025661831721663475,
                        -0.07401147484779358,
                        0.047892555594444275,
                        -0.012334509752690792,
                        -0.019813518971204758,
                        -0.041882820427417755,
                        0.036684975028038025,
                        0.010061057284474373,
                        0.02062854915857315,
                        0.0623248852789402,
                        -0.026687290519475937,
                        0.02023051306605339,
                        -0.0052046943455934525,
                        -0.01162461657077074,
                        0.01665019802749157,
                        0.026343869045376778,
                        -0.010748753324151039,
                        -0.024264462292194366,
                        -0.0009992987615987659,
                        0.0371701717376709,
                        0.0339517667889595,
                        0.03508227691054344,
                        0.010794798843562603,
                        -0.003997704014182091,
                        0.04691819101572037,
                        0.04139505699276924,
                        0.01538094598799944,
                        0.006383322179317474,
                        -0.0010551969753578305,
                        -0.014345319010317326,
                        0.01659807190299034,
                        -0.041115980595350266,
                        0.029393306002020836,
                        0.015620589256286621,
                        0.010499303229153156,
                        0.010869349353015423,
                        0.027260474860668182,
                        0.0024583018384873867,
                        -0.058117032051086426,
                        0.03985157236456871,
                        0.018255095928907394,
                        -0.006040907930582762,
                        0.06318657845258713,
                        0.00564306927844882,
                        -0.027752473950386047,
                        0.05244629830121994,
                        -0.04114624485373497,
                        0.0004181911936029792,
                        -0.019866619259119034,
                        -0.0029426005203276873,
                        0.02275427244603634,
                        0.047423843294382095,
                        -0.03198595717549324,
                        -0.015858996659517288,
                        0.003998853731900454,
                        -0.030609289184212685,
                        -0.034519825130701065,
                        0.011645311489701271,
                        -0.02373131364583969,
                        0.0008118395926430821,
                        0.049190763384103775,
                        -0.002324153436347842,
                        -0.004669489338994026,
                        -0.008178038522601128,
                        0.021671995520591736,
                        0.037276338785886765,
                        -0.04108773171901703,
                        0.03374558314681053,
                        -0.014306985773146152,
                        0.011768010444939137,
                        0.0038507909048348665,
                        0.015969479456543922,
                        -0.04236232116818428
                    ],
                    [
                        0.051565252244472504,
                        -0.046859804540872574,
                        0.031580887734889984,
                        -0.03917022421956062,
                        0.04060167819261551,
                        -0.023694345727562904,
                        -0.010263864882290363,
                        -0.04487950727343559,
                        0.025158457458019257,
                        -0.05815562233328819,
                        -0.031681593507528305,
                        0.011109826155006886,
                        -0.005637839902192354,
                        0.0599697083234787,
                        0.00734308734536171,
                        -0.004941677674651146,
                        0.03816736489534378,
                        0.015595465898513794,
                        0.014565497636795044,
                        0.027061956003308296,
                        -0.04303861781954765,
                        -0.03735087811946869,
                        0.018675731495022774,
                        0.05901871621608734,
                        -0.03932361304759979,
                        0.019682548940181732,
                        0.011132649146020412,
                        -0.012604144401848316,
                        -0.02180725522339344,
                        -0.009598960168659687,
                        0.026748375967144966,
                        0.01863083988428116,
                        0.08123458921909332,
                        -0.008341753855347633,
                        0.03803839534521103,
                        0.057705171406269073,
                        -0.03602902963757515,
                        -0.01917136088013649,
                        0.03888508677482605,
                        -0.015203537419438362,
                        0.004715238232165575,
                        0.03671903908252716,
                        -0.023253735154867172,
                        -0.05392839014530182,
                        -0.010503681376576424,
                        0.009934753179550171,
                        -0.013451321050524712,
                        -0.02846527099609375,
                        -0.04891492798924446,
                        0.06641215085983276,
                        -0.05329350009560585,
                        -0.0021541176829487085,
                        0.014844740740954876,
                        -0.02430516481399536,
                        -0.004364602267742157,
                        -0.024106480181217194,
                        0.019856519997119904,
                        0.0635838508605957,
                        -0.012611044570803642,
                        0.002778278198093176,
                        0.030393041670322418,
                        0.03030284121632576,
                        0.03384477272629738,
                        0.028865203261375427,
                        -0.03163117170333862,
                        -0.03308670222759247,
                        -0.0020831944420933723,
                        0.028617756441235542,
                        0.020596874877810478,
                        -0.028356662020087242,
                        0.04824425280094147,
                        0.020447414368391037,
                        0.014733307994902134,
                        0.006499654613435268,
                        -0.03160576522350311,
                        0.014656132087111473,
                        0.020122269168496132,
                        -0.013205623254179955,
                        -0.020030707120895386,
                        0.021787269040942192,
                        0.00441997405141592,
                        0.06718578934669495,
                        -0.0018517451826483011,
                        -0.05357999727129936,
                        -0.04110631346702576,
                        0.03877582028508186,
                        0.049197711050510406,
                        0.04943707585334778
                    ],
                    [
                        -0.0012911420781165361,
                        0.018121765926480293,
                        0.011119542643427849,
                        0.02192608267068863,
                        0.01793266460299492,
                        -0.04230199009180069,
                        0.02122437208890915,
                        -0.04248904809355736,
                        0.008280516602098942,
                        -0.011846646666526794,
                        0.07511162012815475,
                        -0.0036831069737672806,
                        -0.02719067968428135,
                        0.03785230591893196,
                        0.02814185991883278,
                        0.014466988854110241,
                        0.0576128251850605,
                        -0.03167831152677536,
                        0.0019516240572556853,
                        0.014243707060813904,
                        0.01333005353808403,
                        -0.011593920178711414,
                        -0.035302579402923584,
                        0.03258884698152542,
                        -0.049651436507701874,
                        -0.014488630928099155,
                        -0.020212844014167786,
                        -0.044447146356105804,
                        0.018349435180425644,
                        0.04193280264735222,
                        0.027842558920383453,
                        0.056725941598415375,
                        -0.06193888932466507,
                        -0.016583271324634552,
                        0.006867582909762859,
                        -0.02697228267788887,
                        0.023401809856295586,
                        -0.018105551600456238,
                        -0.0030264626257121563,
                        -0.021834546700119972,
                        0.01859189011156559,
                        0.031177449971437454,
                        0.049937762320041656,
                        -0.023570984601974487,
                        0.01778380386531353,
                        0.008666934445500374,
                        -0.04860944300889969,
                        0.009365301579236984,
                        0.0022485186345875263,
                        0.004744295496493578,
                        -0.012404738925397396,
                        -0.02722945809364319,
                        0.011719046160578728,
                        0.059580206871032715,
                        -0.0007338813738897443,
                        -0.04435724392533302,
                        -0.04945845529437065,
                        0.0179415512830019,
                        -0.02074308507144451,
                        -0.04010334610939026,
                        0.028178175911307335,
                        0.04075659438967705,
                        -0.03298701345920563,
                        -0.0299052856862545,
                        0.020530737936496735,
                        -0.03911557048559189,
                        -0.034152109175920486,
                        -0.06720404326915741,
                        -0.061662424355745316,
                        0.008492767810821533,
                        -0.022733183577656746,
                        -0.018744178116321564,
                        -0.018012607470154762,
                        0.007864384911954403,
                        -0.027330836281180382,
                        0.03387270122766495,
                        0.010104088112711906,
                        0.0019349229987710714,
                        -0.024431083351373672,
                        0.041485436260700226,
                        -0.01144341193139553,
                        -0.025209620594978333,
                        -0.01855585165321827,
                        -0.01722254976630211,
                        -0.05960177630186081,
                        -0.012514062225818634,
                        0.018736423924565315,
                        -0.04568706080317497
                    ],
                    [
                        0.048481352627277374,
                        0.0036472335923463106,
                        0.015883835032582283,
                        0.053867243230342865,
                        -0.08280238509178162,
                        0.08529382199048996,
                        -0.03787807375192642,
                        0.02343890070915222,
                        0.022451290860772133,
                        0.04434347525238991,
                        -0.04296397417783737,
                        0.010944996029138565,
                        0.043939314782619476,
                        -0.030911210924386978,
                        0.00015656935283914208,
                        0.010733719915151596,
                        0.05689280107617378,
                        -0.03894287347793579,
                        0.02265867590904236,
                        0.01803579553961754,
                        0.019141042605042458,
                        -0.037253111600875854,
                        -0.01394952554255724,
                        0.04133410006761551,
                        0.016947787255048752,
                        -0.02514120191335678,
                        -0.023342451080679893,
                        0.005001016426831484,
                        -0.008785257115960121,
                        -0.013590973801910877,
                        -0.03656917065382004,
                        -0.05805741995573044,
                        -0.0065393527038395405,
                        0.04992252215743065,
                        0.037026818841695786,
                        0.039665017277002335,
                        0.04256041720509529,
                        -0.048999130725860596,
                        -0.01965523138642311,
                        -0.03908723220229149,
                        0.02109794318675995,
                        -0.01110681239515543,
                        0.005177635233849287,
                        0.0038721226155757904,
                        0.011651608161628246,
                        -0.0010218529496341944,
                        0.0154192466288805,
                        0.004079937469214201,
                        -0.040663592517375946,
                        0.028464175760746002,
                        -0.005463405977934599,
                        -0.03263019770383835,
                        -0.02166886255145073,
                        -0.01660298742353916,
                        0.001699846121482551,
                        -0.011490194126963615,
                        0.02797962725162506,
                        0.0483303964138031,
                        0.008214934729039669,
                        0.04266870394349098,
                        0.06133812293410301,
                        -0.02598927728831768,
                        -0.045984379947185516,
                        0.04872436821460724,
                        0.07794598489999771,
                        -0.022777847945690155,
                        -0.04479823261499405,
                        -0.05532241240143776,
                        0.018149232491850853,
                        -0.0048689753748476505,
                        -0.06716832518577576,
                        -0.017835184931755066,
                        -0.0052230628207325935,
                        0.010647875256836414,
                        0.008229082450270653,
                        -0.027460701763629913,
                        -0.0565081350505352,
                        -0.0022881110198795795,
                        -0.04305608570575714,
                        0.048584435135126114,
                        0.02439606934785843,
                        -0.01497618667781353,
                        0.05761004984378815,
                        0.010917820036411285,
                        -0.033125415444374084,
                        0.0063247522339224815,
                        -0.049774184823036194,
                        -0.05270932987332344
                    ],
                    [
                        -0.04135530814528465,
                        -0.039255205541849136,
                        0.04035254940390587,
                        -0.0397680290043354,
                        -0.008998739533126354,
                        0.00018912855011876673,
                        -0.013017605058848858,
                        0.029710175469517708,
                        0.029923293739557266,
                        -0.025286564603447914,
                        -0.048080965876579285,
                        -0.05614425241947174,
                        0.02443249151110649,
                        -0.06720788776874542,
                        -0.03089243918657303,
                        0.008769065141677856,
                        0.005577386822551489,
                        -0.02660541981458664,
                        -0.012251152656972408,
                        -0.0032226580660790205,
                        0.04192376509308815,
                        0.002649532863870263,
                        -0.02455599419772625,
                        -0.036730024963617325,
                        -0.012334930710494518,
                        -0.017555678263306618,
                        0.010713912546634674,
                        -0.026983726769685745,
                        0.016877053305506706,
                        0.01222262904047966,
                        -0.018763480708003044,
                        -0.0065435548312962055,
                        0.038442716002464294,
                        0.019829053431749344,
                        -0.06387371569871902,
                        -0.030959827825427055,
                        0.020317601040005684,
                        0.012715238146483898,
                        -0.041707806289196014,
                        -0.005269891116768122,
                        0.012525966390967369,
                        0.020045768469572067,
                        -0.023517247289419174,
                        -0.05468966066837311,
                        -0.013126241974532604,
                        -0.030017103999853134,
                        0.016741717234253883,
                        0.052755776792764664,
                        -0.014713272452354431,
                        -0.04667550325393677,
                        0.052576519548892975,
                        -0.04480066895484924,
                        0.05640126019716263,
                        0.007452080957591534,
                        -0.01927364617586136,
                        0.01568983681499958,
                        -0.0056185428984463215,
                        0.0008962047286331654,
                        0.04256291687488556,
                        0.010919003747403622,
                        -0.0035217879340052605,
                        0.051981210708618164,
                        0.05318928509950638,
                        0.01305740512907505,
                        -0.04411432519555092,
                        0.020365003496408463,
                        0.02101024240255356,
                        0.02556992694735527,
                        -0.03356257453560829,
                        -0.06275613605976105,
                        -0.009339398704469204,
                        -0.03419232740998268,
                        -0.02551264874637127,
                        -0.0464540496468544,
                        -0.017687685787677765,
                        -0.013910751789808273,
                        -0.004635587800294161,
                        -0.05088774114847183,
                        -0.01371464692056179,
                        0.004489227198064327,
                        -0.032331887632608414,
                        -0.030683675780892372,
                        0.01767639070749283,
                        0.0714673101902008,
                        0.019587500020861626,
                        0.0021858594845980406,
                        0.007394139654934406,
                        0.006517438217997551
                    ],
                    [
                        0.011231650598347187,
                        -0.0037792420480400324,
                        -0.04116369038820267,
                        0.043076034635305405,
                        -0.019026316702365875,
                        -0.06549791991710663,
                        -0.04674462229013443,
                        0.0016805490013211966,
                        -0.0018431054195389152,
                        -0.07155418395996094,
                        -0.03266327455639839,
                        0.03329864889383316,
                        0.005386587232351303,
                        -0.01958330348134041,
                        -0.061385538429021835,
                        -0.0033553072717040777,
                        0.029469411820173264,
                        0.012373639270663261,
                        0.0010995552875101566,
                        0.038290053606033325,
                        -0.00784048531204462,
                        0.017707087099552155,
                        0.004125168547034264,
                        -0.01873132959008217,
                        0.025490444153547287,
                        0.03198970854282379,
                        0.04326510801911354,
                        -0.02028539404273033,
                        -0.026351068168878555,
                        -0.02506936714053154,
                        0.013280434533953667,
                        -0.011973096989095211,
                        0.03698263317346573,
                        0.02200680784881115,
                        -0.014135303907096386,
                        0.023870855569839478,
                        -0.014878250658512115,
                        0.01259362418204546,
                        -0.022092707455158234,
                        0.0029981392435729504,
                        -0.02867405116558075,
                        -0.003766437526792288,
                        0.03320057690143585,
                        -0.04651184380054474,
                        0.017740314826369286,
                        0.007913598790764809,
                        0.0022167435381561518,
                        0.039166711270809174,
                        -0.030545560643076897,
                        -0.014397425577044487,
                        -0.04762950539588928,
                        -0.0165674090385437,
                        0.015456020832061768,
                        0.027349701151251793,
                        -0.018415920436382294,
                        0.057817500084638596,
                        0.00233170622959733,
                        -0.015623847022652626,
                        0.026454314589500427,
                        -0.019772034138441086,
                        -0.006583523936569691,
                        -0.022596193477511406,
                        -0.051196299493312836,
                        0.021136699244379997,
                        0.058143943548202515,
                        -0.04683593288064003,
                        -0.017538808286190033,
                        0.05287931114435196,
                        -0.017603017389774323,
                        -0.01998458243906498,
                        -0.015208698809146881,
                        -0.010602090507745743,
                        0.04947393387556076,
                        -0.039173830300569534,
                        -0.03481423854827881,
                        0.030239947140216827,
                        -0.009180381894111633,
                        -0.021065451204776764,
                        -0.0155345369130373,
                        -0.024652883410453796,
                        -0.02060353197157383,
                        0.0090680792927742,
                        -0.04056268185377121,
                        -0.01840684562921524,
                        -0.046980664134025574,
                        -0.03978026285767555,
                        0.024838339537382126,
                        0.06199091672897339
                    ],
                    [
                        -0.08300373703241348,
                        -0.012024229392409325,
                        0.05462931841611862,
                        -0.0209480170160532,
                        0.0126893175765872,
                        0.02220846898853779,
                        0.038299161940813065,
                        0.008001277223229408,
                        -0.003935744054615498,
                        0.04572596400976181,
                        0.02332695759832859,
                        0.02224811539053917,
                        -0.021641166880726814,
                        -0.01287673506885767,
                        -0.016014162451028824,
                        0.016430452466011047,
                        0.0051398989744484425,
                        0.0225555207580328,
                        0.021243218332529068,
                        0.02325461059808731,
                        -0.03599230945110321,
                        0.022548461332917213,
                        -0.0019594551995396614,
                        -0.012234974652528763,
                        0.008012782782316208,
                        -0.044668544083833694,
                        -0.020264968276023865,
                        0.01765698939561844,
                        -0.040491968393325806,
                        0.007796242833137512,
                        -0.009610684588551521,
                        -0.0020910552702844143,
                        0.04762639105319977,
                        0.0361785851418972,
                        0.027093522250652313,
                        -0.01994413696229458,
                        -0.031243570148944855,
                        -0.0026997739914804697,
                        0.04659691080451012,
                        0.03310126066207886,
                        0.0028644937556236982,
                        -0.057705774903297424,
                        -0.02204662747681141,
                        0.0138047244399786,
                        0.06030315160751343,
                        -0.04315692558884621,
                        0.007658105343580246,
                        0.013367494568228722,
                        0.04123488813638687,
                        0.004094775300472975,
                        0.008695404976606369,
                        -0.03292132169008255,
                        -0.023245735093951225,
                        -0.020521294325590134,
                        -0.02094166725873947,
                        0.0041548116132617,
                        -0.025685254484415054,
                        0.0005619445000775158,
                        -0.04177374765276909,
                        0.0043413336388766766,
                        0.05132196098566055,
                        -0.048884451389312744,
                        -0.009427441284060478,
                        0.0047369105741381645,
                        0.006055780686438084,
                        0.001192188006825745,
                        0.050995614379644394,
                        0.0544775128364563,
                        -0.03524579852819443,
                        -0.035298869013786316,
                        0.016806071624159813,
                        -0.00830442737787962,
                        0.0016362637979909778,
                        0.01737460494041443,
                        -0.043651971966028214,
                        0.017951618880033493,
                        -0.014681602828204632,
                        -0.024406999349594116,
                        -0.021362341940402985,
                        0.017602045089006424,
                        -0.06636164337396622,
                        -0.030558332800865173,
                        -0.03937868773937225,
                        0.000577982165850699,
                        0.007321259006857872,
                        0.017436368390917778,
                        0.041402850300073624,
                        -0.049831222742795944
                    ],
                    [
                        0.045989617705345154,
                        0.024755338206887245,
                        0.008915957063436508,
                        -0.06267914175987244,
                        0.027131203562021255,
                        -0.03898020461201668,
                        0.03377494961023331,
                        -0.02789856493473053,
                        -0.007730756886303425,
                        -0.002132267225533724,
                        0.013937577605247498,
                        -0.014932829886674881,
                        0.047090593725442886,
                        0.004861228633671999,
                        0.02411547861993313,
                        0.003985209856182337,
                        -0.013807222247123718,
                        -0.0360383465886116,
                        0.005976470187306404,
                        -0.011701583862304688,
                        0.002578603569418192,
                        0.021030675619840622,
                        -0.06276298314332962,
                        -0.02598927915096283,
                        -0.021467894315719604,
                        0.00011921057011932135,
                        0.01488775759935379,
                        -0.009204518981277943,
                        0.005185318179428577,
                        -0.011975910514593124,
                        0.08214107155799866,
                        -0.024652067571878433,
                        0.017805499956011772,
                        0.03200354427099228,
                        -0.009569934569299221,
                        -0.04174961894750595,
                        0.0015911438968032598,
                        -0.005433056503534317,
                        0.016934597864747047,
                        0.020697573199868202,
                        -0.023229479789733887,
                        -0.017409993335604668,
                        -0.04896767437458038,
                        -0.036473117768764496,
                        -0.003234714502468705,
                        -0.01858513057231903,
                        0.04747724533081055,
                        -0.03508356213569641,
                        0.03423207253217697,
                        -0.0009369903709739447,
                        -0.0220478605479002,
                        -0.03092619590461254,
                        0.06285535544157028,
                        0.010030697099864483,
                        0.07726870477199554,
                        0.012200653553009033,
                        -0.0004901639185845852,
                        -0.05589466542005539,
                        0.011451192200183868,
                        0.023911600932478905,
                        0.02861187607049942,
                        -0.0069562289863824844,
                        -0.01911933720111847,
                        0.03499344363808632,
                        0.03430231660604477,
                        -0.02944723702967167,
                        -0.02212803065776825,
                        -0.047796621918678284,
                        -0.00980454869568348,
                        0.02948767878115177,
                        -0.05172885209321976,
                        0.010428168810904026,
                        0.019347582012414932,
                        0.06148642301559448,
                        0.0051375688053667545,
                        0.028892090544104576,
                        -0.00851413793861866,
                        0.0026533021591603756,
                        0.01663588359951973,
                        -0.059091195464134216,
                        -0.07040999084711075,
                        0.04146876186132431,
                        -0.0019013441633433104,
                        0.009837843477725983,
                        -0.013128072954714298,
                        0.0070611461997032166,
                        0.027684908360242844,
                        -0.01710812747478485
                    ],
                    [
                        -0.015952352434396744,
                        -0.016997016966342926,
                        -0.016736609861254692,
                        0.03173905238509178,
                        -0.03933054581284523,
                        0.027933558449149132,
                        -0.010390732437372208,
                        -0.017644206061959267,
                        -0.04727860167622566,
                        0.05695221573114395,
                        -0.004611443728208542,
                        -0.013093587942421436,
                        -0.028315342962741852,
                        -0.04532948136329651,
                        0.023444227874279022,
                        -0.013997204601764679,
                        -0.030783243477344513,
                        0.012858451344072819,
                        0.01177709735929966,
                        0.039498746395111084,
                        0.019855746999382973,
                        0.04722171276807785,
                        0.03372791036963463,
                        -0.014738509431481361,
                        -0.04458523914217949,
                        0.004314532037824392,
                        -0.0026714096311479807,
                        -0.008074572309851646,
                        0.010107072070240974,
                        -0.02038918063044548,
                        -0.024535739794373512,
                        0.02202080562710762,
                        -0.04521887004375458,
                        0.01442885771393776,
                        -0.040304042398929596,
                        0.042333267629146576,
                        0.01741294376552105,
                        -0.011845424771308899,
                        0.042209744453430176,
                        -0.004339639097452164,
                        0.0032355180010199547,
                        0.014992102980613708,
                        0.035147473216056824,
                        0.04863458871841431,
                        0.029578551650047302,
                        0.03493468090891838,
                        0.01626436784863472,
                        -0.024635160341858864,
                        0.008727393113076687,
                        0.011679829098284245,
                        0.05056743696331978,
                        -0.031080972403287888,
                        0.029576679691672325,
                        -0.03205236792564392,
                        -0.0015048033092170954,
                        -0.021839136257767677,
                        -0.055848684161901474,
                        0.015187551267445087,
                        0.016268111765384674,
                        0.0214679092168808,
                        -0.015110496431589127,
                        -0.03693169355392456,
                        0.02821074053645134,
                        -0.05018211156129837,
                        0.07039302587509155,
                        0.034653190523386,
                        -0.043460022658109665,
                        0.017079321667551994,
                        -0.009448705241084099,
                        -0.025203272700309753,
                        -0.05904991924762726,
                        0.010084704495966434,
                        0.07593315839767456,
                        0.03897123783826828,
                        -0.02062304876744747,
                        0.0046156300231814384,
                        0.0032503530383110046,
                        -0.013980026356875896,
                        -0.04289877042174339,
                        0.02262606844305992,
                        0.03084663487970829,
                        -0.020102839916944504,
                        -0.06098150834441185,
                        -0.010529372841119766,
                        -0.017360370606184006,
                        -0.01044645719230175,
                        -0.009092891588807106,
                        -0.012246700003743172
                    ],
                    [
                        -0.014869274571537971,
                        -0.013569938018918037,
                        -0.04423314332962036,
                        -0.012858599424362183,
                        0.04561383277177811,
                        -0.030222777277231216,
                        0.038156908005476,
                        0.02081315964460373,
                        -0.027578994631767273,
                        0.001137558720074594,
                        -0.016067178919911385,
                        -0.0252390019595623,
                        -0.0495116300880909,
                        0.02603130228817463,
                        -0.010001290589571,
                        0.08225453644990921,
                        -0.047574907541275024,
                        -0.04849475622177124,
                        -0.023768411949276924,
                        -0.004951946437358856,
                        0.028472786769270897,
                        -0.003427729941904545,
                        0.06356947869062424,
                        0.015972094610333443,
                        -0.02786312997341156,
                        -0.008614695630967617,
                        0.043816082179546356,
                        0.0006249565631151199,
                        0.04359261691570282,
                        -0.01712634228169918,
                        0.005055662244558334,
                        -0.06757853925228119,
                        -0.03505812585353851,
                        0.02656581625342369,
                        0.007816589437425137,
                        0.05651599168777466,
                        0.0752439945936203,
                        0.02780384197831154,
                        0.007955056615173817,
                        -0.012947536073625088,
                        0.03791746497154236,
                        0.05669593811035156,
                        -0.009806867688894272,
                        -0.028514835983514786,
                        -0.029802339151501656,
                        -0.02858668752014637,
                        0.00010726065374910831,
                        0.027010008692741394,
                        -0.027832793071866035,
                        -0.019014503806829453,
                        0.03047085553407669,
                        0.007443715818226337,
                        0.05601493641734123,
                        0.03290265053510666,
                        -0.021220585331320763,
                        -0.03906330093741417,
                        0.05969160422682762,
                        0.024637171998620033,
                        -0.018185600638389587,
                        0.01433614082634449,
                        -0.01708579808473587,
                        0.007652562111616135,
                        0.01102619431912899,
                        -0.002313570585101843,
                        0.012677909806370735,
                        0.04134143143892288,
                        0.02320324443280697,
                        -0.02659105509519577,
                        -0.008248320780694485,
                        -0.0007284996681846678,
                        0.03444352000951767,
                        -0.01574849709868431,
                        0.02600451558828354,
                        0.05345827341079712,
                        -0.004741426557302475,
                        -0.04312898963689804,
                        0.044197242707014084,
                        -0.044827111065387726,
                        -0.021514954045414925,
                        0.031216559931635857,
                        0.03439939022064209,
                        -0.05154082551598549,
                        -0.053721968084573746,
                        -0.012961229309439659,
                        0.040223732590675354,
                        0.016225630417466164,
                        0.01684517413377762,
                        -0.02733752131462097
                    ],
                    [
                        0.05582667142152786,
                        -0.056585416197776794,
                        -0.0005581348668783903,
                        -0.01693727821111679,
                        -0.02219408005475998,
                        0.024315692484378815,
                        0.00550724845379591,
                        0.05728895589709282,
                        -0.004772616550326347,
                        -0.05574112385511398,
                        -0.06181802600622177,
                        -0.00014059722889214754,
                        -0.05708150193095207,
                        -0.02737553045153618,
                        0.01755611039698124,
                        -0.0514211505651474,
                        -0.007851370610296726,
                        -0.004392349161207676,
                        0.012406125664710999,
                        -0.04405403137207031,
                        0.024671627208590508,
                        0.012359397485852242,
                        -0.009332605637609959,
                        -0.016112562268972397,
                        -0.02565690502524376,
                        -0.009042849764227867,
                        -0.02882223390042782,
                        -0.006037819664925337,
                        -0.005769132636487484,
                        -0.05401768907904625,
                        0.052367448806762695,
                        0.0178337674587965,
                        -0.06828926503658295,
                        -0.03470859304070473,
                        0.035605449229478836,
                        -0.025475557893514633,
                        -0.04907694086432457,
                        0.020899122580885887,
                        -0.014412516728043556,
                        0.027968326583504677,
                        0.0018609750550240278,
                        -0.041924916207790375,
                        -0.0033962579909712076,
                        0.004955573007464409,
                        -0.04169829189777374,
                        0.017765682190656662,
                        0.0025893771089613438,
                        -0.02246733009815216,
                        0.01671360619366169,
                        0.01400963868945837,
                        0.03229488432407379,
                        -0.006941323168575764,
                        0.059413403272628784,
                        0.037209540605545044,
                        0.04484494775533676,
                        -0.030946144834160805,
                        0.0042220838367938995,
                        0.021952059119939804,
                        -0.03149641305208206,
                        -0.004797592293471098,
                        0.0007316739647649229,
                        0.04699547961354256,
                        -0.006975243333727121,
                        0.02567913755774498,
                        -0.010448322631418705,
                        -0.01020194124430418,
                        -0.026353346183896065,
                        0.07468205690383911,
                        -0.03175896406173706,
                        -0.0742352157831192,
                        0.012833628803491592,
                        -0.018500350415706635,
                        0.017217272892594337,
                        0.006242106202989817,
                        0.04276670143008232,
                        0.056665804237127304,
                        0.019512295722961426,
                        -0.0015372182242572308,
                        -0.03354819118976593,
                        0.07798346132040024,
                        -0.020199202001094818,
                        0.006428361404687166,
                        0.019854841753840446,
                        -0.013565695844590664,
                        0.02293022722005844,
                        0.0010377602884545922,
                        -0.007637521252036095,
                        -0.08461582660675049
                    ],
                    [
                        0.06395701318979263,
                        0.05988570675253868,
                        0.019238242879509926,
                        -0.04689968004822731,
                        -0.026554010808467865,
                        -0.015202833339571953,
                        0.048623014241456985,
                        -0.010120382532477379,
                        0.04075650870800018,
                        0.005892733111977577,
                        0.010019480250775814,
                        -0.0026710890233516693,
                        0.03382314369082451,
                        -0.0516793429851532,
                        0.04096229374408722,
                        -0.03995637223124504,
                        0.0361647792160511,
                        -0.062479183077812195,
                        -0.017360985279083252,
                        0.0260176844894886,
                        -0.018747249618172646,
                        0.006579428445547819,
                        -0.003985555376857519,
                        0.05277349054813385,
                        -0.0516078844666481,
                        0.07366743683815002,
                        -0.03889487683773041,
                        0.008281046524643898,
                        0.02118908427655697,
                        -0.02049608901143074,
                        -0.023694906383752823,
                        -0.008043411187827587,
                        0.03025527484714985,
                        0.04116774722933769,
                        -0.0660221129655838,
                        0.010728355497121811,
                        -0.021293524652719498,
                        0.020856788381934166,
                        -0.056075870990753174,
                        -0.021554650738835335,
                        0.010329535230994225,
                        0.06740673631429672,
                        0.011694176122546196,
                        0.031064433977007866,
                        0.001648699981160462,
                        0.03187916800379753,
                        0.002948134671896696,
                        0.01307239755988121,
                        -0.028510671108961105,
                        0.014281770214438438,
                        0.016700729727745056,
                        -0.026421424001455307,
                        0.003940022550523281,
                        -0.044647492468357086,
                        -0.013576384633779526,
                        -0.021078646183013916,
                        0.03142489120364189,
                        0.026843540370464325,
                        0.03411262109875679,
                        -0.0011718020541593432,
                        0.015129799023270607,
                        -0.00047430762788280845,
                        0.06571227312088013,
                        -0.044853199273347855,
                        -0.004319457802921534,
                        -0.039548419415950775,
                        0.0684100091457367,
                        -0.04073979705572128,
                        -0.02040455862879753,
                        0.016655270010232925,
                        -0.009504111483693123,
                        0.03312533348798752,
                        -0.002917106030508876,
                        0.06717869639396667,
                        -0.03342024236917496,
                        -0.01029087696224451,
                        -0.0014818832278251648,
                        -0.020706215873360634,
                        0.0013989330036565661,
                        -0.02441473677754402,
                        -0.009660235606133938,
                        -0.03971809893846512,
                        -0.02051660418510437,
                        -0.02562909945845604,
                        -0.04045956954360008,
                        0.01981685496866703,
                        0.016690537333488464,
                        -0.017891542986035347
                    ],
                    [
                        0.07662109285593033,
                        -0.05029132217168808,
                        0.02870400808751583,
                        0.04325941950082779,
                        -0.06977681070566177,
                        -0.028646161779761314,
                        -0.05673876404762268,
                        -0.02001405507326126,
                        0.022845927625894547,
                        0.023613542318344116,
                        -0.028780145570635796,
                        0.020064912736415863,
                        0.0019345697946846485,
                        0.03996376320719719,
                        -0.019503965973854065,
                        -0.03908673673868179,
                        -0.01961786486208439,
                        -0.020024465397000313,
                        -0.07582993060350418,
                        0.06696312874555588,
                        0.037359774112701416,
                        -0.03644290566444397,
                        -0.025971073657274246,
                        0.02240498550236225,
                        -0.023416820913553238,
                        -0.00990329124033451,
                        -0.03234148770570755,
                        0.015912329778075218,
                        0.03664655610918999,
                        -0.01051787193864584,
                        0.020066529512405396,
                        0.03773226961493492,
                        0.023463888093829155,
                        0.01196073368191719,
                        0.027279101312160492,
                        0.04714786261320114,
                        0.02035706490278244,
                        -0.0365900993347168,
                        0.036711618304252625,
                        0.005806423258036375,
                        0.0021455585956573486,
                        0.04168488830327988,
                        0.009300943464040756,
                        -0.02578803151845932,
                        0.011772090569138527,
                        0.049128253012895584,
                        0.0758720189332962,
                        -0.00730627216398716,
                        -0.008177106268703938,
                        -0.01833942160010338,
                        -0.03491637110710144,
                        0.04260816425085068,
                        0.027441998943686485,
                        -0.014987007714807987,
                        -0.020565113052725792,
                        0.010396001860499382,
                        0.01694897562265396,
                        -0.0483354851603508,
                        0.042722977697849274,
                        -0.022019648924469948,
                        0.0015939525328576565,
                        0.01336140837520361,
                        0.024776728823781013,
                        -0.011844802647829056,
                        -0.02144446410238743,
                        -0.005970220547169447,
                        0.03804292902350426,
                        -0.0240483358502388,
                        -0.028344061225652695,
                        -0.020508479326963425,
                        -0.04222501441836357,
                        0.028054526075720787,
                        0.041116803884506226,
                        -0.020903969183564186,
                        0.006996752228587866,
                        -0.04534232243895531,
                        0.006049922201782465,
                        -0.010815084911882877,
                        0.01137714833021164,
                        -0.04355904459953308,
                        -0.01481478102505207,
                        -0.04770839959383011,
                        0.021033288910984993,
                        0.04701557010412216,
                        -0.0014687271323055029,
                        -0.019191836938261986,
                        -0.0068468209356069565,
                        -0.0476064532995224
                    ],
                    [
                        -0.015910163521766663,
                        -0.00538737652823329,
                        -0.02645992301404476,
                        -0.006679415237158537,
                        0.01377070415765047,
                        0.0644233226776123,
                        0.046050701290369034,
                        -0.05113294720649719,
                        0.06700369715690613,
                        -0.03616878017783165,
                        -0.013731217011809349,
                        -0.04382843151688576,
                        0.033269934356212616,
                        -0.0019985807593911886,
                        -0.007172263227403164,
                        -0.033542826771736145,
                        -0.004750812891870737,
                        0.02643740549683571,
                        -0.0399479903280735,
                        -0.02800883911550045,
                        0.005717133171856403,
                        -0.04314401000738144,
                        0.005969383753836155,
                        -0.0831274539232254,
                        0.01957685500383377,
                        -0.01738104782998562,
                        -0.0038237993139773607,
                        0.016192350536584854,
                        0.00724891759455204,
                        0.026000995188951492,
                        -0.022236227989196777,
                        0.016134055331349373,
                        0.07520411908626556,
                        0.005966196767985821,
                        0.0005321486387401819,
                        -0.035695016384124756,
                        0.06372707337141037,
                        -0.046779174357652664,
                        0.021772079169750214,
                        0.028978697955608368,
                        0.02133859694004059,
                        -0.022446004673838615,
                        -0.02418358251452446,
                        -0.004611776676028967,
                        -0.04119259864091873,
                        -0.05223820358514786,
                        0.07158426940441132,
                        0.0003558396128937602,
                        0.05783526971936226,
                        -0.05399646982550621,
                        0.014504721388220787,
                        -0.027823857963085175,
                        -0.016908908262848854,
                        0.06456771492958069,
                        -1.2505333870649338e-06,
                        0.06452358514070511,
                        9.650317952036858e-05,
                        -0.03598788380622864,
                        0.04803476482629776,
                        0.05102387070655823,
                        0.03574974834918976,
                        -0.05303211137652397,
                        -0.018621215596795082,
                        -0.003407860640436411,
                        0.019752558320760727,
                        -0.02068142592906952,
                        0.017475532367825508,
                        -0.020588343963027,
                        -0.04253202676773071,
                        0.004906676709651947,
                        -0.012804418802261353,
                        -0.018526146188378334,
                        -0.004694109782576561,
                        0.05146056413650513,
                        0.07519905269145966,
                        -0.022436685860157013,
                        0.01035099197179079,
                        -0.01952683925628662,
                        -0.016495149582624435,
                        -0.04800210893154144,
                        -0.03636397048830986,
                        0.006318349391222,
                        0.010465852916240692,
                        0.032505907118320465,
                        0.02734483778476715,
                        0.008632407523691654,
                        -0.022979676723480225,
                        0.03340833634138107
                    ],
                    [
                        0.016169551759958267,
                        -0.04478132352232933,
                        0.04263763874769211,
                        0.028185267001390457,
                        0.029443934559822083,
                        -0.051697779446840286,
                        -0.0424838587641716,
                        0.041746851056814194,
                        0.011656378395855427,
                        -0.026657981798052788,
                        -0.055005498230457306,
                        0.027596307918429375,
                        -0.014803771860897541,
                        -0.020322905853390694,
                        0.02902037650346756,
                        -0.026341570541262627,
                        0.017647232860326767,
                        -0.0455845445394516,
                        0.014851939864456654,
                        -0.010594082996249199,
                        0.026274703443050385,
                        -0.049801409244537354,
                        0.040397126227617264,
                        -0.03957130387425423,
                        0.024077890440821648,
                        -0.024170860648155212,
                        -0.011549631133675575,
                        0.007670673541724682,
                        0.0643499419093132,
                        0.004771469160914421,
                        -0.03392168506979942,
                        -0.03240523114800453,
                        -0.03703422471880913,
                        -0.011456672102212906,
                        0.005153996869921684,
                        0.013063179329037666,
                        -0.027339529246091843,
                        0.042052462697029114,
                        -0.04217088595032692,
                        0.005694351624697447,
                        0.06591471284627914,
                        -0.0020016715861856937,
                        0.004670037422329187,
                        0.018768908455967903,
                        0.018372947350144386,
                        -0.02403157763183117,
                        0.019215576350688934,
                        -0.006207252852618694,
                        0.04087437689304352,
                        -0.03811035305261612,
                        -0.015723608434200287,
                        0.013588945381343365,
                        -0.021075421944260597,
                        0.015240846201777458,
                        0.04243887588381767,
                        -0.03512090444564819,
                        0.06875275820493698,
                        -0.024709314107894897,
                        -0.023626990616321564,
                        -0.013436456210911274,
                        -0.03408896550536156,
                        0.018505768850445747,
                        0.04441382363438606,
                        -0.04703952372074127,
                        0.036445070058107376,
                        0.03901217132806778,
                        -0.019079161807894707,
                        -0.016601864248514175,
                        -0.04309019073843956,
                        0.04274526238441467,
                        -0.052691370248794556,
                        -0.004746302496641874,
                        0.0077783530578017235,
                        0.016556397080421448,
                        0.05085287615656853,
                        -0.031514257192611694,
                        0.017078451812267303,
                        -0.0059652430936694145,
                        -0.035837817937135696,
                        0.052315887063741684,
                        -0.040818799287080765,
                        0.009471193887293339,
                        -0.002706004772335291,
                        0.03392891585826874,
                        -0.0030981036834418774,
                        -0.037448376417160034,
                        -0.020082037895917892,
                        -0.0742763876914978
                    ],
                    [
                        -0.06012449041008949,
                        -0.026700394228100777,
                        0.014427566900849342,
                        0.04420202225446701,
                        0.06198539212346077,
                        -0.007051244843751192,
                        -0.01787474751472473,
                        -0.059420738369226456,
                        -0.031321629881858826,
                        -0.004003292880952358,
                        0.045913636684417725,
                        -0.020745761692523956,
                        0.010794922709465027,
                        -0.07126934826374054,
                        -0.03200586140155792,
                        -0.0005234605050645769,
                        -0.049786537885665894,
                        -0.023045247420668602,
                        0.01544090174138546,
                        0.03125916048884392,
                        -0.00906610582023859,
                        0.02276351861655712,
                        0.0402241013944149,
                        -0.009524496272206306,
                        -0.056686464697122574,
                        0.005651360377669334,
                        -0.02065313048660755,
                        0.006462733261287212,
                        0.002643571002408862,
                        0.04823360592126846,
                        0.059505395591259,
                        -0.06783473491668701,
                        -0.01501974742859602,
                        -0.0030721304938197136,
                        -0.014429298229515553,
                        -0.031413737684488297,
                        0.038898926228284836,
                        0.02998313680291176,
                        -0.017022838816046715,
                        0.026029089465737343,
                        0.002953635063022375,
                        -0.01598311960697174,
                        0.02952153980731964,
                        0.04581277072429657,
                        0.016049060970544815,
                        0.03346928209066391,
                        -0.02327205240726471,
                        0.008915860205888748,
                        -0.03797142207622528,
                        0.053770773112773895,
                        0.00797890406101942,
                        -0.003542398801073432,
                        -0.011847143061459064,
                        -0.034110430628061295,
                        0.06104165315628052,
                        -0.011676451191306114,
                        0.07375398278236389,
                        0.05141643062233925,
                        0.011662719771265984,
                        -0.009781774133443832,
                        0.0054960064589977264,
                        -0.020103737711906433,
                        -0.006893027573823929,
                        -0.008808443322777748,
                        0.01755663938820362,
                        -0.03553025797009468,
                        -0.050160959362983704,
                        0.0040411027148365974,
                        -0.004177088383585215,
                        0.022444959729909897,
                        -0.06338188052177429,
                        0.01626843586564064,
                        0.05726137012243271,
                        -0.01300930418074131,
                        -0.0030793636105954647,
                        0.008587566204369068,
                        -0.024641377851366997,
                        -0.003437226405367255,
                        -0.06245437264442444,
                        0.034718260169029236,
                        0.016060248017311096,
                        -0.004684245213866234,
                        0.017359541729092598,
                        -0.07277241349220276,
                        -0.06275742501020432,
                        0.023576222360134125,
                        -0.032449085265398026,
                        0.04300633445382118
                    ],
                    [
                        0.03176144137978554,
                        -0.017596933990716934,
                        0.008929995819926262,
                        -0.06573213636875153,
                        -0.03515341505408287,
                        -0.00771173182874918,
                        -0.03388945758342743,
                        -0.003765913425013423,
                        0.014444282278418541,
                        0.05393073707818985,
                        0.005295571405440569,
                        -0.017317771911621094,
                        -0.008291645906865597,
                        0.050703391432762146,
                        -0.012202851474285126,
                        -0.029148314148187637,
                        -0.05160018801689148,
                        -0.012740531004965305,
                        0.017071712762117386,
                        -0.024261794984340668,
                        -0.051765888929367065,
                        0.0549953430891037,
                        -0.04149199277162552,
                        0.018998216837644577,
                        -0.06595391780138016,
                        -9.893625974655151e-05,
                        -0.03354998305439949,
                        -0.0010172552429139614,
                        -0.04624532163143158,
                        -0.0216833483427763,
                        -0.011784367263317108,
                        0.0059656184166669846,
                        0.04490678757429123,
                        -0.0100841810926795,
                        0.008745189756155014,
                        0.04395747557282448,
                        -0.022635353729128838,
                        0.01134320255368948,
                        0.052682626992464066,
                        0.03781028464436531,
                        -0.03495864197611809,
                        0.01550267543643713,
                        -0.031677596271038055,
                        0.012724270112812519,
                        -0.0060441456735134125,
                        -0.03981554135680199,
                        0.010610255412757397,
                        -0.024849120527505875,
                        0.02583109401166439,
                        0.05309053882956505,
                        -0.045487310737371445,
                        -0.000713358458597213,
                        -0.030145402997732162,
                        -0.0398545004427433,
                        -0.005999832414090633,
                        -0.03330361843109131,
                        0.06531450152397156,
                        0.029118729755282402,
                        -0.0030507841147482395,
                        0.019340790808200836,
                        0.05072813853621483,
                        0.015538615174591541,
                        -0.06435468047857285,
                        0.0392841137945652,
                        -0.010755818337202072,
                        0.016919104382395744,
                        -0.03217783570289612,
                        0.05358457192778587,
                        -0.028849467635154724,
                        -0.025639280676841736,
                        -0.016509955748915672,
                        0.08281537145376205,
                        0.04435314983129501,
                        0.012881106697022915,
                        -0.005231033079326153,
                        -0.004057132638990879,
                        -0.024056993424892426,
                        0.015734009444713593,
                        -0.026410311460494995,
                        -0.023197870701551437,
                        -0.05429167300462723,
                        -0.016168104484677315,
                        -0.054158929735422134,
                        0.024962665513157845,
                        0.03261282667517662,
                        0.04464053362607956,
                        0.02554192766547203,
                        0.06164693087339401
                    ],
                    [
                        -0.019905822351574898,
                        0.02702420949935913,
                        -0.0035968292504549026,
                        0.05597551167011261,
                        0.03373463451862335,
                        0.04269659146666527,
                        0.0027793399058282375,
                        0.005626915022730827,
                        0.0019664859864860773,
                        -0.04938659071922302,
                        -0.007089722435921431,
                        -0.0038579923566430807,
                        0.027459627017378807,
                        -0.025689907371997833,
                        0.02352219447493553,
                        -0.011206873692572117,
                        0.03731919080018997,
                        -0.0024001747369766235,
                        0.021704696118831635,
                        -0.009239564649760723,
                        -0.00189986452460289,
                        -0.042913954704999924,
                        -0.002949705347418785,
                        0.007218366488814354,
                        0.012966414913535118,
                        -0.013371799141168594,
                        -0.025121226906776428,
                        -0.005376715213060379,
                        -0.004157146438956261,
                        -0.04391467943787575,
                        0.02025284618139267,
                        0.0013938172487542033,
                        0.04732267186045647,
                        -0.030704312026500702,
                        -0.04987303167581558,
                        0.046165984123945236,
                        -0.018469801172614098,
                        0.03232898935675621,
                        -0.041339222341775894,
                        0.03955579921603203,
                        -0.007258865982294083,
                        -0.002599964616820216,
                        -0.03404456749558449,
                        -0.0026706024073064327,
                        0.013367242179811,
                        -0.021244866773486137,
                        0.007001039572060108,
                        0.010882874950766563,
                        -0.029729418456554413,
                        0.021763324737548828,
                        -0.06238161027431488,
                        -0.048086438328027725,
                        0.0006471741362474859,
                        0.026234470307826996,
                        0.04579635336995125,
                        0.032237257808446884,
                        0.028492579236626625,
                        -0.012023065239191055,
                        0.0010215559741482139,
                        0.020923247560858727,
                        -0.009301485493779182,
                        0.039326928555965424,
                        0.06991134583950043,
                        -0.03252103924751282,
                        -0.009022647514939308,
                        -0.01953311078250408,
                        -0.008030773140490055,
                        0.011991366744041443,
                        -0.028234582394361496,
                        -0.01018019113689661,
                        -0.01011985819786787,
                        0.02869999036192894,
                        0.03080081194639206,
                        -0.014191114343702793,
                        -0.004217785317450762,
                        0.009308365173637867,
                        -0.027797264978289604,
                        -0.024615125730633736,
                        -0.0183905940502882,
                        -0.0724884495139122,
                        -0.0019484693184494972,
                        0.056431274861097336,
                        0.05889640003442764,
                        0.01666119322180748,
                        -0.018897419795393944,
                        -0.06281232833862305,
                        0.036271996796131134,
                        -0.004638528451323509
                    ],
                    [
                        0.009514091536402702,
                        -0.0188300684094429,
                        -0.03956354409456253,
                        -0.01155125629156828,
                        -0.054075852036476135,
                        0.0022795582190155983,
                        0.049234747886657715,
                        -0.0433090515434742,
                        0.03345879912376404,
                        0.018181562423706055,
                        -0.02097470499575138,
                        -0.033687639981508255,
                        0.029413515701889992,
                        -0.03489426150918007,
                        -0.009759696200489998,
                        -0.006155821494758129,
                        -0.057605572044849396,
                        -0.01006989274173975,
                        0.004684715066105127,
                        0.015696881338953972,
                        0.01803603768348694,
                        0.010957080870866776,
                        0.05528171360492706,
                        0.014802604913711548,
                        -0.01916978508234024,
                        -0.01841566152870655,
                        -0.016695907339453697,
                        0.010307526215910912,
                        -0.013195062056183815,
                        0.0014506079023703933,
                        -0.010024433955550194,
                        -0.0016029407270252705,
                        -0.033848073333501816,
                        0.027514027431607246,
                        0.021459713578224182,
                        0.012549228966236115,
                        -0.004485304933041334,
                        0.007417527958750725,
                        0.02193402126431465,
                        0.020668331533670425,
                        -0.02879253216087818,
                        -0.0531739667057991,
                        -0.004986701067537069,
                        0.03219636157155037,
                        -0.04746626317501068,
                        -0.04905670881271362,
                        0.0406017042696476,
                        0.0019037012243643403,
                        -0.021571550518274307,
                        -0.0031545835081487894,
                        -0.039670396596193314,
                        -0.030358904972672462,
                        -0.02593749202787876,
                        -0.05285009741783142,
                        0.04392699524760246,
                        0.0012648709816858172,
                        0.035861287266016006,
                        -0.027132820338010788,
                        0.04198194667696953,
                        -0.02031959779560566,
                        -0.028036314994096756,
                        0.0368085540831089,
                        0.005623998120427132,
                        -0.0005006680730730295,
                        -0.014857829548418522,
                        -0.07048243284225464,
                        -0.022143010050058365,
                        0.05538417771458626,
                        -0.07726377248764038,
                        -0.017407333478331566,
                        0.018452657386660576,
                        -0.04160178825259209,
                        0.008251506835222244,
                        -0.0003411300713196397,
                        -0.02985217608511448,
                        0.034526191651821136,
                        -0.021564915776252747,
                        0.04287780448794365,
                        -0.03355705738067627,
                        -0.0027533015236258507,
                        -0.02571193128824234,
                        -0.006872250698506832,
                        -0.026323167607188225,
                        0.007718265987932682,
                        -0.004390679765492678,
                        -0.04725499078631401,
                        0.03178228810429573,
                        -0.005791568197309971
                    ],
                    [
                        0.02319350093603134,
                        -0.0448530912399292,
                        0.020884525030851364,
                        0.06183280050754547,
                        -0.03124304860830307,
                        -0.03244848921895027,
                        0.027417978271842003,
                        0.0006898426217958331,
                        0.08630415052175522,
                        -0.008474566042423248,
                        -0.01897825300693512,
                        0.04495110362768173,
                        -0.007858175784349442,
                        0.02621598169207573,
                        0.009333785623311996,
                        -0.03250620514154434,
                        0.008554434403777122,
                        0.011542243883013725,
                        -0.01849718764424324,
                        0.0019018466118723154,
                        0.08813031762838364,
                        -0.06415297091007233,
                        0.01557273231446743,
                        0.05961187556385994,
                        -0.018654601648449898,
                        -0.036886733025312424,
                        0.028523482382297516,
                        0.02658843621611595,
                        0.07372188568115234,
                        -0.033364057540893555,
                        0.028860334306955338,
                        -0.000497202854603529,
                        -0.049807704985141754,
                        0.012721641920506954,
                        0.05352621152997017,
                        -0.03811371326446533,
                        -0.06440819799900055,
                        0.01082475297152996,
                        -0.0011637062998488545,
                        0.05282512679696083,
                        -0.014041577465832233,
                        0.00891130231320858,
                        0.05143257603049278,
                        0.07037360966205597,
                        -0.022184310480952263,
                        -0.0018608521204441786,
                        -0.03322746604681015,
                        0.047350700944662094,
                        0.03879388049244881,
                        -0.00531941931694746,
                        0.016547521576285362,
                        -0.00985427014529705,
                        0.02391991764307022,
                        0.01266065426170826,
                        -0.02388150803744793,
                        -0.006027198396623135,
                        0.03290656581521034,
                        0.02304849401116371,
                        -0.0021420230623334646,
                        0.025101277977228165,
                        0.009952661581337452,
                        0.012153401970863342,
                        -0.03798642009496689,
                        0.0009047706262208521,
                        -0.03867090865969658,
                        0.004398792050778866,
                        -0.04009326547384262,
                        0.004594927653670311,
                        0.026733309030532837,
                        0.03750667721033096,
                        -0.04714859277009964,
                        -0.043945617973804474,
                        0.01461118645966053,
                        -0.027187729254364967,
                        -0.03656593710184097,
                        0.013340934179723263,
                        -0.024501806125044823,
                        0.01688818633556366,
                        0.020289786159992218,
                        -0.031114518642425537,
                        -0.016386667266488075,
                        -0.06009132042527199,
                        -0.0065635982900857925,
                        0.023953817784786224,
                        0.03956255316734314,
                        -0.04665856435894966,
                        0.014598241075873375,
                        -0.00887966901063919
                    ],
                    [
                        0.010005312971770763,
                        0.003754981094971299,
                        -0.004347354639321566,
                        0.02423819899559021,
                        0.011194968596100807,
                        0.02714964747428894,
                        -0.01597473956644535,
                        0.0021775010973215103,
                        -0.00452050194144249,
                        -0.0786142349243164,
                        0.030132509768009186,
                        -0.04198706895112991,
                        0.04463518410921097,
                        -0.01911371946334839,
                        -0.022097649052739143,
                        -0.04463503137230873,
                        -0.02604333497583866,
                        -0.012232589535415173,
                        0.04039715602993965,
                        0.0085209421813488,
                        -0.009524640627205372,
                        0.017542755231261253,
                        -0.010486382059752941,
                        -0.04588577523827553,
                        0.02073236182332039,
                        -0.040310297161340714,
                        -0.0017285244539380074,
                        -0.018126225098967552,
                        0.03495227172970772,
                        -0.017019670456647873,
                        0.026978787034749985,
                        0.018532171845436096,
                        0.02300638146698475,
                        0.019892826676368713,
                        -0.006133013404905796,
                        0.021688289940357208,
                        -0.038993824273347855,
                        -0.020553460344672203,
                        -0.028936021029949188,
                        0.07352571934461594,
                        -0.0025340868160128593,
                        0.014786462299525738,
                        -0.023563774302601814,
                        -0.05626481771469116,
                        0.04818806052207947,
                        0.017344728112220764,
                        -0.0206279419362545,
                        -0.04400316998362541,
                        -0.037542227655649185,
                        0.01255201268941164,
                        -0.052917588502168655,
                        0.01714625395834446,
                        0.00859835185110569,
                        -0.01065126433968544,
                        -0.039125822484493256,
                        -0.019255956634879112,
                        0.002134067704901099,
                        0.014177132397890091,
                        -0.037530697882175446,
                        0.003242834936827421,
                        0.021823225542902946,
                        0.009347952902317047,
                        0.015335947275161743,
                        -0.03391183540225029,
                        0.06100355088710785,
                        -0.03780810534954071,
                        -0.018697556108236313,
                        -0.0682530626654625,
                        -0.03266529738903046,
                        -0.0646052211523056,
                        0.013067701831459999,
                        -0.016994651407003403,
                        0.04594452679157257,
                        -0.019945163279771805,
                        0.007207077462226152,
                        0.02510153315961361,
                        0.04167598858475685,
                        -0.008292816579341888,
                        -0.024312084540724754,
                        0.024796195328235626,
                        -0.04327680170536041,
                        0.03196219354867935,
                        0.017401469871401787,
                        -0.04832152649760246,
                        0.03179553151130676,
                        0.029222719371318817,
                        -0.02921278402209282,
                        0.05669711157679558
                    ],
                    [
                        -0.029287468641996384,
                        -0.0628354623913765,
                        0.03490541875362396,
                        -0.05654295161366463,
                        -0.01824234426021576,
                        0.032215461134910583,
                        -0.03715815767645836,
                        0.03542585298418999,
                        -0.0016925247618928552,
                        -0.06952148675918579,
                        0.04538952559232712,
                        0.013335300609469414,
                        0.05491397902369499,
                        0.01982799917459488,
                        0.04786262661218643,
                        -0.007779814302921295,
                        -0.01975947432219982,
                        -0.01169841643422842,
                        -0.0043268571607768536,
                        0.0486883744597435,
                        0.03175733983516693,
                        -0.006324720103293657,
                        -0.05273972824215889,
                        0.04721160605549812,
                        -0.0307471826672554,
                        -0.018301773816347122,
                        0.049947213381528854,
                        -0.04373300075531006,
                        0.031245630234479904,
                        0.049363404512405396,
                        0.005333376582711935,
                        -0.0017852175515145063,
                        0.04721961170434952,
                        0.005802381783723831,
                        -0.0021234943997114897,
                        -0.016582369804382324,
                        -0.025078363716602325,
                        0.004321515094488859,
                        -0.003002607263624668,
                        0.025814443826675415,
                        0.03182872384786606,
                        0.035033538937568665,
                        0.04889349639415741,
                        -0.02256416156888008,
                        0.045150838792324066,
                        -0.014504380524158478,
                        -0.02222420647740364,
                        0.02729148045182228,
                        0.01623586006462574,
                        0.0025015934370458126,
                        -0.03471585363149643,
                        -0.030970072373747826,
                        -0.03626103326678276,
                        0.0472346767783165,
                        -0.05511671304702759,
                        0.015576240606606007,
                        0.003162725130096078,
                        -0.041555989533662796,
                        -0.04666811227798462,
                        0.013283934444189072,
                        -0.004036345519125462,
                        -0.025747667998075485,
                        0.008627600967884064,
                        -0.05248516798019409,
                        0.014531627297401428,
                        -0.033197738230228424,
                        0.04800206050276756,
                        -0.02487039938569069,
                        0.007406695745885372,
                        -0.03296547755599022,
                        0.004569523967802525,
                        -0.03348338231444359,
                        0.04172424599528313,
                        0.0021873179357498884,
                        0.01373302098363638,
                        0.042144108563661575,
                        -0.011895371600985527,
                        -0.02479400485754013,
                        0.047052640467882156,
                        -0.05590485781431198,
                        0.011670131236314774,
                        -0.021617604419589043,
                        0.050228051841259,
                        -0.024754706770181656,
                        0.06612806022167206,
                        0.009780454449355602,
                        0.007355997338891029,
                        0.0218975767493248
                    ],
                    [
                        0.024614429101347923,
                        -0.03720416501164436,
                        0.0515022873878479,
                        0.029780860990285873,
                        -0.0221966914832592,
                        0.04113581031560898,
                        0.002212523017078638,
                        -0.051591962575912476,
                        -0.005178098566830158,
                        0.02658921666443348,
                        -0.015216785483062267,
                        0.02012142539024353,
                        0.004040546715259552,
                        0.05074453353881836,
                        -0.041028231382369995,
                        0.027875306084752083,
                        -0.04566270112991333,
                        0.046523567289114,
                        0.08099673688411713,
                        -0.052290819585323334,
                        -0.07876616716384888,
                        0.02583637274801731,
                        -0.045253120362758636,
                        0.007791455369442701,
                        0.01016728300601244,
                        0.04183664172887802,
                        -0.060612019151449203,
                        -0.006312055978924036,
                        0.021918103098869324,
                        0.045911554247140884,
                        -0.004931354895234108,
                        -0.008779729716479778,
                        -0.003896914655342698,
                        -0.018863601610064507,
                        -0.02448406256735325,
                        -0.015725670382380486,
                        0.00011645833728834987,
                        -0.010346020571887493,
                        -0.04487094655632973,
                        -0.058023206889629364,
                        0.00010683177970349789,
                        -0.00932309404015541,
                        0.06358780711889267,
                        0.01762568950653076,
                        0.06928037106990814,
                        -0.03819788992404938,
                        8.590778452344239e-05,
                        -0.02450469136238098,
                        -0.032457027584314346,
                        -0.02154459059238434,
                        0.01982612907886505,
                        -0.004024839028716087,
                        -0.03341379389166832,
                        -0.021930009126663208,
                        -0.021747227758169174,
                        0.045839108526706696,
                        0.062324732542037964,
                        0.002893229713663459,
                        0.027565231546759605,
                        -0.04848774895071983,
                        0.0058871908113360405,
                        0.027360551059246063,
                        -0.009705905802547932,
                        -0.06490523368120193,
                        0.043467484414577484,
                        0.0016317343106493354,
                        0.04543493315577507,
                        0.018798349425196648,
                        -0.02592877484858036,
                        0.020069492980837822,
                        -0.01396516989916563,
                        -0.04529540613293648,
                        0.06346148997545242,
                        0.04303649812936783,
                        -0.0008616322302259505,
                        -0.08472928404808044,
                        -0.005872147157788277,
                        -0.006285049021244049,
                        -0.009651455096900463,
                        -0.002363398903980851,
                        -0.02960069663822651,
                        0.043565958738327026,
                        -0.026725944131612778,
                        -0.023200858384370804,
                        -0.01561359129846096,
                        -0.03231804072856903,
                        0.014257607981562614,
                        0.02282065711915493
                    ],
                    [
                        0.0058454894460737705,
                        0.03587893396615982,
                        -0.04259165748953819,
                        -0.0001387538795825094,
                        0.005509206559509039,
                        -0.033022038638591766,
                        -0.04982070252299309,
                        0.02200227603316307,
                        -0.03343043848872185,
                        -0.040392763912677765,
                        0.014079127460718155,
                        0.015088913962244987,
                        0.016458548605442047,
                        -0.01637314446270466,
                        0.02050405740737915,
                        -0.021562185138463974,
                        0.027474386617541313,
                        -0.021937336772680283,
                        0.035571299493312836,
                        -0.01832585223019123,
                        0.028912806883454323,
                        -0.05250168591737747,
                        0.07203246653079987,
                        0.01272348128259182,
                        -0.005712130106985569,
                        -0.022242167964577675,
                        0.045391082763671875,
                        -0.0011856594355776906,
                        -0.030179232358932495,
                        -0.004143266938626766,
                        0.04570570960640907,
                        0.008026963099837303,
                        0.03146445378661156,
                        -0.0356280691921711,
                        0.029179183766245842,
                        0.0042276023887097836,
                        -0.018949609249830246,
                        0.05442747101187706,
                        -0.05383998528122902,
                        0.017259905114769936,
                        -0.03325479477643967,
                        0.020775211974978447,
                        0.00499452231451869,
                        0.013001169078052044,
                        -0.026022348552942276,
                        0.041468147188425064,
                        -0.03922365978360176,
                        0.07311837375164032,
                        -0.025582825765013695,
                        0.028368225321173668,
                        -0.01744898222386837,
                        -0.010326097719371319,
                        0.03343633934855461,
                        -0.05271308496594429,
                        -0.027278192341327667,
                        -0.04703911393880844,
                        -0.05372019484639168,
                        0.00705715361982584,
                        0.008359812200069427,
                        -0.02154415100812912,
                        0.030523674562573433,
                        0.011705175042152405,
                        0.042518049478530884,
                        -0.02191016636788845,
                        -0.00767207145690918,
                        -0.004416549112647772,
                        0.0147005720064044,
                        -0.010946786031126976,
                        -0.04782959073781967,
                        0.018803637474775314,
                        0.07011063396930695,
                        -0.027211226522922516,
                        0.016079889610409737,
                        -0.034523267298936844,
                        -0.03499675914645195,
                        -0.0471951849758625,
                        0.05089245364069939,
                        0.04010925441980362,
                        -0.0004721613659057766,
                        0.03957700729370117,
                        0.0072697922587394714,
                        0.017524128779768944,
                        -0.03740508481860161,
                        -0.006722041871398687,
                        -0.03267128765583038,
                        0.004094935022294521,
                        -0.009208998642861843,
                        0.028916507959365845
                    ],
                    [
                        0.0525098592042923,
                        0.045089241117239,
                        0.07056624442338943,
                        -0.0012766262516379356,
                        -0.0016191399190574884,
                        0.004692497663199902,
                        0.028271201997995377,
                        -0.03419416397809982,
                        -0.018345948308706284,
                        -0.012384707108139992,
                        0.0320635586977005,
                        -0.003837437368929386,
                        0.013610254973173141,
                        -0.012485653162002563,
                        -0.02036876603960991,
                        0.006445372477173805,
                        0.00575645687058568,
                        0.02225826494395733,
                        -0.008050295524299145,
                        -0.032499514520168304,
                        0.020350392907857895,
                        -0.03587188571691513,
                        0.011254767887294292,
                        0.049178361892700195,
                        0.07141618430614471,
