{
    "architecture": "NN",
    "layers": [
        {
            "layer_name": "flatten",
            "layer_type": "Flatten",
            "parameters": {}
        },
        {
            "layer_name": "linear_relu_stack",
            "layer_type": "Sequential",
            "parameters": {
                "0.weight": [
                    [
                        -0.10346218198537827,
                        0.05622151494026184,
                        -0.10115143656730652,
                        0.07944396138191223,
                        0.022362645715475082,
                        -0.024094775319099426,
                        -0.07756771147251129,
                        0.05085429549217224,
                        0.09572973847389221,
                        0.05296424403786659,
                        -0.05390317365527153,
                        -0.13375569880008698,
                        0.022516468539834023,
                        -0.07624214887619019,
                        -0.12753981351852417,
                        -0.10209110379219055,
                        0.11735246330499649,
                        0.09446927905082703,
                        0.03687739744782448,
                        0.0702114999294281,
                        0.09922327101230621,
                        0.11987145245075226,
                        -0.01605212688446045,
                        -0.1136249303817749,
                        -0.026911824941635132,
                        0.12218945473432541,
                        -0.10658260434865952,
                        -0.03422294929623604,
                        0.03662143275141716,
                        0.09947199374437332,
                        0.0053290752694010735,
                        0.028177494183182716,
                        0.12729163467884064,
                        0.04095587506890297,
                        0.048058561980724335,
                        -0.110590860247612,
                        -0.0901111587882042,
                        0.11079669743776321,
                        -0.03898923471570015,
                        0.117703877389431,
                        0.01670554280281067,
                        -0.11991194635629654,
                        -0.08290641754865646,
                        -0.08531776815652847,
                        -0.006691445130854845,
                        0.09957917779684067,
                        0.016227416694164276,
                        -0.049833156168460846,
                        -0.08981741964817047,
                        0.003561641788110137,
                        -0.08074337244033813
                    ],
                    [
                        -0.08901423960924149,
                        0.05371250957250595,
                        -0.09554219245910645,
                        -0.014204518869519234,
                        0.04916773736476898,
                        0.12135522812604904,
                        -0.05895735323429108,
                        -0.10755591839551926,
                        0.029821384698152542,
                        -0.029804959893226624,
                        0.018929321318864822,
                        -0.0762728825211525,
                        -0.13531020283699036,
                        0.13392603397369385,
                        0.09186669439077377,
                        0.0877847746014595,
                        -0.13185960054397583,
                        0.13117702305316925,
                        0.13436992466449738,
                        0.04489322006702423,
                        0.10699436813592911,
                        0.041809387505054474,
                        0.03695119544863701,
                        -0.09134982526302338,
                        0.10754388570785522,
                        0.011873692274093628,
                        0.1302754133939743,
                        -0.1173262745141983,
                        -0.04957079887390137,
                        -0.015360199846327305,
                        -0.1278480440378189,
                        -0.00014517588715534657,
                        -0.018142094835639,
                        0.10350199788808823,
                        0.054713666439056396,
                        -0.1298564225435257,
                        0.04426400735974312,
                        -0.0008437461801804602,
                        0.0616975836455822,
                        -0.02342095971107483,
                        0.13491927087306976,
                        0.049987196922302246,
                        0.015352170914411545,
                        0.13860416412353516,
                        -0.033953096717596054,
                        -0.09001220762729645,
                        0.06421401351690292,
                        -0.02150883339345455,
                        -0.007178302854299545,
                        -0.12671411037445068,
                        -0.011912135407328606
                    ],
                    [
                        -0.06698896735906601,
                        -0.10807383060455322,
                        -0.0650702640414238,
                        0.13758668303489685,
                        0.1318587362766266,
                        -0.003319231327623129,
                        0.0694078654050827,
                        -0.0041328975930809975,
                        -0.02152015082538128,
                        0.07124927639961243,
                        -0.13898636400699615,
                        0.13303883373737335,
                        0.07068312913179398,
                        0.01411434542387724,
                        0.069310262799263,
                        -0.016010979190468788,
                        0.05628078803420067,
                        -0.010063408873975277,
                        -0.057304881513118744,
                        -0.0992765873670578,
                        -0.1001674234867096,
                        -0.019296275451779366,
                        -0.005312315654009581,
                        0.04167591407895088,
                        -0.11978229880332947,
                        0.12672127783298492,
                        0.10912087559700012,
                        -0.02636023238301277,
                        -0.10351665318012238,
                        -0.057920388877391815,
                        0.11386680603027344,
                        -0.08466670662164688,
                        0.016003884375095367,
                        -0.10978657752275467,
                        -0.00039932134677655995,
                        0.04011083021759987,
                        0.10784360021352768,
                        -0.1231527104973793,
                        0.05164746195077896,
                        0.0813235193490982,
                        0.057405970990657806,
                        -0.018137304112315178,
                        0.045809779316186905,
                        0.10276944190263748,
                        0.008285542018711567,
                        -0.004053490702062845,
                        0.04223496839404106,
                        0.037939950823783875,
                        0.10961344093084335,
                        -0.02866685576736927,
                        0.10533009469509125
                    ],
                    [
                        -0.07558675855398178,
                        -0.11464555561542511,
                        0.030251404270529747,
                        -0.07317699491977692,
                        0.12171909213066101,
                        0.0019187522120773792,
                        -0.04761854186654091,
                        -0.0639769658446312,
                        0.13993234932422638,
                        0.0209653377532959,
                        0.01523124985396862,
                        -0.07017859816551208,
                        -0.06952432543039322,
                        0.015670783817768097,
                        0.1018001139163971,
                        0.11349905282258987,
                        0.09875122457742691,
                        -0.07484593987464905,
                        0.003066688310354948,
                        0.1322563886642456,
                        -0.13094431161880493,
                        0.13473759591579437,
                        0.052939824759960175,
                        -0.05463537946343422,
                        -0.02238519676029682,
                        -0.13220685720443726,
                        -0.05882713571190834,
                        -0.06504444032907486,
                        -0.09887626767158508,
                        0.13318796455860138,
                        -0.07012882083654404,
                        0.06715267151594162,
                        -0.12623175978660583,
                        -0.06269341707229614,
                        -0.07156949490308762,
                        -0.10756801068782806,
                        -0.10138057917356491,
                        0.040480837225914,
                        0.1329726129770279,
                        0.07123322039842606,
                        0.041235510259866714,
                        -0.1030101627111435,
                        -0.034304309636354446,
                        0.004021023400127888,
                        -0.075709767639637,
                        0.06443050503730774,
                        0.07126829028129578,
                        -0.06791666150093079,
                        -0.007826544344425201,
                        -0.07739908248186111,
                        0.08077222853899002
                    ],
                    [
                        0.02473241649568081,
                        -0.12195208668708801,
                        0.00640927255153656,
                        0.04181386157870293,
                        -0.13614046573638916,
                        -0.011641714721918106,
                        -0.13030269742012024,
                        -0.06816588342189789,
                        -0.007119911722838879,
                        -0.09493960440158844,
                        0.05640453100204468,
                        -0.07124962657690048,
                        0.04018571227788925,
                        -0.11197374761104584,
                        0.041487254202365875,
                        0.1272592693567276,
                        0.05399760231375694,
                        0.017127851024270058,
                        0.0922027975320816,
                        0.012769869528710842,
                        0.09018824994564056,
                        -0.07442665845155716,
                        0.03911079093813896,
                        -0.13931728899478912,
                        -0.03747975081205368,
                        0.13366690278053284,
                        0.055234845727682114,
                        -0.0017430621664971113,
                        0.01974594034254551,
                        0.11380047351121902,
                        0.05828503891825676,
                        -0.04738571494817734,
                        -0.06126761436462402,
                        0.11261878162622452,
                        0.051784541457891464,
                        -0.12644687294960022,
                        0.10781282186508179,
                        -0.04050883278250694,
                        -0.13610297441482544,
                        0.004952422343194485,
                        -0.10602054744958878,
                        -0.1049523577094078,
                        -0.1250302940607071,
                        0.10281576216220856,
                        -0.10994857549667358,
                        -0.08845540136098862,
                        0.029301276430487633,
                        -0.001676775747910142,
                        -0.10269435495138168,
                        0.07013264298439026,
                        0.00962497666478157
                    ],
                    [
                        0.04537186399102211,
                        -0.0036933301016688347,
                        0.046348582953214645,
                        -0.008039242587983608,
                        0.013823391869664192,
                        -0.028026675805449486,
                        -0.10612506419420242,
                        -0.1229315996170044,
                        -0.006221814546734095,
                        -0.11926921457052231,
                        0.1233387291431427,
                        0.016481511294841766,
                        0.001894464367069304,
                        -0.08945026993751526,
                        0.11037926375865936,
                        0.10345423966646194,
                        -0.08633862435817719,
                        -0.027953695505857468,
                        -0.059157032519578934,
                        0.1018565371632576,
                        0.044207654893398285,
                        -0.04874661564826965,
                        0.08116181939840317,
                        -0.1129557266831398,
                        0.05755719169974327,
                        0.024347100406885147,
                        0.1155787855386734,
                        0.031431689858436584,
                        0.06423947215080261,
                        -0.11849269270896912,
                        0.01612861268222332,
                        -0.10896477848291397,
                        0.07710477709770203,
                        0.1273912489414215,
                        0.08927307277917862,
                        -0.09427209943532944,
                        0.0965040773153305,
                        -0.07308720797300339,
                        0.05995325371623039,
                        -0.015004931017756462,
                        0.09496159106492996,
                        0.03616210073232651,
                        0.017236419022083282,
                        0.08780766278505325,
                        -0.04690207913517952,
                        -0.09952694922685623,
                        -0.02971915900707245,
                        -0.0207415409386158,
                        -0.07336460053920746,
                        0.04639248549938202,
                        0.08467293530702591
                    ],
                    [
                        -0.0960993617773056,
                        -0.09871631860733032,
                        0.13223685324192047,
                        0.11687356978654861,
                        -0.10681341588497162,
                        -0.11888334900140762,
                        -0.035206228494644165,
                        0.10705649852752686,
                        0.0861678272485733,
                        -0.07892151921987534,
                        -0.07439742982387543,
                        0.0660298615694046,
                        -0.03947094827890396,
                        0.08927547931671143,
                        -0.1250239461660385,
                        -0.11734604090452194,
                        0.07441694289445877,
                        -0.08893579989671707,
                        -0.007941373623907566,
                        -0.011450049467384815,
                        -0.004244871437549591,
                        0.001030653715133667,
                        -0.11331579834222794,
                        -0.09914326667785645,
                        -0.11937003582715988,
                        0.11115194857120514,
                        0.09336879849433899,
                        0.010025816969573498,
                        -0.12078431993722916,
                        0.01323776412755251,
                        0.06965247541666031,
                        -0.1225501224398613,
                        -0.13779452443122864,
                        0.10711366683244705,
                        0.0985039547085762,
                        0.0437750481069088,
                        -0.11907143890857697,
                        -0.12259921431541443,
                        0.006828357931226492,
                        0.11580053716897964,
                        0.12792858481407166,
                        -0.06471704691648483,
                        -0.04655373841524124,
                        -0.07769060134887695,
                        -0.036053914576768875,
                        0.04321742802858353,
                        0.03791087120771408,
                        -0.0297989659011364,
                        -0.02201695740222931,
                        -0.04819533973932266,
                        -0.10423697531223297
                    ],
                    [
                        -0.006714898161590099,
                        -0.07101493328809738,
                        -0.08889757096767426,
                        0.10679817944765091,
                        -0.030186887830495834,
                        -0.10225128382444382,
                        0.0354418121278286,
                        0.10720150172710419,
                        -0.07474039494991302,
                        -0.07405155897140503,
                        -0.06558236479759216,
                        -0.08040859550237656,
                        -0.0018288623541593552,
                        -0.11139973998069763,
                        0.025724360719323158,
                        0.1360940784215927,
                        0.10719167441129684,
                        -0.05401384457945824,
                        0.10935742408037186,
                        -0.0038561667315661907,
                        -0.10890595614910126,
                        -0.03956342861056328,
                        0.09173209965229034,
                        -0.0869048535823822,
                        -0.060662273317575455,
                        0.07749828696250916,
                        0.010249014012515545,
                        0.11984783411026001,
                        0.13157205283641815,
                        -0.03474424406886101,
                        0.06203185394406319,
                        -0.10315288603305817,
                        0.07056990265846252,
                        -0.13427643477916718,
                        0.0035290077794343233,
                        -0.013450846076011658,
                        -0.09368518739938736,
                        0.050855331122875214,
                        0.09380113333463669,
                        0.0641593337059021,
                        0.13838902115821838,
                        0.01304493099451065,
                        0.09115094691514969,
                        -0.0025808324571698904,
                        0.05640611797571182,
                        0.016283920034766197,
                        -0.12820155918598175,
                        0.04104142636060715,
                        -0.1272415667772293,
                        -0.02411256916821003,
                        0.011104695498943329
                    ],
                    [
                        -0.05839826539158821,
                        -0.07922615855932236,
                        -0.11101755499839783,
                        0.12267705053091049,
                        -0.030813712626695633,
                        -0.07480918616056442,
                        0.07104068994522095,
                        -0.07941615581512451,
                        0.03631650656461716,
                        0.038517098873853683,
                        -0.061518605798482895,
                        -0.03560832142829895,
                        0.11328406631946564,
                        -0.14002321660518646,
                        -0.06585114449262619,
                        0.12547476589679718,
                        -0.08047375082969666,
                        0.10517337918281555,
                        -0.10911808907985687,
                        0.05194297432899475,
                        0.0600200891494751,
                        0.10229500383138657,
                        -0.10421961545944214,
                        -0.06829895824193954,
                        0.08570076525211334,
                        0.05147215723991394,
                        -0.11976897716522217,
                        0.08943113684654236,
                        -0.10144806653261185,
                        -0.020063836127519608,
                        0.07205802202224731,
                        -0.11129395663738251,
                        -0.015861179679632187,
                        -0.11864350736141205,
                        -0.011225299909710884,
                        -0.12111405283212662,
                        -0.08480861037969589,
                        0.12113703787326813,
                        -0.09867600351572037,
                        -0.007566606625914574,
                        -0.11453728377819061,
                        -0.13095732033252716,
                        0.084918312728405,
                        -0.025649026036262512,
                        0.058531440794467926,
                        0.073121577501297,
                        0.012250678613781929,
                        0.02642611786723137,
                        0.06792013347148895,
                        -0.1315295249223709,
                        0.029785161837935448
                    ],
                    [
                        0.1151425912976265,
                        0.12752841413021088,
                        0.055824145674705505,
                        0.08908272534608841,
                        -0.013565290719270706,
                        0.017726130783557892,
                        -0.09745752811431885,
                        -0.05329611152410507,
                        -0.037798698991537094,
                        0.006905010901391506,
                        -0.1317707896232605,
                        -0.036645252257585526,
                        -0.002533258404582739,
                        0.02041805349290371,
                        -0.05669993907213211,
                        0.026948263868689537,
                        0.0798816978931427,
                        -0.019667435437440872,
                        -0.10708989948034286,
                        0.04793184623122215,
                        0.04715963080525398,
                        -0.06651543080806732,
                        0.12561263144016266,
                        0.021483412012457848,
                        -0.04546627774834633,
                        0.08208133280277252,
                        0.07911371439695358,
                        0.09096964448690414,
                        0.001431110082194209,
                        0.1380995810031891,
                        0.019622715190052986,
                        -0.051454413682222366,
                        0.016176370903849602,
                        0.05403147265315056,
                        -0.08567484468221664,
                        -0.09882405400276184,
                        0.136764794588089,
                        0.05210886523127556,
                        0.13563808798789978,
                        -0.0013282333966344595,
                        0.030858783051371574,
                        -0.1109207272529602,
                        0.09366343915462494,
                        -0.08385544270277023,
                        0.042022887617349625,
                        0.0789467915892601,
                        -0.12437234073877335,
                        -0.05414309725165367,
                        0.03981929272413254,
                        -0.0501420721411705,
                        0.04536981135606766
                    ],
                    [
                        0.013638571836054325,
                        0.06603067368268967,
                        -0.12132621556520462,
                        -0.07306274771690369,
                        -0.0058703008107841015,
                        -0.017283108085393906,
                        0.0859544426202774,
                        0.03381987288594246,
                        0.11812303215265274,
                        0.029133230447769165,
                        0.057447005063295364,
                        0.00624598516151309,
                        0.02338148094713688,
                        0.07798183709383011,
                        0.13046294450759888,
                        0.09828988462686539,
                        0.05996114760637283,
                        -0.011083729565143585,
                        -0.0734420046210289,
                        -0.014910601079463959,
                        0.10476260632276535,
                        0.03693770617246628,
                        0.08765879273414612,
                        0.053263843059539795,
                        0.06583157926797867,
                        -0.10194392502307892,
                        0.01981554925441742,
                        0.06652407348155975,
                        -0.117807537317276,
                        0.07372025400400162,
                        0.0891733393073082,
                        0.07148359715938568,
                        0.03058161772787571,
                        -0.09858962148427963,
                        -0.013727259822189808,
                        -0.07276168465614319,
                        0.046376895159482956,
                        -0.1256377398967743,
                        0.045291654765605927,
                        -0.09454796463251114,
                        0.09109095484018326,
                        -0.004634177312254906,
                        -0.05318589136004448,
                        0.12327452749013901,
                        -0.12008731812238693,
                        -0.052724771201610565,
                        -0.06309150159358978,
                        -0.10797066986560822,
                        0.05134698003530502,
                        0.07765179127454758,
                        -0.10829994827508926
                    ],
                    [
                        -0.12871794402599335,
                        -0.048634424805641174,
                        -0.03987898305058479,
                        -0.06781094521284103,
                        -0.0713779479265213,
                        0.025093745440244675,
                        0.04005981609225273,
                        -0.01334720104932785,
                        0.08311136811971664,
                        0.11933107674121857,
                        -0.06582360714673996,
                        -0.11289432644844055,
                        -0.11812892556190491,
                        -0.03691155090928078,
                        0.054013442248106,
                        -0.11054245382547379,
                        0.0844331756234169,
                        -0.0545535683631897,
                        0.12071354687213898,
                        -0.013898826204240322,
                        -0.09991105645895004,
                        -0.08426234126091003,
                        0.004264836199581623,
                        0.13953377306461334,
                        0.12526489794254303,
                        0.05870113894343376,
                        -0.06419426947832108,
                        -0.13026516139507294,
                        0.11519726365804672,
                        0.07265890389680862,
                        0.011754840612411499,
                        -0.0817287340760231,
                        0.0754992738366127,
                        0.027448659762740135,
                        -0.014486707746982574,
                        0.12483126670122147,
                        0.13154008984565735,
                        -0.12403719872236252,
                        -0.006138951983302832,
                        -0.07494374364614487,
                        -0.011598496697843075,
                        -0.008476889692246914,
                        0.09584880620241165,
                        -0.12314815074205399,
                        -0.13538148999214172,
                        -0.03245995566248894,
                        -0.1257636547088623,
                        0.0075844512321054935,
                        0.06606743484735489,
                        0.13986042141914368,
                        0.021667681634426117
                    ],
                    [
                        0.023157315328717232,
                        0.07473772764205933,
                        -0.07598337531089783,
                        -0.02148621529340744,
                        0.08418060094118118,
                        0.01920531690120697,
                        0.1242300346493721,
                        -0.08833342790603638,
                        -0.10415598005056381,
                        -0.005332013126462698,
                        -0.11567319929599762,
                        -0.13988545536994934,
                        0.08345668762922287,
                        -0.09489098191261292,
                        0.10038411617279053,
                        -0.041602350771427155,
                        -0.08857572078704834,
                        -0.11270181089639664,
                        0.08231247961521149,
                        -0.11576427519321442,
                        -0.10668113082647324,
                        0.11756592988967896,
                        -0.0953998938202858,
                        -0.0016393507830798626,
                        -0.034303124994039536,
                        0.041248563677072525,
                        0.11488275229930878,
                        -0.056387871503829956,
                        -0.011231676675379276,
                        -0.13813193142414093,
                        -0.13320349156856537,
                        -0.12858882546424866,
                        0.04563014954328537,
                        0.00012414316006470472,
                        -0.11553196609020233,
                        -0.1331576406955719,
                        0.0440068244934082,
                        -0.01329426933079958,
                        0.016458192840218544,
                        -0.09998215734958649,
                        -0.06584195047616959,
                        -0.10827338695526123,
                        0.08900029957294464,
                        -0.10827019810676575,
                        0.029916932806372643,
                        0.09082066267728806,
                        0.028240974992513657,
                        -0.06603188067674637,
                        -0.11627213656902313,
                        0.06661077588796616,
                        -0.016304636374115944
                    ],
                    [
                        0.016980070620775223,
                        0.053480565547943115,
                        -0.10397923737764359,
                        -0.04362832009792328,
                        0.07015930116176605,
                        0.0725250169634819,
                        -0.11297603696584702,
                        -0.05444875359535217,
                        0.1375349462032318,
                        0.07896478474140167,
                        -0.09455050528049469,
                        -0.08935600519180298,
                        0.10635371506214142,
                        0.12852603197097778,
                        -0.11580251902341843,
                        0.0015431010397151113,
                        -0.13856495916843414,
                        0.1301683932542801,
                        -0.11334863305091858,
                        0.11912861466407776,
                        -0.134514719247818,
                        0.09413336962461472,
                        0.10521701723337173,
                        -0.06149652227759361,
                        0.03209023177623749,
                        0.13961730897426605,
                        0.13299298286437988,
                        -0.1343601495027542,
                        0.05235150828957558,
                        0.13408058881759644,
                        0.002637620782479644,
                        -0.12945112586021423,
                        -0.043853919953107834,
                        -0.07927940785884857,
                        -0.03867461159825325,
                        -0.08474015444517136,
                        -0.10700125992298126,
                        0.07560379058122635,
                        -0.0964985340833664,
                        0.10055040568113327,
                        -0.10408508777618408,
                        -0.04220068082213402,
                        0.04618760198354721,
                        -0.06866255402565002,
                        -0.016134856268763542,
                        -0.09768138825893402,
                        -0.0955532118678093,
                        0.0730578601360321,
                        -0.003163639223203063,
                        -0.09580431878566742,
                        -0.12000627815723419
                    ],
                    [
                        -0.10097815096378326,
                        0.11158913373947144,
                        0.058096565306186676,
                        -0.12430319935083389,
                        -0.13059818744659424,
                        -0.09032461047172546,
                        -0.018169570714235306,
                        -0.09566909074783325,
                        -0.07424373924732208,
                        -0.13651356101036072,
                        0.1164778396487236,
                        0.10604532063007355,
                        0.09754142165184021,
                        -0.0666138157248497,
                        0.07376687973737717,
                        0.07744733989238739,
                        0.13580679893493652,
                        0.07120661437511444,
                        -0.011118083260953426,
                        -0.0995083823800087,
                        -0.014193618670105934,
                        0.03756778687238693,
                        -0.05217154324054718,
                        0.07078628987073898,
                        0.10351598262786865,
                        -0.08295539766550064,
                        0.05717628076672554,
                        -0.09617824852466583,
                        0.007710781414061785,
                        -0.11004085838794708,
                        -0.07461652159690857,
                        0.010482360608875751,
                        0.13113924860954285,
                        0.13883915543556213,
                        0.11299463361501694,
                        -0.07878346741199493,
                        -0.056161101907491684,
                        0.042860690504312515,
                        0.0640813559293747,
                        -0.08555740863084793,
                        0.012889656238257885,
                        0.10008953511714935,
                        -0.10432419180870056,
                        -0.11021082103252411,
                        0.06292946636676788,
                        -0.0395047701895237,
                        -0.02468779683113098,
                        -0.04336824640631676,
                        -0.10519124567508698,
                        0.11152777075767517,
                        0.12511126697063446
                    ],
                    [
                        0.008726678788661957,
                        -0.010484263300895691,
                        0.06179773807525635,
                        0.12891949713230133,
                        0.024721182882785797,
                        -0.06038010120391846,
                        -0.006082314066588879,
                        0.02094912901520729,
                        -0.020773807540535927,
                        -0.07492011040449142,
                        -0.028511647135019302,
                        0.052730314433574677,
                        0.033145975321531296,
                        0.08290676772594452,
                        0.017270756885409355,
                        -0.09877447783946991,
                        -0.10185540467500687,
                        -0.019389819353818893,
                        -0.10357200354337692,
                        -0.07087160646915436,
                        0.04116026312112808,
                        0.07353468239307404,
                        -0.007521653547883034,
                        -0.022739531472325325,
                        0.09516425430774689,
                        -0.11739583313465118,
                        0.12706029415130615,
                        0.09674464911222458,
                        -0.11521448940038681,
                        0.04413644224405289,
                        0.11430586129426956,
                        0.08229264616966248,
                        0.12164787948131561,
                        -0.04599181190133095,
                        -0.12071646749973297,
                        -0.10493545979261398,
                        -0.11173230409622192,
                        0.10987823456525803,
                        0.08497820794582367,
                        0.038665980100631714,
                        -0.009337445721030235,
                        0.13696157932281494,
                        -0.08243875950574875,
                        0.02014264091849327,
                        0.0070199561305344105,
                        0.10232221335172653,
                        -0.03972678259015083,
                        -0.08486270904541016,
                        -0.08960273861885071,
                        0.06555630266666412,
                        -0.1231531947851181
                    ],
                    [
                        -0.09428174793720245,
                        0.054252684116363525,
                        0.03793954849243164,
                        0.05943327769637108,
                        0.07735561579465866,
                        0.11200624704360962,
                        0.0006275264313444495,
                        0.0965951532125473,
                        -0.0275955218821764,
                        -0.06420989334583282,
                        -0.014744224958121777,
                        0.10485842823982239,
                        -0.00988731812685728,
                        -0.06968366354703903,
                        0.03388221934437752,
                        -0.03194213658571243,
                        -0.0937965139746666,
                        0.10268255323171616,
                        -0.00624646944925189,
                        0.019880300387740135,
                        0.05677799507975578,
                        0.09583661705255508,
                        0.048046793788671494,
                        -0.10275730490684509,
                        0.04734795540571213,
                        0.006960046477615833,
                        -0.0010570113081485033,
                        0.07844477891921997,
                        -0.1313299685716629,
                        -0.11511920392513275,
                        0.04058874025940895,
                        -0.1303163766860962,
                        -0.0716174840927124,
                        0.07950206845998764,
                        0.013483230024576187,
                        -0.04815874993801117,
                        0.07030823081731796,
                        -0.04935526102781296,
                        -0.06159994751214981,
                        -0.04956201836466789,
                        -0.11635710299015045,
                        -0.09792313724756241,
                        -0.13291534781455994,
                        -0.04004292190074921,
                        0.03842432051897049,
                        -0.01750301755964756,
                        0.029115837067365646,
                        -0.1177561804652214,
                        0.08914046734571457,
                        0.09331008791923523,
                        -0.028117233887314796
                    ],
                    [
                        -0.07093890011310577,
                        0.05904742702841759,
                        0.002252638339996338,
                        0.07262811064720154,
                        -0.08260009437799454,
                        0.014178461395204067,
                        -0.1363229900598526,
                        0.048839692026376724,
                        0.11564625799655914,
                        -0.04140584170818329,
                        -0.07942785322666168,
                        0.011811111122369766,
                        -0.10627292841672897,
                        -0.12127094715833664,
                        0.0671902671456337,
                        -0.12158232927322388,
                        0.0087159788236022,
                        0.04785684868693352,
                        0.08020808547735214,
                        -0.10301390290260315,
                        -0.020856985822319984,
                        0.1243324726819992,
                        -0.062073301523923874,
                        0.0033245228696614504,
                        -0.07957623898983002,
                        -0.09955375641584396,
                        -0.025168929249048233,
                        -0.11023088544607162,
                        0.10020122677087784,
                        0.13875286281108856,
                        -0.09212813526391983,
                        0.11063463240861893,
                        0.05994291976094246,
                        -0.0722646564245224,
                        0.04446471855044365,
                        0.11774317175149918,
                        -0.07148673385381699,
                        -0.13661623001098633,
                        0.13842478394508362,
                        -0.05114028975367546,
                        0.09277906268835068,
                        0.10778222233057022,
                        -0.016345683485269547,
                        0.13553911447525024,
                        -0.006598049774765968,
                        -0.04196765273809433,
                        -0.0032796363811939955,
                        0.07824306190013885,
                        0.08172469586133957,
                        -0.014339779503643513,
                        0.03606680408120155
                    ],
                    [
                        -0.0861591324210167,
                        -0.031425781548023224,
                        0.05228830873966217,
                        -0.1220422312617302,
                        0.0071716089732944965,
                        0.11943186819553375,
                        -0.0009725966956466436,
                        0.08418738096952438,
                        -0.05853377655148506,
                        0.03899502381682396,
                        -0.061634670943021774,
                        -0.034611355513334274,
                        0.04436778649687767,
                        -0.07235229760408401,
                        -0.041647084057331085,
                        0.10292979329824448,
                        0.06172309070825577,
                        0.09817036986351013,
                        -0.12889420986175537,
                        -0.048621222376823425,
                        -0.06645575165748596,
                        0.10088551044464111,
                        0.0708257406949997,
                        -0.043761976063251495,
                        0.10062440484762192,
                        -0.09875643253326416,
                        0.02078607678413391,
                        0.13610796630382538,
                        -0.11574286222457886,
                        -0.06797299534082413,
                        0.12996134161949158,
                        -0.06687582284212112,
                        0.06759975105524063,
                        -0.015612042509019375,
                        -0.03438890725374222,
                        -0.12303420901298523,
                        -0.08428280800580978,
                        0.08913656324148178,
                        0.11737386882305145,
                        -0.04546253755688667,
                        0.031078491359949112,
                        0.06105600297451019,
                        0.05536571517586708,
                        0.09852319955825806,
                        0.10666874051094055,
                        0.12418442964553833,
                        0.13905534148216248,
                        -0.12836149334907532,
                        -0.02038249745965004,
                        -0.016494281589984894,
                        -0.13570834696292877
                    ],
                    [
                        -0.018512321636080742,
                        -0.04092564806342125,
                        -0.009127835743129253,
                        0.07940835505723953,
                        -0.044774435460567474,
                        0.11251949518918991,
                        0.059103380888700485,
                        -0.07714558392763138,
                        -0.06296221911907196,
                        0.0892152488231659,
                        -0.13874314725399017,
                        0.08637446165084839,
                        -0.124464251101017,
                        0.040483258664608,
                        0.09811978787183762,
                        -0.13087894022464752,
                        0.0370478630065918,
                        0.021733483299613,
                        0.07893911004066467,
                        -0.053073182702064514,
                        -0.021588558331131935,
                        -0.04697313904762268,
                        0.03340035304427147,
                        0.03142609819769859,
                        -0.13555271923542023,
                        0.1203521192073822,
                        -0.0841664969921112,
                        0.09906773269176483,
                        -0.10665860772132874,
                        0.020937111228704453,
                        -0.12809693813323975,
                        0.12886682152748108,
                        0.10644804686307907,
                        0.10167191922664642,
                        0.07457690685987473,
                        0.016413772478699684,
                        0.1161118671298027,
                        -0.08253991603851318,
                        0.035976577550172806,
                        -0.11371859163045883,
                        -0.049503143876791,
                        0.046153079718351364,
                        -0.07630366086959839,
                        -0.07520367950201035,
                        -0.0902913436293602,
                        -0.005409300327301025,
                        0.07594999670982361,
                        -0.06354709714651108,
                        0.06429741531610489,
                        0.08165574073791504,
                        -0.1198306679725647
                    ],
                    [
                        -0.0770326480269432,
                        -0.01385410688817501,
                        0.08906331658363342,
                        0.10720504075288773,
                        -0.09703473746776581,
                        0.010191641747951508,
                        0.06880654394626617,
                        0.06112168729305267,
                        0.12076639384031296,
                        -0.10996879637241364,
                        -0.058927688747644424,
                        0.11972276866436005,
                        0.026752091944217682,
                        0.10704118758440018,
                        -0.07233872264623642,
                        -0.038436174392700195,
                        0.12829181551933289,
                        -0.12040656805038452,
                        -0.054898589849472046,
                        0.13497306406497955,
                        0.027512308210134506,
                        0.10101761668920517,
                        0.08795477449893951,
                        -0.060645729303359985,
                        -0.02737950161099434,
                        0.09230617433786392,
                        -0.05365583673119545,
                        -0.053477779030799866,
                        0.017550691962242126,
                        0.055301129817962646,
                        0.09145717322826385,
                        0.07774395495653152,
                        -0.10949200391769409,
                        -0.06446151435375214,
                        -0.08306129276752472,
                        0.10419599711894989,
                        0.10881397873163223,
                        0.07816746085882187,
                        0.11809682101011276,
                        0.137545645236969,
                        0.11237218230962753,
                        -0.04929283261299133,
                        -0.05519136041402817,
                        0.12898676097393036,
                        0.022682759910821915,
                        -0.006814536638557911,
                        -0.1024395301938057,
                        0.040188681334257126,
                        -0.08210734277963638,
                        0.12754255533218384,
                        -0.03652122616767883
                    ],
                    [
                        -0.13655488193035126,
                        -0.12533602118492126,
                        0.08141369372606277,
                        -0.032342858612537384,
                        0.06749170273542404,
                        -0.11929291486740112,
                        -0.1184086948633194,
                        0.07681435346603394,
                        0.06301476806402206,
                        -0.056752223521471024,
                        0.12995968759059906,
                        -0.09983394294977188,
                        -0.10268998146057129,
                        0.1315038800239563,
                        0.01786372810602188,
                        0.10560914129018784,
                        -0.012638415209949017,
                        -0.09624642133712769,
                        -0.009924124926328659,
                        -0.11969868093729019,
                        -0.10903356969356537,
                        -0.12224359065294266,
                        -0.06343542039394379,
                        0.13917332887649536,
                        -0.002424822887405753,
                        -0.05234957113862038,
                        -0.019163886085152626,
                        0.05296816676855087,
                        0.04660910740494728,
                        0.11387350410223007,
                        -0.08496510237455368,
                        0.027659721672534943,
                        -0.058504149317741394,
                        -0.1339445561170578,
                        -0.07276401668787003,
                        0.004138990305364132,
                        0.020375438034534454,
                        -0.10927269607782364,
                        -0.08911232650279999,
                        0.07459211349487305,
                        0.09660538285970688,
                        0.08829478174448013,
                        0.11039425432682037,
                        0.07652232050895691,
                        0.040245171636343,
                        0.12677812576293945,
                        0.08161492645740509,
                        0.10977337509393692,
                        0.13672123849391937,
                        -0.10827275365591049,
                        -0.10724837332963943
                    ],
                    [
                        -0.11147227883338928,
                        -0.07288908213376999,
                        0.03359874710440636,
                        -0.07282359898090363,
                        -0.08757379651069641,
                        -0.0881391242146492,
                        -0.130319744348526,
                        0.06347556412220001,
                        0.1015276089310646,
                        0.024046966806054115,
                        -0.002460762159898877,
                        -0.016213160008192062,
                        0.11752094328403473,
                        0.013841837644577026,
                        0.062025777995586395,
                        0.09186582267284393,
                        0.04696984961628914,
                        -0.08228223025798798,
                        -0.10442868620157242,
                        0.027954647317528725,
                        0.018552400171756744,
                        -0.07929126173257828,
                        -0.0639258474111557,
                        -0.10569591075181961,
                        -0.00883746799081564,
                        0.12286100536584854,
                        0.05501590296626091,
                        0.05257851257920265,
                        0.007775598671287298,
                        -0.13304932415485382,
                        0.11769970506429672,
                        -0.0693889856338501,
                        -0.08971339464187622,
                        0.06258374452590942,
                        -0.010049620643258095,
                        -0.10142669826745987,
                        0.11672951281070709,
                        -0.03698781877756119,
                        0.02314130775630474,
                        -0.033924736082553864,
                        -0.07276646047830582,
                        0.006708571687340736,
                        -0.06602533161640167,
                        0.060781240463256836,
                        0.04714297130703926,
                        0.009797478094696999,
                        -0.09984470903873444,
                        0.1048789918422699,
                        0.11300715059041977,
                        -0.027317939326167107,
                        0.036738213151693344
                    ],
                    [
                        -0.001193223288282752,
                        -0.020106686279177666,
                        -0.12201810628175735,
                        0.08710730075836182,
                        -0.0993773490190506,
                        0.005862004589289427,
                        -0.06566811352968216,
                        0.09614810347557068,
                        0.06822440773248672,
                        -0.02590165287256241,
                        -0.06921112537384033,
                        0.061606790870428085,
                        -0.06052280589938164,
                        0.08658480644226074,
                        0.12201645225286484,
                        -0.05862361565232277,
                        -0.009064904414117336,
                        -0.1271309107542038,
                        -0.1325855553150177,
                        -0.03636207804083824,
                        0.08185868710279465,
                        -0.007423601113259792,
                        -0.06895312666893005,
                        0.09986492246389389,
                        0.05120453983545303,
                        0.022924253717064857,
                        -0.10749472677707672,
                        -0.011573407799005508,
                        0.12788604199886322,
                        0.07832824438810349,
                        -0.1137983649969101,
                        0.12073871493339539,
                        -0.0950363427400589,
                        -0.030215848237276077,
                        0.07905671000480652,
                        -0.07754457741975784,
                        -5.1980881835334e-05,
                        -0.0077418796718120575,
                        0.07349954545497894,
                        0.009648195467889309,
                        -0.07922470569610596,
                        -0.05534583330154419,
                        -0.07717837393283844,
                        -0.12887826561927795,
                        -0.05724114924669266,
                        0.07005854696035385,
                        -0.12648166716098785,
                        -0.12004812806844711,
                        -0.11987133324146271,
                        -0.03240400180220604,
                        -0.0993681326508522
                    ],
                    [
                        0.019309094175696373,
                        -0.11828619986772537,
                        -0.03141286224126816,
                        0.030253756791353226,
                        -0.10983094573020935,
                        -0.0333356037735939,
                        0.09732695668935776,
                        -0.0998726338148117,
                        0.023606766015291214,
                        -0.09836291521787643,
                        0.009325677528977394,
                        0.08664370328187943,
                        0.11399198323488235,
                        -0.13997919857501984,
                        0.1142372339963913,
                        -0.13482312858104706,
                        -0.08938172459602356,
                        0.03708565607666969,
                        -0.11870196461677551,
                        -0.022664548829197884,
                        -0.04144974425435066,
                        0.03893127664923668,
                        -0.07778746634721756,
                        -0.00820937380194664,
                        0.03744284436106682,
                        -0.0920293927192688,
                        0.07298053801059723,
                        0.05517587065696716,
                        -0.02291395328938961,
                        0.0189339779317379,
                        0.08184623718261719,
                        0.018601393327116966,
                        0.03307406231760979,
                        0.041567061096429825,
                        0.04315862059593201,
                        0.1386515200138092,
                        0.10302507132291794,
                        0.00795285776257515,
                        0.013707779347896576,
                        -0.02836238220334053,
                        -0.11865642666816711,
                        0.022895842790603638,
                        -0.06310178339481354,
                        -0.12135946750640869,
                        0.03560543432831764,
                        -0.060584068298339844,
                        0.11030901968479156,
                        0.08564836531877518,
                        0.10185708850622177,
                        -0.12991878390312195,
                        0.12698476016521454
                    ],
                    [
                        0.09106110781431198,
                        -0.025376001372933388,
                        -0.08881770074367523,
                        -0.08198034018278122,
                        -0.03250931575894356,
                        0.028449317440390587,
                        0.1017603725194931,
                        0.07890721410512924,
                        -0.11328289657831192,
                        -0.023480718955397606,
                        0.10189890116453171,
                        -0.12281885743141174,
                        -0.07632182538509369,
                        0.10606830567121506,
                        0.13390880823135376,
                        -0.09432405233383179,
                        0.04335908219218254,
                        0.049237463623285294,
                        -0.1337936818599701,
                        0.024758106097579002,
                        -0.04659343138337135,
                        -0.11458467692136765,
                        0.0816434845328331,
                        0.049650873988866806,
                        -0.10418043285608292,
                        0.08588692545890808,
                        -0.009907015599310398,
                        -0.06114068254828453,
                        0.006681179162114859,
                        -0.02504829131066799,
                        -0.09004148840904236,
                        0.12090789526700974,
                        -0.013945849612355232,
                        0.09661955386400223,
                        -0.06389311701059341,
                        0.08922593295574188,
                        -0.05922166630625725,
                        -0.06952492892742157,
                        0.055668335407972336,
                        0.06586702167987823,
                        -0.05556003376841545,
                        0.07406949996948242,
                        0.0002470176841598004,
                        -0.0011327959364280105,
                        0.039217036217451096,
                        -0.009290121495723724,
                        0.006707770749926567,
                        -0.02849031426012516,
                        0.02523287944495678,
                        -0.03887607529759407,
                        0.035037536174058914
                    ],
                    [
                        0.04850929602980614,
                        -0.06367938220500946,
                        0.00952695682644844,
                        0.0024386944714933634,
                        0.05928957089781761,
                        -0.0787011906504631,
                        -0.0232488252222538,
                        0.066660575568676,
                        0.13089369237422943,
                        -0.036356136202812195,
                        0.0822441503405571,
                        -0.0914807915687561,
                        0.08811253309249878,
                        -0.0469149649143219,
                        -0.0846695601940155,
                        -0.075861856341362,
                        0.13728061318397522,
                        0.12516474723815918,
                        0.09325520694255829,
                        0.09706146270036697,
                        0.06438717246055603,
                        0.027329323813319206,
                        0.046409931033849716,
                        0.12223301082849503,
                        0.07703713327646255,
                        -0.07680124789476395,
                        0.04763435199856758,
                        -0.1041906550526619,
                        -0.029622474685311317,
                        -0.09313330054283142,
                        -0.02556135691702366,
                        0.07515595853328705,
                        -0.03860735520720482,
                        -0.11894786357879639,
                        -0.09513192623853683,
                        -0.09396352618932724,
                        -0.08203256130218506,
                        0.059658996760845184,
                        -0.09487040340900421,
                        0.019923850893974304,
                        0.06625540554523468,
                        0.007235257886350155,
                        -0.03154296427965164,
                        -0.02861616015434265,
                        0.1400250643491745,
                        -0.08129215240478516,
                        -0.03695184737443924,
                        -0.0980689749121666,
                        -0.0812433660030365,
                        0.10742341727018356,
                        0.12311601638793945
                    ],
                    [
                        -0.13481545448303223,
                        -0.1272975355386734,
                        0.1048167422413826,
                        -0.11805915087461472,
                        -0.12792637944221497,
                        0.05471772328019142,
                        -0.11079078912734985,
                        -0.12504678964614868,
                        0.1002860739827156,
                        0.12065096199512482,
                        0.13806122541427612,
                        0.07988603413105011,
                        -0.005934684071689844,
                        -0.05486118048429489,
                        0.10883302241563797,
                        0.02383032999932766,
                        -0.12495097517967224,
                        0.08289750665426254,
                        0.13783544301986694,
                        -0.063556008040905,
                        -0.09540890157222748,
                        -0.07657092809677124,
                        0.09984398633241653,
                        0.12172046303749084,
                        0.048097506165504456,
                        -0.13953830301761627,
                        0.0991603285074234,
                        -0.10033029317855835,
                        -0.03359261900186539,
                        0.13539929687976837,
                        -0.10601571202278137,
                        -0.043745316565036774,
                        0.02875090204179287,
                        0.12322274595499039,
                        -0.07520930469036102,
                        0.10124874114990234,
                        -0.10098873823881149,
                        -0.062242649495601654,
                        0.0568854957818985,
                        -0.12191856652498245,
                        0.0985654816031456,
                        0.06290224194526672,
                        -0.017399907112121582,
                        0.11851662397384644,
                        -0.062078043818473816,
                        -0.0993499904870987,
                        -0.032761842012405396,
                        -0.030909378081560135,
                        0.12930086255073547,
                        -0.05957686901092529,
                        -0.07190006226301193
                    ],
                    [
                        0.11177053302526474,
                        0.09533105045557022,
                        -0.04070690646767616,
                        -0.04728415608406067,
                        0.04955514147877693,
                        0.07095744460821152,
                        -0.05742378532886505,
                        -0.12787552177906036,
                        -0.09549308568239212,
                        0.037726402282714844,
                        0.09957721084356308,
                        -0.061142101883888245,
                        -0.008660825900733471,
                        0.10847653448581696,
                        -0.025031665340065956,
                        -0.12357975542545319,
                        0.12470827996730804,
                        -0.07180748134851456,
                        -0.029389262199401855,
                        0.020148716866970062,
                        0.04653862863779068,
                        0.061018310487270355,
                        -0.12569546699523926,
                        -0.08219719678163528,
                        -0.02092430740594864,
                        -0.1233370453119278,
                        -0.0310762207955122,
                        0.06158372387290001,
                        0.053729668259620667,
                        0.13711650669574738,
                        0.01673026569187641,
                        0.02309882454574108,
                        0.0621609203517437,
                        0.09109567850828171,
                        -0.139481320977211,
                        -0.06379087269306183,
                        0.1319085657596588,
                        -0.015566437505185604,
                        -0.1171097680926323,
                        0.12629424035549164,
                        0.1071658506989479,
                        0.0008899681270122528,
                        -0.07789856195449829,
                        0.04092579707503319,
                        0.09034296870231628,
                        -0.050794802606105804,
                        0.04937107115983963,
                        -0.12479864805936813,
                        -0.0903528556227684,
                        -0.12617987394332886,
                        -0.06763721257448196
                    ],
                    [
                        -0.05500420182943344,
                        0.07446552067995071,
                        0.09675388038158417,
                        -0.08571181446313858,
                        -0.02148428000509739,
                        -0.10274454951286316,
                        0.048968929797410965,
                        0.03600851073861122,
                        0.13608454167842865,
                        0.007090449333190918,
                        0.078128881752491,
                        -0.11922574788331985,
                        -0.02540554665029049,
                        0.07999756187200546,
                        -0.04941233620047569,
                        -0.05047213286161423,
                        -0.13485774397850037,
                        0.08755196630954742,
                        -0.07908390462398529,
                        -0.10377320647239685,
                        0.08598590642213821,
                        -0.08522535860538483,
                        0.11336179077625275,
                        0.13061633706092834,
                        -0.05556422472000122,
                        -0.02166086994111538,
                        0.10555268824100494,
                        -0.11189567297697067,
                        -0.020639831200242043,
                        -0.003378440160304308,
                        -0.08349700272083282,
                        0.12262528389692307,
                        0.046148624271154404,
                        0.10451287031173706,
                        -0.06357986479997635,
                        -0.02600165829062462,
                        0.09431645274162292,
                        -0.0030207668896764517,
                        0.020207257941365242,
                        -0.015207262709736824,
                        0.09270782023668289,
                        0.09839078038930893,
                        -0.05580807104706764,
                        0.1391400545835495,
                        -0.1034461110830307,
                        0.10082795470952988,
                        -0.06818729639053345,
                        0.02232740819454193,
                        0.12072209268808365,
                        0.08272261172533035,
                        0.13282236456871033
                    ],
                    [
                        0.0011294407304376364,
                        -0.02077741175889969,
                        0.04785798117518425,
                        0.1306418925523758,
                        -0.10751694440841675,
                        -0.05919759348034859,
                        -0.12957370281219482,
                        -0.014563393779098988,
                        0.08262472599744797,
                        -0.017027076333761215,
                        -0.03806855157017708,
                        -0.10509395599365234,
                        -0.1285078078508377,
                        0.09452986717224121,
                        0.022024253383278847,
                        0.0893135741353035,
                        0.12604941427707672,
                        0.13616536557674408,
                        0.11510458588600159,
                        0.13585299253463745,
                        0.11820144951343536,
                        -0.13180385529994965,
                        -0.01604326255619526,
                        0.033537499606609344,
                        0.06524937599897385,
                        0.0239289328455925,
                        0.09595824033021927,
                        -0.006602923851460218,
                        0.03051786869764328,
                        0.01639469340443611,
                        0.1135421171784401,
                        0.0675739273428917,
                        0.13145923614501953,
                        -0.08771339803934097,
                        0.11430586129426956,
                        0.0035607737954705954,
                        -0.11588094383478165,
                        -0.026696857064962387,
                        0.07704773545265198,
                        -0.08245176076889038,
                        0.03029041551053524,
                        0.11741138994693756,
                        0.025664985179901123,
                        -0.06234317272901535,
                        0.1310654580593109,
                        -0.11099570989608765,
                        0.1098368912935257,
                        -0.0228604543954134,
                        -0.05444418266415596,
                        -0.010658234357833862,
                        0.02846340462565422
                    ],
                    [
                        -0.017045488581061363,
                        0.123127281665802,
                        -0.03065987303853035,
                        0.027032194659113884,
                        -0.040812235325574875,
                        -0.018432263284921646,
                        -0.06577938795089722,
                        0.002329775132238865,
                        0.1134306937456131,
                        -0.050603270530700684,
                        -0.11918942630290985,
                        -0.009755847044289112,
                        0.042934171855449677,
                        -0.0005889330641366541,
                        -0.0037205892149358988,
                        -0.11448384821414948,
                        -0.11227978765964508,
                        -0.013728494755923748,
                        0.12678498029708862,
                        0.0027404141146689653,
                        -0.08522258698940277,
                        -0.041829753667116165,
                        0.12559089064598083,
                        -0.048845671117305756,
                        -0.057696908712387085,
                        -0.11831063777208328,
                        -0.1207408532500267,
                        0.10663533955812454,
                        -0.061520759016275406,
                        -0.08884737640619278,
                        -0.03121291659772396,
                        -0.02543911710381508,
                        -0.029153278097510338,
                        0.05970374867320061,
                        0.09163831919431686,
                        -0.041745707392692566,
                        -0.11901944130659103,
                        -0.06925781071186066,
                        0.09307238459587097,
                        0.12912623584270477,
                        -0.11507580429315567,
                        -0.043904080986976624,
                        0.1285427212715149,
                        0.08481465280056,
                        0.08801106363534927,
                        0.0042947325855493546,
                        -0.09380920231342316,
                        -0.12560135126113892,
                        -0.01765076443552971,
                        0.010522906668484211,
                        -0.02653300203382969
                    ],
                    [
                        0.1058066338300705,
                        -0.026529796421527863,
                        0.11506472527980804,
                        -0.13404449820518494,
                        0.1135362908244133,
                        0.0963999480009079,
                        0.10447237640619278,
                        -0.12638136744499207,
                        -0.061320628970861435,
                        -0.037008803337812424,
                        -0.06615513563156128,
                        0.12129788845777512,
                        -0.09195170551538467,
                        -0.057430729269981384,
                        0.13563576340675354,
                        -0.12177973985671997,
                        -0.10250614583492279,
                        0.016745271161198616,
                        -0.06471045315265656,
                        0.13736818730831146,
                        0.10439351946115494,
                        -0.0974711999297142,
                        -0.12433981895446777,
                        -0.017847787588834763,
                        0.10141409933567047,
                        0.0877709686756134,
                        0.11131465435028076,
                        0.11107590049505234,
                        0.010596487671136856,
                        0.07141511887311935,
                        0.1173764020204544,
                        -0.008043031208217144,
                        -0.02776840701699257,
                        0.12507516145706177,
                        0.08248548209667206,
                        -0.13024888932704926,
                        0.04398265480995178,
                        -0.03303951025009155,
                        0.028697552159428596,
                        -0.05552013963460922,
                        0.09228184074163437,
                        0.03820880129933357,
                        0.046298906207084656,
                        -0.09468397498130798,
                        -0.05729449912905693,
                        -0.10580591857433319,
                        0.02582952380180359,
                        -0.11945211887359619,
                        -0.1289955973625183,
                        -0.03492973372340202,
                        0.08522682636976242
                    ],
                    [
                        -0.041962310671806335,
                        0.11308471113443375,
                        0.03624075651168823,
                        -0.050105080008506775,
                        -0.004908737726509571,
                        -0.1077243834733963,
                        -0.1343860626220703,
                        -0.1092691570520401,
                        0.07705247402191162,
                        0.1400139480829239,
                        -0.0033823628909885883,
                        0.11288077384233475,
                        -0.08139123022556305,
                        0.029283665120601654,
                        -0.10963854938745499,
                        -0.09552472084760666,
                        0.03142429515719414,
                        -0.006340465508401394,
                        0.06329391896724701,
                        0.11175715923309326,
                        -0.065605528652668,
                        -0.011808757670223713,
                        0.1129366084933281,
                        0.13835948705673218,
                        0.10916902869939804,
                        0.05481499060988426,
                        0.11425988376140594,
                        -0.11306576430797577,
                        0.10276216268539429,
                        -0.03312430903315544,
                        -0.027899878099560738,
                        0.06960924714803696,
                        0.023945726454257965,
                        0.07080051302909851,
                        -0.00541854789480567,
                        -0.12800662219524384,
                        0.09154056757688522,
                        0.003545433282852173,
                        -0.11920356005430222,
                        -0.05065042898058891,
                        -0.09419050812721252,
                        -0.024025917053222656,
                        -0.08421780914068222,
                        -0.09121900051832199,
                        -0.10370372980833054,
                        -0.12653093039989471,
                        0.018302394077181816,
                        -0.09509722143411636,
                        -0.0953064113855362,
                        0.01938745006918907,
                        -0.1067298874258995
                    ],
                    [
                        0.07399026304483414,
                        -0.13894422352313995,
                        0.138712540268898,
                        0.08254943042993546,
                        0.09389875829219818,
                        0.014865363948047161,
                        0.0740194097161293,
                        0.10537160933017731,
                        -0.12048523873090744,
                        -0.004651086870580912,
                        0.05995936319231987,
                        -0.059637896716594696,
                        0.004624245222657919,
                        -0.053419385105371475,
                        0.07242871820926666,
                        -0.10479873418807983,
                        0.12592218816280365,
                        -0.029241565614938736,
                        -0.05683141201734543,
                        0.11096034944057465,
                        -0.09300481528043747,
                        -0.12241983413696289,
                        0.07433519512414932,
                        0.043917350471019745,
                        -0.13498690724372864,
                        -0.12858349084854126,
                        0.0232682041823864,
                        0.1334170252084732,
                        0.13775624334812164,
                        0.007428658660501242,
                        -0.010836061090230942,
                        -0.07915361225605011,
                        0.0484151653945446,
                        0.12512755393981934,
                        0.08853347599506378,
                        -0.11410659551620483,
                        0.08541370183229446,
                        -0.08355581015348434,
                        -0.018436003476381302,
                        0.11255434900522232,
                        0.04140545800328255,
                        0.06869769096374512,
                        -0.08144589513540268,
                        0.02799592725932598,
                        0.110759437084198,
                        0.128179132938385,
                        0.12116885185241699,
                        0.0007595819188281894,
                        0.08336474746465683,
                        0.09044748544692993,
                        0.05263788625597954
                    ],
                    [
                        0.007860965095460415,
                        0.08128165453672409,
                        -0.012501852586865425,
                        0.1174996942281723,
                        -0.047917794436216354,
                        -0.0577353872358799,
                        0.06652215868234634,
                        0.043134767562150955,
                        0.01908818446099758,
                        -0.09195711463689804,
                        -0.054647047072649,
                        -0.1308378130197525,
                        -0.03906900808215141,
                        0.1375284641981125,
                        -0.010355329141020775,
                        -0.03877777233719826,
                        -0.08565378934144974,
                        -0.10728316754102707,
                        0.1178179383277893,
                        0.008412906900048256,
                        -0.027401819825172424,
                        -0.09015903621912003,
                        0.05332188308238983,
                        -0.06959552317857742,
                        -0.039130184799432755,
                        0.11931508779525757,
                        -0.03730357810854912,
                        -0.0435602106153965,
                        0.11559129506349564,
                        0.09000646322965622,
                        -0.08878009021282196,
                        0.05484510585665703,
                        -0.11540942639112473,
                        0.08453493565320969,
                        0.12984585762023926,
                        -0.11033057421445847,
                        -0.021954961121082306,
                        -0.12978023290634155,
                        0.0023690361995249987,
                        -0.09730078279972076,
                        0.10056649893522263,
                        0.045206524431705475,
                        0.07897090911865234,
                        0.07912887632846832,
                        0.0647781640291214,
                        0.006289769895374775,
                        0.03254413977265358,
                        0.07114849239587784,
                        0.009908183477818966,
                        0.01149790734052658,
                        0.02169138565659523
                    ],
                    [
                        -0.07122071832418442,
                        -0.02141644060611725,
                        0.10952319949865341,
                        -0.09880076348781586,
                        -0.016571851447224617,
                        0.08938701450824738,
                        -0.12345794588327408,
                        0.12063606083393097,
                        0.10071629285812378,
                        -0.052946217358112335,
                        -0.008041261695325375,
                        -0.03145851567387581,
                        0.13714799284934998,
                        -0.048048730939626694,
                        0.07796965539455414,
                        0.00020309934916440398,
                        -0.0538015142083168,
                        0.10397042334079742,
                        0.11880113929510117,
                        -0.10561448335647583,
                        -0.032158222049474716,
                        -0.03660370409488678,
                        0.13686463236808777,
                        -0.05952019616961479,
                        0.10141848772764206,
                        0.07084174454212189,
                        -0.03764277324080467,
                        -0.10409373790025711,
                        0.03922545164823532,
                        0.07732342928647995,
                        -0.07222990691661835,
                        -0.09698011726140976,
                        -0.06511149555444717,
                        -0.026355726644396782,
                        0.013857629150152206,
                        0.02934223972260952,
                        0.0007620857795700431,
                        -0.05149773135781288,
                        0.09983787685632706,
                        -0.12553083896636963,
                        -0.0832812711596489,
                        0.11293572932481766,
                        0.07188281416893005,
                        -0.058791060000658035,
                        -0.129736065864563,
                        0.08560076355934143,
                        0.04605287313461304,
                        0.023837290704250336,
                        0.025624370202422142,
                        -0.10027526319026947,
                        -0.06436440348625183
                    ],
                    [
                        -0.07264263182878494,
                        -0.13412527740001678,
                        -0.041618842631578445,
                        0.024923982098698616,
                        -0.007283483166247606,
                        -0.08181525021791458,
                        -0.02983437106013298,
                        0.09367762506008148,
                        -0.13671907782554626,
                        -0.06719096750020981,
                        0.04142928123474121,
                        -0.08225683867931366,
                        0.059206023812294006,
                        -0.12315761297941208,
                        -0.07706902176141739,
                        -0.0859089195728302,
                        0.05581718310713768,
                        0.10567019134759903,
                        0.11859417706727982,
                        -0.10454750806093216,
                        -0.019946569576859474,
                        -0.027008090168237686,
                        -0.060222990810871124,
                        0.060746971517801285,
                        0.012690029107034206,
                        -0.02254551462829113,
                        -0.003134026424959302,
                        0.01350199244916439,
                        -0.04952659457921982,
                        0.1148679181933403,
                        0.0378333181142807,
                        0.07662008702754974,
                        0.09520354866981506,
                        0.011134224943816662,
                        0.08127571642398834,
                        -0.10223150253295898,
                        -0.10446042567491531,
                        0.06105610355734825,
                        0.022617658600211143,
                        0.04470786452293396,
                        -0.09120264649391174,
                        0.13141442835330963,
                        -0.1038292720913887,
                        0.05429810285568237,
                        0.10731369256973267,
                        -0.11154519766569138,
                        -0.0660388246178627,
                        0.026731643825769424,
                        -0.011282372288405895,
                        -0.020310236141085625,
                        0.06816494464874268
                    ],
                    [
                        -0.08180924504995346,
                        -0.0253888051956892,
                        -0.026895932853221893,
                        0.04989560320973396,
                        0.0965457409620285,
                        0.10559149831533432,
                        0.05651490390300751,
                        -0.08984137326478958,
                        0.013870581984519958,
                        0.08916836231946945,
                        -0.055064428597688675,
                        -0.06643548607826233,
                        -0.0436592660844326,
                        0.11585486680269241,
                        0.06502729654312134,
                        0.0506756491959095,
                        -0.036119185388088226,
                        -0.03207474201917648,
                        0.13996334373950958,
                        -0.015363355167210102,
                        0.026944642886519432,
                        -0.006759684532880783,
                        0.11716051399707794,
                        0.12064256519079208,
                        0.1389361470937729,
                        -0.13405922055244446,
                        0.1230936348438263,
                        0.07538127899169922,
                        -0.026389094069600105,
                        0.13707642257213593,
                        0.027698548510670662,
                        -0.017777010798454285,
                        0.13223198056221008,
                        -0.06197084113955498,
                        0.11677074432373047,
                        0.1267184615135193,
                        -0.03473594784736633,
                        0.0387071929872036,
                        -0.12677054107189178,
                        -0.009693516418337822,
                        0.004110211972147226,
                        -0.08083727955818176,
                        -0.11134026199579239,
                        0.06363903731107712,
                        0.012105469591915607,
                        -0.01579405926167965,
                        -0.031598467379808426,
                        -0.0867769867181778,
                        -0.10903911292552948,
                        0.11388545483350754,
                        0.10887959599494934
                    ],
                    [
                        -0.12384363263845444,
                        -0.0435430184006691,
                        -0.10623688995838165,
                        -0.011281370185315609,
                        0.0725301206111908,
                        -0.06200088933110237,
                        0.11938901990652084,
                        0.060275252908468246,
                        0.040524356067180634,
                        -0.018572665750980377,
                        0.08504010736942291,
                        0.05600380897521973,
                        -0.04174680635333061,
                        0.1311219036579132,
                        -0.13047222793102264,
                        0.12679649889469147,
                        0.07064453512430191,
                        0.05530976131558418,
                        -0.02630426175892353,
                        -0.033165354281663895,
                        0.022866463288664818,
                        0.12336719036102295,
                        0.04456006735563278,
                        -0.029985623434185982,
                        0.09913676977157593,
                        0.054729875177145004,
                        -0.05565214529633522,
                        -0.0021856173407286406,
                        -0.09597032517194748,
                        0.10182425379753113,
                        -0.08025005459785461,
                        -0.06392549723386765,
                        -0.002979519311338663,
                        -0.12000217288732529,
                        0.01522812806069851,
                        0.07827392965555191,
                        -0.06795281916856766,
                        0.007299307733774185,
                        -0.0440833605825901,
                        -0.005094827618449926,
                        -0.08501661568880081,
                        0.12785355746746063,
                        0.13077174127101898,
                        0.0010869245743378997,
                        -0.06340739130973816,
                        -0.09290026873350143,
                        0.11527962237596512,
                        0.09174824506044388,
                        -0.06734015047550201,
                        -0.014538271352648735,
                        -0.016982825472950935
                    ],
                    [
                        -0.09754249453544617,
                        0.053960029035806656,
                        -0.01890711858868599,
                        0.04970517382025719,
                        0.042745593935251236,
                        0.13405951857566833,
                        0.10193554311990738,
                        0.07357314229011536,
                        0.051471155136823654,
                        -0.13677632808685303,
                        -0.06431546062231064,
                        0.10429142415523529,
                        0.135071262717247,
                        -0.13005734980106354,
                        -0.013258279301226139,
                        -0.075373075902462,
                        0.06333828717470169,
                        0.024854740127921104,
                        0.03338108956813812,
                        -0.034253597259521484,
                        -0.09333823621273041,
                        0.039823513478040695,
                        -0.11872158199548721,
                        -0.09127605706453323,
                        -0.13794207572937012,
                        0.05064445361495018,
                        0.11560937017202377,
                        -0.022013084962964058,
                        0.09489213675260544,
                        0.00361831346526742,
                        -0.030851002782583237,
                        -0.04634205624461174,
                        0.1391584724187851,
                        0.12090634554624557,
                        0.058777742087841034,
                        -0.044101204723119736,
                        -0.11743811517953873,
                        0.10130833089351654,
                        -0.02753516100347042,
                        -0.09140816330909729,
                        -0.054723381996154785,
                        0.03514835610985756,
                        0.1380145102739334,
                        0.1365872472524643,
                        0.025387119501829147,
                        -0.11168746650218964,
                        -0.09221837669610977,
                        -0.12190037220716476,
                        0.03205118700861931,
                        0.03820831701159477,
                        -0.004197414498776197
                    ],
                    [
                        -0.09946141391992569,
                        0.09464990347623825,
                        0.06323125213384628,
                        0.024747706949710846,
                        -0.10940168052911758,
                        0.025210760533809662,
                        0.10433510690927505,
                        0.12621161341667175,
                        0.11198988556861877,
                        0.05715344473719597,
                        0.03469320014119148,
                        0.04191131517291069,
                        -0.10307308286428452,
                        -0.013333229348063469,
                        -0.050925806164741516,
                        0.043028634041547775,
                        0.09079694747924805,
                        0.08837783336639404,
                        0.07062215358018875,
                        -0.09300705045461655,
                        -0.03858892619609833,
                        0.02260051667690277,
                        0.02242407575249672,
                        0.02901713363826275,
                        0.028517339378595352,
                        0.07011666893959045,
                        -0.10832814127206802,
                        0.06399483978748322,
                        0.09451361000537872,
                        0.12333749234676361,
                        0.08814949542284012,
                        0.10575094819068909,
                        0.023124849423766136,
                        -0.0465485118329525,
                        -0.11832768470048904,
                        0.006078324280679226,
                        -0.12814638018608093,
                        0.06967491656541824,
                        0.05140812322497368,
                        0.12856203317642212,
                        0.03704218566417694,
                        0.013075661845505238,
                        0.07884053885936737,
                        -0.03189559653401375,
                        0.0059295762330293655,
                        -0.024266859516501427,
                        0.12068893760442734,
                        0.0361458919942379,
                        0.037587620317935944,
                        0.05500131472945213,
                        -0.11205827444791794
                    ],
                    [
                        0.09319349378347397,
