{
    "architecture": "NN",
    "layers": [
        {
            "layer_name": "flatten",
            "layer_type": "Flatten",
            "parameters": {}
        },
        {
            "layer_name": "linear_relu_stack",
            "layer_type": "Sequential",
            "parameters": {
                "0.weight": [
                    [
                        -0.010449793189764023,
                        -0.11772935092449188,
                        -0.0028193702455610037,
                        -0.13740508258342743,
                        0.10895608365535736,
                        0.02253696694970131,
                        0.09735582023859024,
                        -0.12926964461803436,
                        -0.014235817827284336,
                        0.0904148519039154,
                        0.10399270802736282,
                        -0.05417698249220848,
                        -0.05604243278503418,
                        -0.08382207900285721,
                        -0.017291437834501266,
                        -0.1004779264330864,
                        -0.10335834324359894,
                        0.004302461165934801,
                        0.11856218427419662,
                        0.13907206058502197,
                        -0.06928358972072601,
                        0.036537084728479385,
                        0.034637778997421265,
                        0.042877331376075745,
                        0.12202289700508118,
                        0.1273244172334671,
                        -0.11395389586687088,
                        0.12097378075122833,
                        0.1308479905128479,
                        0.052688565105199814,
                        0.04046892002224922,
                        0.01362962368875742,
                        0.03724169731140137,
                        -0.12073374539613724,
                        -0.038214560598134995,
                        -0.13632887601852417,
                        -0.001897819689475,
                        -0.11652671545743942,
                        0.09409691393375397,
                        -0.13681058585643768,
                        0.07369925826787949,
                        0.13314954936504364,
                        -0.10313986986875534,
                        -0.07086136192083359,
                        -0.09202338755130768,
                        0.07499926537275314,
                        0.08111072331666946,
                        0.07793188095092773,
                        0.01601012796163559,
                        -0.017219210043549538,
                        0.013356499373912811
                    ],
                    [
                        0.1244025006890297,
                        0.11240680515766144,
                        -0.06314206123352051,
                        0.004657697398215532,
                        -0.02856336161494255,
                        0.027821606025099754,
                        0.02729550562798977,
                        0.13650408387184143,
                        0.03544600307941437,
                        0.09705426543951035,
                        -0.05315408855676651,
                        -0.0896046906709671,
                        -0.04760453850030899,
                        0.07872626185417175,
                        -0.07344943284988403,
                        0.003139818785712123,
                        0.11506585776805878,
                        -0.09927495568990707,
                        -0.05731596425175667,
                        0.05430706590414047,
                        0.1023767963051796,
                        -0.08580579608678818,
                        0.013250467367470264,
                        0.026600539684295654,
                        -0.13436493277549744,
                        0.1289435178041458,
                        -0.037973836064338684,
                        -0.009414114989340305,
                        0.12457925826311111,
                        0.1048702597618103,
                        -0.1002211943268776,
                        0.12491710484027863,
                        0.08425620198249817,
                        -0.13627669215202332,
                        0.06319950520992279,
                        0.014000617899000645,
                        -0.12354132533073425,
                        -0.10613512992858887,
                        0.10276443511247635,
                        -0.10043171793222427,
                        -0.12898722290992737,
                        -0.11034765094518661,
                        -0.08974961936473846,
                        -0.12390211969614029,
                        0.07811547815799713,
                        0.09730585664510727,
                        0.034829042851924896,
                        0.07103177160024643,
                        -0.09362628310918808,
                        0.023672383278608322,
                        0.04740871861577034
                    ],
                    [
                        -0.11239305138587952,
                        -0.05060185119509697,
                        -0.012786145322024822,
                        -0.055482327938079834,
                        0.036942947655916214,
                        -0.01989932917058468,
                        0.0031329081393778324,
                        0.05136330425739288,
                        0.022325070574879646,
                        0.0752841904759407,
                        -0.010843455791473389,
                        0.10139752179384232,
                        0.000855681428220123,
                        -0.02479761838912964,
                        -0.10475529730319977,
                        -0.03722145035862923,
                        -0.06913106888532639,
                        0.1146920770406723,
                        -0.10567183792591095,
                        -0.011144123040139675,
                        -0.020030450075864792,
                        -0.03369172289967537,
                        -0.13352486491203308,
                        0.06998830288648605,
                        -0.11583954095840454,
                        -0.07816401869058609,
                        -0.008169027976691723,
                        0.10597164183855057,
                        -0.027186518535017967,
                        -0.027055582031607628,
                        0.03858186677098274,
                        -0.08499155938625336,
                        0.13416673243045807,
                        -0.08385016769170761,
                        -0.021771226078271866,
                        0.10497864335775375,
                        0.07913395017385483,
                        -0.11702889204025269,
                        -0.0782414898276329,
                        0.025906609371304512,
                        -0.13512371480464935,
                        -0.03408800810575485,
                        -0.0163602065294981,
                        -0.06563203781843185,
                        -0.0744573175907135,
                        -0.12789729237556458,
                        0.03579274192452431,
                        0.0841824859380722,
                        0.13108877837657928,
                        0.042459648102521896,
                        -0.021501973271369934
                    ],
                    [
                        -0.13341405987739563,
                        -0.01267764251679182,
                        0.1223096251487732,
                        -0.03275102749466896,
                        0.07953405380249023,
                        0.03724541887640953,
                        -0.04959413409233093,
                        -0.128562331199646,
                        -0.12141264975070953,
                        0.007474346552044153,
                        -0.05370805040001869,
                        0.026591258123517036,
                        -0.08932750672101974,
                        -0.1055084839463234,
                        0.016283703967928886,
                        -0.06917830556631088,
                        0.13238900899887085,
                        -0.073455311357975,
                        -0.014192700386047363,
                        -0.11300165951251984,
                        0.028655169531702995,
                        -0.07793448120355606,
                        0.03651288151741028,
                        -0.06195124611258507,
                        -0.10476808249950409,
                        -0.10827195644378662,
                        -0.019442034885287285,
                        0.08032657206058502,
                        0.057019103318452835,
                        -0.06757307797670364,
                        -0.10282115638256073,
                        -0.11136327683925629,
                        -0.018437806516885757,
                        -0.0030078634154051542,
                        -0.08244359493255615,
                        0.11597106605768204,
                        -0.11047223955392838,
                        -0.09281618893146515,
                        -0.08578863739967346,
                        -0.10634663701057434,
                        -0.012302475981414318,
                        -0.12059971690177917,
                        0.1375531256198883,
                        -0.014608180150389671,
                        -0.057980433106422424,
                        0.13193830847740173,
                        -0.08938159048557281,
                        -0.038660839200019836,
                        0.050704196095466614,
                        -0.11230489611625671,
                        -0.0213861595839262
                    ],
                    [
                        -0.05476254224777222,
                        0.042847488075494766,
                        0.1184307262301445,
                        0.011492999270558357,
                        0.09757834672927856,
                        0.010774248279631138,
                        -0.03670290857553482,
                        0.07458972930908203,
                        -0.02659272775053978,
                        0.0629795640707016,
                        0.13567180931568146,
                        0.019474970176815987,
                        0.13403499126434326,
                        0.11630438268184662,
                        0.12728016078472137,
                        0.0607789047062397,
                        0.09793984144926071,
                        -0.0730530396103859,
                        -0.07356029003858566,
                        -0.07398319989442825,
                        0.035683438181877136,
                        0.07324433326721191,
                        0.026148252189159393,
                        0.12503941357135773,
                        0.06354247033596039,
                        -0.1294061541557312,
                        -0.04263458773493767,
                        -0.08256132900714874,
                        0.10379762202501297,
                        -0.02209252491593361,
                        0.13171735405921936,
                        0.07492426782846451,
                        0.07730228453874588,
                        0.016867930069565773,
                        0.1348109245300293,
                        0.11700310558080673,
                        -0.08236443996429443,
                        0.09568049758672714,
                        -0.056588251143693924,
                        0.0740942731499672,
                        -0.10292157530784607,
                        -0.025078704580664635,
                        -0.09739876538515091,
                        -0.054396405816078186,
                        -0.08699890226125717,
                        -0.06634671986103058,
                        -0.01164989359676838,
                        0.06381571292877197,
                        0.04040142893791199,
                        0.004537894390523434,
                        0.1360568255186081
                    ],
                    [
                        -0.008369573391973972,
                        -0.13968141376972198,
                        -0.020733343437314034,
                        0.13515184819698334,
                        -0.08630552142858505,
                        -0.0863204151391983,
                        0.061870552599430084,
                        0.07944144308567047,
                        -0.13424399495124817,
                        -0.043505728244781494,
                        0.0858120247721672,
                        -0.053273558616638184,
                        0.04083659127354622,
                        -0.03676113486289978,
                        -0.024389684200286865,
                        0.12363031506538391,
                        0.06041911244392395,
                        0.10541459172964096,
                        -0.1330176442861557,
                        0.08475721627473831,
                        -0.10590992867946625,
                        -0.07740038633346558,
                        0.002777505200356245,
                        -0.01770399697124958,
                        -0.05904126912355423,
                        -0.05327766761183739,
                        0.1374562680721283,
                        0.06370805948972702,
                        -0.09165932238101959,
                        0.04506635665893555,
                        -0.12991584837436676,
                        0.09256139397621155,
                        0.004776866175234318,
                        -0.060514360666275024,
                        -0.10869985073804855,
                        -0.05271599069237709,
                        -0.07631267607212067,
                        -0.12135659903287888,
                        0.07723706215620041,
                        0.04923001676797867,
                        -0.0090170968323946,
                        -0.013276624493300915,
                        0.008807837963104248,
                        -0.04362493008375168,
                        -0.1256588101387024,
                        0.028763756155967712,
                        -0.09163176268339157,
                        -0.08713585138320923,
                        0.05082635208964348,
                        -0.089029960334301,
                        0.04177785664796829
                    ],
                    [
                        0.12263479828834534,
                        0.06146976351737976,
                        0.034193020313978195,
                        0.023930920287966728,
                        -0.032689664512872696,
                        -0.0266453605145216,
                        0.11327958106994629,
                        0.07083532214164734,
                        0.10777895152568817,
                        -0.05975557863712311,
                        0.13060879707336426,
                        -0.052485350519418716,
                        -0.09317838400602341,
                        0.08231636881828308,
                        0.09254886955022812,
                        -0.027824310585856438,
                        0.07868003845214844,
                        0.10325192660093307,
                        0.10143204033374786,
                        -0.1341104358434677,
                        -0.06641072034835815,
                        -0.025104880332946777,
                        0.050040312111377716,
                        -0.12044267356395721,
                        -0.02802266925573349,
                        -0.09538406878709793,
                        -0.10339958965778351,
                        0.09886959195137024,
                        -0.08620823919773102,
                        0.08290987461805344,
                        -0.13190923631191254,
                        -0.09360881894826889,
                        0.05340641736984253,
                        0.11518532782793045,
                        -0.04462326690554619,
                        0.01801094226539135,
                        0.13671208918094635,
                        0.12004593759775162,
                        -0.13636162877082825,
                        -0.10781166702508926,
                        -0.043445732444524765,
                        -0.01069791242480278,
                        0.07121400535106659,
                        -0.04034297168254852,
                        0.12573668360710144,
                        0.053869135677814484,
                        -0.13880856335163116,
                        0.12699373066425323,
                        0.009744144976139069,
                        -0.0731213390827179,
                        0.1139906495809555
                    ],
                    [
                        -0.09043311327695847,
                        0.07963955402374268,
                        0.012908835895359516,
                        0.01745419204235077,
                        0.09207142889499664,
                        0.06214616447687149,
                        -0.040091097354888916,
                        -0.005485385190695524,
                        -0.029844937846064568,
                        0.09577672928571701,
                        -0.05776578187942505,
                        0.02771647647023201,
                        0.03657248988747597,
                        0.13269034028053284,
                        -0.13172650337219238,
                        -0.01320603210479021,
                        0.00605056481435895,
                        -0.13714414834976196,
                        -0.13476420938968658,
                        0.016077883541584015,
                        0.1360914409160614,
                        -0.12730911374092102,
                        -0.06012944504618645,
                        -0.06893268972635269,
                        0.0968579426407814,
                        0.12859280407428741,
                        -0.04022656008601189,
                        -0.045735765248537064,
                        0.12321066111326218,
                        0.027657400816679,
                        0.10360793024301529,
                        -0.0496775321662426,
                        0.04199382662773132,
                        -0.07378023117780685,
                        0.0782334953546524,
                        0.027454903349280357,
                        0.030099784955382347,
                        -0.006026043090969324,
                        -0.10427199304103851,
                        0.09188904613256454,
                        -0.06220255419611931,
                        0.005670423153787851,
                        0.0033537184353917837,
                        0.060678813606500626,
                        -0.02968463860452175,
                        0.11951180547475815,
                        -0.05206145718693733,
                        0.06458619236946106,
                        -0.03254390507936478,
                        0.08042467385530472,
                        -0.03502560034394264
                    ],
                    [
                        -0.12579669058322906,
                        -0.012830948457121849,
                        -0.038955848664045334,
                        -0.07286978513002396,
                        0.04774804413318634,
                        0.09388012439012527,
                        -0.11020335555076599,
                        0.04019051790237427,
                        -0.030699867755174637,
                        0.032888639718294144,
                        0.014372930862009525,
                        0.02927456796169281,
                        -0.07665479183197021,
                        0.129873588681221,
                        0.13313831388950348,
                        -0.06492026150226593,
                        0.06710000336170197,
                        -0.03814456984400749,
                        0.05941019207239151,
                        -0.02689887024462223,
                        0.0030056769028306007,
                        0.021757002919912338,
                        -0.10574813932180405,
                        -0.10891371965408325,
                        0.02433524839580059,
                        -0.02244400605559349,
                        -0.08338245749473572,
                        0.0641149953007698,
                        0.08147412538528442,
                        -0.0023450988810509443,
                        -0.05942486599087715,
                        -0.023911472409963608,
                        -0.135952889919281,
                        0.02961035631597042,
                        -0.07439707964658737,
                        -0.04041106253862381,
                        0.015457568690180779,
                        -0.023439453914761543,
                        -0.039512597024440765,
                        -0.08295591175556183,
                        -0.129365935921669,
                        -0.12740810215473175,
                        0.12025173008441925,
                        0.039069727063179016,
                        0.1344085931777954,
                        -0.051362186670303345,
                        -0.020065488293766975,
                        -0.05517597123980522,
                        -0.005434606224298477,
                        0.0034647576976567507,
                        -0.04610315337777138
                    ],
                    [
                        -0.05105355381965637,
                        -0.11042478680610657,
                        -0.12711624801158905,
                        -0.09229899942874908,
                        0.08339238911867142,
                        0.08464217185974121,
                        0.11287935823202133,
                        -0.11882983148097992,
                        0.023158684372901917,
                        -0.12801697850227356,
                        0.05010182410478592,
                        0.05799073353409767,
                        0.10623010993003845,
                        -0.1333833932876587,
                        0.0869356170296669,
                        -0.08829709142446518,
                        -0.07726525515317917,
                        -0.09121673554182053,
                        0.04408140480518341,
                        0.030121518298983574,
                        0.07163933664560318,
                        0.1321154683828354,
                        0.045714981853961945,
                        0.04603523015975952,
                        0.002993491245433688,
                        -0.11242344230413437,
                        -0.03276234492659569,
                        -0.08785371482372284,
                        -0.09411996603012085,
                        0.10120207071304321,
                        -0.11421149224042892,
                        -0.07237114012241364,
                        0.016745956614613533,
                        -0.08301462233066559,
                        -0.0325997918844223,
                        0.09188754111528397,
                        0.12708239257335663,
                        0.09488952904939651,
                        0.11160816252231598,
                        0.06879372894763947,
                        -0.0629640519618988,
                        0.013311445713043213,
                        -0.020162206143140793,
                        0.007098795846104622,
                        0.09100418537855148,
                        -0.08551060408353806,
                        -0.04583802446722984,
                        0.13342218101024628,
                        -0.09883291274309158,
                        -0.07939106225967407,
                        0.05061403661966324
                    ],
                    [
                        0.08751532435417175,
                        0.13496416807174683,
                        0.0967586562037468,
                        -0.1332513391971588,
                        0.025997018441557884,
                        -0.07694943249225616,
                        0.10216595232486725,
                        0.027345415204763412,
                        -0.11170844733715057,
                        0.03685232624411583,
                        0.06446944922208786,
                        -0.04751753807067871,
                        0.07607387006282806,
                        0.13982084393501282,
                        0.007306552026420832,
                        0.0978212058544159,
                        0.05393293499946594,
                        0.13661693036556244,
                        0.0008323283982463181,
                        -0.05772029608488083,
                        0.11437955498695374,
                        -0.12616197764873505,
                        -0.10387367755174637,
                        0.12581749260425568,
                        -0.00735950144007802,
                        -0.01169122476130724,
                        0.11411893367767334,
                        0.08738086372613907,
                        0.0062313624657690525,
                        -0.10641419887542725,
                        -0.03987694904208183,
                        -0.11209318041801453,
                        -0.11032075434923172,
                        -0.11644565314054489,
                        -0.0844908133149147,
                        0.016302650794386864,
                        -0.08848147839307785,
                        0.05690951645374298,
                        -0.05646981671452522,
                        -0.07397718727588654,
                        0.05447918549180031,
                        -0.05617328733205795,
                        -0.061437562108039856,
                        -0.13149866461753845,
                        0.13015058636665344,
                        -0.11311905831098557,
                        -0.07055972516536713,
                        -0.10828455537557602,
                        0.06403395533561707,
                        0.10713981091976166,
                        0.04466982185840607
                    ],
                    [
                        -0.018441928550601006,
                        0.0031149969436228275,
                        0.037361785769462585,
                        0.04809483513236046,
                        0.09310255199670792,
                        -0.06486013531684875,
                        -0.07226314395666122,
                        -0.04575180634856224,
                        -0.07107636332511902,
                        -0.03789336234331131,
                        -0.007069099228829145,
                        -0.0911664068698883,
                        0.101793073117733,
                        0.056676704436540604,
                        0.018583649769425392,
                        0.042569052428007126,
                        0.08611923456192017,
                        -0.13006703555583954,
                        0.0873522162437439,
                        0.10314534604549408,
                        0.0332845076918602,
                        0.003474205732345581,
                        0.11333491653203964,
                        -0.13531838357448578,
                        -0.0055674295872449875,
                        0.04301244392991066,
                        0.05213455483317375,
                        -0.04564332216978073,
                        0.01937953755259514,
                        0.08913151919841766,
                        -0.006488295737653971,
                        -0.10778097063302994,
                        -0.07491186261177063,
                        -0.03331500291824341,
                        -0.03938017413020134,
                        -0.03802114352583885,
                        -0.07389252632856369,
                        0.04593247175216675,
                        0.03326379135251045,
                        -0.017360195517539978,
                        0.023934809491038322,
                        0.07569267600774765,
                        0.004441427532583475,
                        0.026718156412243843,
                        -0.09234780818223953,
                        0.0035525611601769924,
                        -0.07154431939125061,
                        0.11456115543842316,
                        -0.13644351065158844,
                        -0.07816267013549805,
                        -0.049150094389915466
                    ],
                    [
                        0.0808996930718422,
                        0.09422338008880615,
                        -0.06364449858665466,
                        -0.07975451648235321,
                        0.049642108380794525,
                        -0.024922596290707588,
                        0.035461727529764175,
                        0.10662998259067535,
                        -0.10792162269353867,
                        -0.082151859998703,
                        0.11406712234020233,
                        0.12376539409160614,
                        -0.12747341394424438,
                        -0.05461040511727333,
                        0.1339089721441269,
                        0.07501038163900375,
                        0.09361262619495392,
                        -0.023427685722708702,
                        0.09058196097612381,
                        -0.1185372918844223,
                        -0.03045755811035633,
                        0.004727138672024012,
                        0.10242196917533875,
                        -0.0902254581451416,
                        -0.06963987648487091,
                        0.08420082926750183,
                        0.05539295822381973,
                        0.013611813075840473,
                        0.0784682109951973,
                        -0.03478093445301056,
                        -0.12308678776025772,
                        -0.022968022152781487,
                        -0.10551092028617859,
                        -0.10772894322872162,
                        -0.010625666938722134,
                        0.08858790993690491,
                        -0.00916197244077921,
                        0.10676128417253494,
                        -0.05575226619839668,
                        0.11210184544324875,
                        -0.036726947873830795,
                        -0.060479555279016495,
                        -0.02529636025428772,
                        0.13990648090839386,
                        0.09112752974033356,
                        -0.12890224158763885,
                        0.09581605345010757,
                        -0.020258989185094833,
                        0.08935004472732544,
                        -0.12106335908174515,
                        0.04780241474509239
                    ],
                    [
                        0.11332852393388748,
                        -0.07159113138914108,
                        0.08072853088378906,
                        -0.06512149423360825,
                        -0.042562659829854965,
                        -0.07514632493257523,
                        -0.002566560171544552,
                        0.04200571030378342,
                        -0.08227239549160004,
                        -0.13671374320983887,
                        0.022771965712308884,
                        -0.04613985866308212,
                        -0.13224974274635315,
                        0.12544868886470795,
                        0.07172451913356781,
                        0.05531448498368263,
                        -0.09527858346700668,
                        0.04947543144226074,
                        -0.033007994294166565,
                        0.08584719151258469,
                        -0.07442827522754669,
                        -0.019238952547311783,
                        0.05201403424143791,
                        0.139261856675148,
                        0.04265570640563965,
                        -0.10395493358373642,
                        0.10599571466445923,
                        -0.062017232179641724,
                        -0.0724768191576004,
                        -0.1077834963798523,
                        0.03806120529770851,
                        -0.020505806431174278,
                        0.08713310956954956,
                        -0.018847359344363213,
                        -0.09788260608911514,
                        -0.049929291009902954,
                        0.08607491105794907,
                        -0.038200538605451584,
                        -0.13525527715682983,
                        0.08546902239322662,
                        0.05276036262512207,
                        -0.1305241882801056,
                        0.13256363570690155,
                        0.014971478842198849,
                        0.09707716852426529,
                        0.1348954737186432,
                        0.12697027623653412,
                        0.03990817815065384,
                        0.07086320966482162,
                        0.11149141192436218,
                        -0.08584597706794739
                    ],
                    [
                        0.11712078750133514,
                        -0.05868886783719063,
                        -0.07117892056703568,
                        0.12161489576101303,
                        0.0812317281961441,
                        0.13246303796768188,
                        -0.09333302825689316,
                        0.11128305643796921,
                        0.037112414836883545,
                        0.011202197521924973,
                        0.09451062232255936,
                        0.001772274263203144,
                        -0.05319450423121452,
                        -0.09495963901281357,
                        -0.0860314667224884,
                        -0.06000865623354912,
                        0.10737210512161255,
                        -0.09694688022136688,
                        0.02476024255156517,
                        0.024586206302046776,
                        0.049700867384672165,
                        -0.13733987510204315,
                        0.027378784492611885,
                        0.02925468608736992,
                        -0.03746931999921799,
                        0.055898427963256836,
                        0.1296657770872116,
                        -0.0014954102225601673,
                        0.015488149598240852,
                        -0.05291064456105232,
                        0.0007186014554463327,
                        0.051026295870542526,
                        0.11081207543611526,
                        0.0861942321062088,
                        -0.016722537577152252,
                        -0.1353374570608139,
                        -0.07366137951612473,
                        -0.008055450394749641,
                        0.06353489309549332,
                        -0.046581145375967026,
                        0.041898325085639954,
                        0.0001611340558156371,
                        -0.046784430742263794,
                        -0.09822949022054672,
                        0.07903981953859329,
                        -0.0703335553407669,
                        -0.09468132257461548,
                        -0.009996721521019936,
                        -0.06642548739910126,
                        -0.04181988909840584,
                        0.1394769698381424
                    ],
                    [
                        0.06994426250457764,
                        0.11771457642316818,
                        0.019507987424731255,
                        -0.10995834320783615,
                        0.10113251209259033,
                        0.05810517817735672,
                        -0.08486022800207138,
                        -0.02726859599351883,
                        -0.06589304655790329,
                        -0.09621521085500717,
                        0.05861562117934227,
                        -0.10463891923427582,
                        0.032671935856342316,
                        0.05222859978675842,
                        -0.057413551956415176,
                        0.09655007719993591,
                        -0.07170966267585754,
                        0.1359570175409317,
                        0.05879608541727066,
                        0.04676121100783348,
                        -0.10259996354579926,
                        0.11084850877523422,
                        -0.131228968501091,
                        0.03946368768811226,
                        -0.020551461726427078,
                        0.09148434549570084,
                        0.004044593311846256,
                        -0.0023083584383130074,
                        -0.06971178948879242,
                        -0.05129912123084068,
                        -0.031893808394670486,
                        0.13204064965248108,
                        0.0975569486618042,
                        -0.089816153049469,
                        0.03743034228682518,
                        0.12598252296447754,
                        -0.07749255746603012,
                        0.13280591368675232,
                        0.07362933456897736,
                        -0.013862687163054943,
                        -0.07123325765132904,
                        0.003430020296946168,
                        0.0481848418712616,
                        -0.05193048715591431,
                        0.08839158713817596,
                        -0.02313942089676857,
                        -0.08585110306739807,
                        0.10524486005306244,
                        0.06534965336322784,
                        0.0937255322933197,
                        -0.037603795528411865
                    ],
                    [
                        0.011683362536132336,
                        0.13575422763824463,
                        0.028745243325829506,
                        0.04740287363529205,
                        0.060112953186035156,
                        0.12726347148418427,
                        0.057592812925577164,
                        0.07544949650764465,
                        0.09887344390153885,
                        0.027665914967656136,
                        -0.12689855694770813,
                        -0.08475667983293533,
                        0.08579850196838379,
                        0.040599070489406586,
                        0.11665152758359909,
                        0.10346956551074982,
                        0.06903797388076782,
                        0.13747191429138184,
                        0.10080616921186447,
                        -0.07390052080154419,
                        -0.04780631884932518,
                        -0.03547957167029381,
                        0.0421401709318161,
                        0.061609964817762375,
                        0.12059929966926575,
                        -0.008451033383607864,
                        -0.04516569525003433,
                        0.12885433435440063,
                        -0.06295947730541229,
                        0.043114520609378815,
                        0.08050588518381119,
                        0.04662693291902542,
                        0.06021516025066376,
                        -0.05203917250037193,
                        0.11677451431751251,
                        0.016265224665403366,
                        0.02714887633919716,
                        0.03501836955547333,
                        0.07359711825847626,
                        -0.13037824630737305,
                        -0.04205942898988724,
                        0.10504657030105591,
                        -0.04707267880439758,
                        0.0015789067838340998,
                        -0.10414429754018784,
                        -0.12929725646972656,
                        -0.0614139586687088,
                        0.02809002436697483,
                        0.015629302710294724,
                        0.10893204808235168,
                        0.03279494494199753
                    ],
                    [
                        -0.08471084386110306,
                        0.10836558043956757,
                        0.11073772609233856,
                        -0.05973866954445839,
                        0.01576155796647072,
                        0.07374770194292068,
                        0.04271780326962471,
                        0.13627931475639343,
                        -0.021806346252560616,
                        0.10941803455352783,
                        -0.10478183627128601,
                        0.11816691607236862,
                        -0.036445457488298416,
                        0.12410452216863632,
                        0.08608829975128174,
                        0.0050839269533753395,
                        0.04088246077299118,
                        -0.13241568207740784,
                        -0.09305046498775482,
                        -0.022524213418364525,
                        0.13960091769695282,
                        -0.02743864431977272,
                        -0.06533993780612946,
                        0.10284171998500824,
                        0.07042716443538666,
                        -0.11477223038673401,
                        0.020370079204440117,
                        0.11346838623285294,
                        0.02736479602754116,
                        0.09987443685531616,
                        0.0644269660115242,
                        0.09530101716518402,
                        -0.1125645786523819,
                        0.04663316160440445,
                        0.019079186022281647,
                        0.12758812308311462,
                        -0.027251552790403366,
                        -0.11242731660604477,
                        -0.13439221680164337,
                        0.02584710158407688,
                        -0.04033641144633293,
                        -0.0623614676296711,
                        0.11297939717769623,
                        0.060103051364421844,
                        -0.09028781950473785,
                        -0.00040578137850388885,
                        -0.012112046591937542,
                        -0.06801369786262512,
                        -0.026152459904551506,
                        -0.1152564063668251,
                        0.07128216326236725
                    ],
                    [
                        0.013865074142813683,
                        0.10671506077051163,
                        -0.08420737832784653,
                        -0.09391313046216965,
                        -0.047498323023319244,
                        -0.06785818934440613,
                        -0.033577196300029755,
                        0.09521333128213882,
                        0.09078090637922287,
                        0.10713262856006622,
                        0.03636636957526207,
                        -0.02367173321545124,
                        0.08319489657878876,
                        0.04050469025969505,
                        0.05888323858380318,
                        0.05546009540557861,
                        -0.08123449981212616,
                        -0.04203633964061737,
                        -0.01342378742992878,
                        0.06667573004961014,
                        -0.11303873360157013,
                        0.11395113915205002,
                        0.13011716306209564,
                        0.016458192840218544,
                        0.12641195952892303,
                        -0.053139835596084595,
                        -0.11164537072181702,
                        -0.07424185425043106,
                        0.08721686154603958,
                        0.005837199278175831,
                        0.03294137120246887,
                        0.06504847854375839,
                        -0.07532628625631332,
                        -0.09129505604505539,
                        0.012324994429945946,
                        -0.04380350932478905,
                        -0.015397308394312859,
                        0.09520097821950912,
                        0.07741983234882355,
                        -0.12948355078697205,
                        0.017015259712934494,
                        0.005891617387533188,
                        -0.09047866612672806,
                        -0.09952013194561005,
                        -0.03992023319005966,
                        -0.031175876036286354,
                        0.06462766230106354,
                        -0.11032457649707794,
                        -0.07537049055099487,
                        0.11908479779958725,
                        -0.1271108090877533
                    ],
                    [
                        -0.04947234317660332,
                        0.11022355407476425,
                        -0.052310511469841,
                        0.08016296476125717,
                        -0.06393569707870483,
                        0.13794681429862976,
                        -0.01470224279910326,
                        0.0931348130106926,
                        -0.05758289992809296,
                        -0.016331126913428307,
                        0.011921816505491734,
                        -0.11345581710338593,
                        -0.03534901887178421,
                        0.0011635938426479697,
                        0.043876439332962036,
                        0.01368056982755661,
                        0.12775075435638428,
                        -0.03035486489534378,
                        -0.05421769618988037,
                        -0.11005856841802597,
                        0.11696358025074005,
                        -0.05189651623368263,
                        -0.025036122649908066,
                        0.05887337401509285,
                        -0.061525531113147736,
                        0.030060140416026115,
                        0.09958042949438095,
                        0.037571411579847336,
                        0.09572244435548782,
                        -0.13976846635341644,
                        0.1151994839310646,
                        0.0746132954955101,
                        0.02147294580936432,
                        0.06346368044614792,
                        -0.05063208192586899,
                        -0.044877395033836365,
                        0.023825671523809433,
                        -0.06685639172792435,
                        -0.031190982088446617,
                        -0.023459019139409065,
                        0.01258037518709898,
                        -0.0213546771556139,
                        -0.06189266964793205,
                        0.0829811841249466,
                        -0.03754523769021034,
                        -0.07430888712406158,
                        -0.05220678448677063,
                        0.09140447527170181,
                        -0.11123361438512802,
                        0.09029211103916168,
                        0.04186994954943657
                    ],
                    [
                        0.05563199520111084,
                        -0.11349751800298691,
                        0.10766222327947617,
                        -0.10714293271303177,
                        -0.052361391484737396,
                        -0.032510701566934586,
                        -0.07836593687534332,
                        0.014616276137530804,
                        -0.10608763992786407,
                        -0.03171614930033684,
                        -0.027299577370285988,
                        -0.04011581838130951,
                        -0.08166740834712982,
                        -0.11883101612329483,
                        -0.03461437672376633,
                        0.13940519094467163,
                        0.0882783755660057,
                        0.12316571176052094,
                        0.021259730681777,
                        -0.10744337737560272,
                        0.06381876766681671,
                        0.056137531995773315,
                        0.10174576193094254,
                        -0.05877014622092247,
                        -0.03762611374258995,
                        0.003452855860814452,
                        -0.13374799489974976,
                        -0.08856954425573349,
                        0.10131853073835373,
                        -0.0381602942943573,
                        -0.10389629751443863,
                        -0.10104680806398392,
                        0.09777228534221649,
                        -0.03136475384235382,
                        0.07705722004175186,
                        0.13380756974220276,
                        -0.12050075083971024,
                        0.08391398191452026,
                        0.031217040494084358,
                        -0.08544418215751648,
                        0.01132039725780487,
                        0.016430482268333435,
                        0.08259157836437225,
                        -0.12153240293264389,
                        -0.005200625397264957,
                        -0.06806211918592453,
                        -0.004464162979274988,
                        0.040721580386161804,
                        -0.12862853705883026,
                        0.011705746874213219,
                        -0.12714883685112
                    ],
                    [
                        0.06210648640990257,
                        -0.01874561794102192,
                        -0.015209999866783619,
                        -0.044806383550167084,
                        0.10727272927761078,
                        0.08065823465585709,
                        0.024424653500318527,
                        -0.05460439622402191,
                        -0.13233749568462372,
                        0.05694647505879402,
                        0.053983498364686966,
                        -0.09493333101272583,
                        -0.05491376295685768,
                        0.0534525029361248,
                        0.03927325829863548,
                        0.0787685438990593,
                        -0.10639908909797668,
                        -0.11963267624378204,
                        0.07722534239292145,
                        -0.09049101918935776,
                        -0.021610025316476822,
                        0.1278989464044571,
                        0.0008614070247858763,
                        0.08744953572750092,
                        0.07856541126966476,
                        -0.05038835480809212,
                        0.13922464847564697,
                        -0.0770232304930687,
                        -0.13470065593719482,
                        -0.1276836395263672,
                        -0.11943554133176804,
                        -0.08628097176551819,
                        -0.11655040085315704,
                        0.09594801068305969,
                        -0.04065936431288719,
                        0.13104376196861267,
                        -0.10846735537052155,
                        -0.13683663308620453,
                        0.018524039536714554,
                        0.07355397939682007,
                        0.01832573115825653,
                        0.060440510511398315,
                        -0.07747915387153625,
                        -0.13528791069984436,
                        0.11846970021724701,
                        0.11666122078895569,
                        -0.018506528809666634,
                        -0.019919661805033684,
                        0.12791219353675842,
                        0.0027917439583688974,
                        -0.00875580683350563
                    ],
                    [
                        -0.03037280961871147,
                        -0.06318120658397675,
                        -0.08168993890285492,
                        -0.08529810607433319,
                        -0.10521885007619858,
                        0.07513559609651566,
                        0.12040054053068161,
                        0.04100964218378067,
                        0.12311235815286636,
                        0.06408533453941345,
                        0.06673301756381989,
                        -0.07765921950340271,
                        -0.0917530506849289,
                        0.016016587615013123,
                        -0.017524952068924904,
                        -0.0724479928612709,
                        0.014232729561626911,
                        -0.10985064506530762,
                        -0.031222565099596977,
                        -0.0354151725769043,
                        -0.06279116868972778,
                        0.0017782335635274649,
                        0.09454163908958435,
                        0.039732374250888824,
                        0.07863622158765793,
                        -0.07993177324533463,
                        0.0059332819655537605,
                        -0.08722575753927231,
                        0.12655873596668243,
                        -0.055039141327142715,
                        -0.055393725633621216,
                        0.061520691961050034,
                        0.02290654182434082,
                        -0.1389201581478119,
                        -0.015599188394844532,
                        0.01605508103966713,
                        -0.04070006310939789,
                        0.13138175010681152,
                        0.07235301285982132,
                        0.13359378278255463,
                        -0.05935832858085632,
                        0.0737195760011673,
                        0.06868661195039749,
                        -0.13044758141040802,
                        -0.03206275403499603,
                        -0.13392099738121033,
                        0.05850867182016373,
                        -0.07960349321365356,
                        0.12729176878929138,
                        -0.11377540230751038,
                        0.005562321748584509
                    ],
                    [
                        0.041428063064813614,
                        -0.08478425443172455,
                        -0.03726501762866974,
                        -0.11335292458534241,
                        0.09864607453346252,
                        0.11141777783632278,
                        0.12128720432519913,
                        -0.13645246624946594,
                        0.007036298513412476,
                        0.1336205154657364,
                        -0.10363021492958069,
                        -0.1346747726202011,
                        0.13702496886253357,
                        -0.09453269094228745,
                        -0.08038794994354248,
                        -0.0003035890404134989,
                        -0.1065930724143982,
                        0.07294642180204391,
                        -0.012173224240541458,
                        0.0034093381837010384,
                        -0.06013648957014084,
                        -0.03176639601588249,
                        0.03408563509583473,
                        -0.01397926826030016,
                        0.1108880415558815,
                        0.05862583592534065,
                        0.06533891707658768,
                        0.048919402062892914,
                        -0.09991518408060074,
                        -0.08153047412633896,
                        0.007462495006620884,
                        0.0008888330194167793,
                        0.0494992695748806,
                        0.046584684401750565,
                        0.11166589707136154,
                        -0.006138935219496489,
                        -0.11902361363172531,
                        0.09748943895101547,
                        -0.06095871701836586,
                        0.09073017537593842,
                        0.10480165481567383,
                        0.03590672090649605,
                        -0.01996217668056488,
                        0.10530583560466766,
                        0.01130420621484518,
                        0.07875163853168488,
                        -0.05911566689610481,
                        -0.005533460061997175,
                        -0.08002141118049622,
                        -0.11013317853212357,
                        0.035709865391254425
                    ],
                    [
                        -0.019040826708078384,
                        0.0564441941678524,
                        -0.004798800218850374,
                        0.008146575652062893,
                        0.07677332311868668,
                        -0.07113705575466156,
                        -0.08235377818346024,
                        0.02196432650089264,
                        0.055112771689891815,
                        0.011220759712159634,
                        -0.081981360912323,
                        -0.014682028442621231,
                        -0.09003788232803345,
                        0.07548662275075912,
                        -0.12168577313423157,
                        -0.0305145476013422,
                        -0.021332358941435814,
                        0.12649840116500854,
                        0.006365504581481218,
                        0.09870737046003342,
                        -0.0046150474809110165,
                        0.03439323231577873,
                        0.0740361139178276,
                        0.12157563865184784,
                        -0.07586237043142319,
                        -0.05833924189209938,
                        -0.03183181211352348,
                        -0.006757781840860844,
                        -0.01975458860397339,
                        0.1327599734067917,
                        -0.11239107698202133,
                        0.09142918139696121,
                        0.09937899559736252,
                        0.1286274641752243,
                        0.022106580436229706,
                        -0.1251244693994522,
                        -0.11824560165405273,
                        -0.04214194044470787,
                        -0.09666547924280167,
                        -0.06357856094837189,
                        0.051979079842567444,
                        0.10457222908735275,
                        0.0401347316801548,
                        -0.0933888778090477,
                        0.13049772381782532,
                        -0.06809340417385101,
                        0.06091177836060524,
                        0.0798616111278534,
                        -0.11316481977701187,
                        -0.007106090430170298,
                        0.07814839482307434
                    ],
                    [
                        0.037458986043930054,
                        -0.12563735246658325,
                        -3.119854591204785e-05,
                        -0.05478586256504059,
                        -0.10771016031503677,
                        0.0321638286113739,
                        -0.018795546144247055,
                        -0.10145092010498047,
                        -0.013751580379903316,
                        0.10062438994646072,
                        -0.03359321877360344,
                        0.012979930266737938,
                        -0.03251001983880997,
                        0.13665859401226044,
                        -0.09165551513433456,
                        0.00046509032836183906,
                        0.06421419978141785,
                        0.12378919869661331,
                        -0.1269565224647522,
                        0.02181345783174038,
                        0.12198033183813095,
                        0.11769349873065948,
                        0.047000348567962646,
                        -0.05828156694769859,
                        -0.00782425794750452,
                        0.10231179744005203,
                        0.03560015931725502,
                        0.048889804631471634,
                        0.03397388011217117,
                        0.08849247545003891,
                        0.07553260773420334,
                        0.10783213376998901,
                        0.05142418295145035,
                        0.10797911137342453,
                        -0.05792035534977913,
                        0.015869108960032463,
                        0.029823120683431625,
                        0.055757325142621994,
                        0.13903021812438965,
                        0.12899494171142578,
                        -0.001706555369310081,
                        -0.02905839867889881,
                        -0.10639653354883194,
                        -0.0012758017983287573,
                        0.07997250556945801,
                        0.11886468529701233,
                        -0.0069623831659555435,
                        -0.13245460391044617,
                        0.10854454338550568,
                        0.04376508295536041,
                        -0.03607698529958725
                    ],
                    [
                        -0.021999681368470192,
                        -0.11360910534858704,
                        0.09975932538509369,
                        0.09152977168560028,
                        0.13020481169223785,
                        0.0020240661688148975,
                        0.13808086514472961,
                        -0.1241103783249855,
                        0.12624101340770721,
                        0.07098468393087387,
                        0.015873983502388,
                        0.09272828698158264,
                        -0.1111641377210617,
                        0.025896310806274414,
                        -0.10308418422937393,
                        -0.08400377631187439,
                        -0.024495180696249008,
                        -0.08178814500570297,
                        -0.024545324966311455,
                        -0.08866307139396667,
                        -0.09075135737657547,
                        -0.09449678659439087,
                        -0.018623394891619682,
                        -0.11547529697418213,
                        -0.05490119382739067,
                        0.06626874953508377,
                        -0.1103440597653389,
                        0.01567535661160946,
                        -0.09792499989271164,
                        0.08809118717908859,
                        -0.05683964118361473,
                        -0.05836227908730507,
                        -0.12803049385547638,
                        -0.009770235978066921,
                        -0.013671238906681538,
                        -0.1373118758201599,
                        -0.09350981563329697,
                        0.05644198879599571,
                        0.04032624885439873,
                        0.11149788647890091,
                        -0.02948252484202385,
                        0.013823892921209335,
                        0.041989218443632126,
                        -0.02402147650718689,
                        0.09356062859296799,
                        -0.012049832381308079,
                        0.04055742174386978,
                        0.11216709762811661,
                        0.10080378502607346,
                        -0.06945919245481491,
                        0.06144231930375099
                    ],
                    [
                        0.03891066089272499,
                        0.01650656759738922,
                        0.026463594287633896,
                        0.014127015136182308,
                        0.12623652815818787,
                        0.12039441615343094,
                        -0.09975702315568924,
                        -0.03196363523602486,
                        -0.03578025847673416,
                        0.12770049273967743,
                        -0.042095817625522614,
                        -0.12031414359807968,
                        0.12630878388881683,
                        0.1388365626335144,
                        0.078020378947258,
                        -0.090506412088871,
                        -0.06823817640542984,
                        -0.09524426609277725,
                        -0.028814084827899933,
                        0.05963602662086487,
                        0.07747476547956467,
                        -0.030466672033071518,
                        0.10814008116722107,
                        0.08933884650468826,
                        0.05006686970591545,
                        -0.02197008579969406,
                        -0.024272266775369644,
                        -0.055193595588207245,
                        -0.034162573516368866,
                        0.006566133350133896,
                        0.10548825562000275,
                        0.059355273842811584,
                        -0.005897960625588894,
                        -0.03858575597405434,
                        -0.03611377626657486,
                        0.12154373526573181,
                        -0.06908434629440308,
                        -0.10389745980501175,
                        0.09848541021347046,
                        -0.13503870368003845,
                        0.036233846098184586,
                        0.11464555561542511,
                        0.060966745018959045,
                        0.11427542567253113,
                        0.0082931537181139,
                        0.054018184542655945,
                        0.10178907960653305,
                        -0.09760952740907669,
                        0.016190776601433754,
                        -0.12158593535423279,
                        -0.1079750582575798
                    ],
                    [
                        0.02449578233063221,
                        0.07127609103918076,
                        0.062020618468523026,
                        -0.05078522115945816,
                        -0.07262224704027176,
                        0.0017573010409250855,
                        0.070720374584198,
                        -0.06511332839727402,
                        0.0847795307636261,
                        -0.03048192895948887,
                        0.0879705622792244,
                        0.0035084423143416643,
                        0.08981622010469437,
                        -0.03725289925932884,
                        -0.07630586624145508,
                        -0.09120249003171921,
                        -0.09405408054590225,
                        0.06893384456634521,
                        0.11966913938522339,
                        -0.027310827746987343,
                        0.050388552248477936,
                        -0.08291812241077423,
                        -0.09746650606393814,
                        -0.06045276299118996,
                        -0.09310834109783173,
                        -0.005779108963906765,
                        -0.02280035987496376,
                        0.11261340975761414,
                        0.06838761270046234,
                        0.1350545436143875,
                        -0.015272880904376507,
                        -0.09404147416353226,
                        0.06019175797700882,
                        0.07545118778944016,
                        0.05541597679257393,
                        -0.023399008437991142,
                        0.07363362610340118,
                        -0.027471812441945076,
                        -0.02288409136235714,
                        -0.06887567043304443,
                        -0.060707226395606995,
                        0.06964750587940216,
                        -0.082638680934906,
                        0.03826001659035683,
                        -0.09506208449602127,
                        -0.049025099724531174,
                        0.02221386507153511,
                        0.12317782640457153,
                        -0.08442746847867966,
                        0.015036513097584248,
                        -0.07727880775928497
                    ],
                    [
                        0.06601394712924957,
                        0.11705601960420609,
                        -0.04566231742501259,
                        0.13452106714248657,
                        -0.034202951937913895,
                        -0.11201706528663635,
                        0.0454682819545269,
                        0.1177377849817276,
                        -0.042355235666036606,
                        -0.10190623253583908,
                        -0.05948555842041969,
                        -0.1115194708108902,
                        0.006494071334600449,
                        -0.12204980850219727,
                        -0.022162383422255516,
                        -0.05179135501384735,
                        -0.09126143157482147,
                        -0.11599680781364441,
                        0.017277266830205917,
                        -0.06340552121400833,
                        -0.0956072136759758,
                        0.11120191216468811,
                        -0.12077014893293381,
                        -0.09396243840456009,
                        -0.05271028354763985,
                        -0.0001963722170330584,
                        0.059342268854379654,
                        0.06190523877739906,
                        0.0052787805907428265,
                        -0.006027745548635721,
                        0.027476202696561813,
                        0.033973779529333115,
                        -0.09568121284246445,
                        0.07775916159152985,
                        -0.007910641841590405,
                        -0.025635788217186928,
                        -0.018781157210469246,
                        0.053330197930336,
                        0.016282569617033005,
                        -0.10049959272146225,
                        -0.09941163659095764,
                        0.12434062361717224,
                        -0.01552739366889,
                        -0.013603700324892998,
                        0.12293779104948044,
                        -0.13417643308639526,
                        -0.08970189094543457,
                        -0.13873179256916046,
                        0.030212661251425743,
                        0.13717533648014069,
                        0.07349967956542969
                    ],
                    [
                        0.07578523457050323,
                        0.06263023614883423,
                        0.005323099438101053,
                        0.04105234518647194,
                        0.07612286508083344,
                        -0.046376362442970276,
                        -0.004810868762433529,
                        0.022262021899223328,
                        -0.08127628266811371,
                        0.02109897881746292,
                        0.1098940446972847,
                        0.026633640751242638,
                        0.04204493761062622,
                        0.019489508122205734,
                        -0.04881121590733528,
                        -0.10791412740945816,
                        -0.05337381735444069,
                        -0.08827377110719681,
                        -0.019551638513803482,
                        -0.10608717054128647,
                        -0.1064959391951561,
                        0.05087120458483696,
                        0.11152229458093643,
                        -0.07371820509433746,
                        0.08333243429660797,
                        0.003158280858770013,
                        0.0648067370057106,
                        -0.10614603012800217,
                        -0.04865235090255737,
                        0.012503087520599365,
                        -0.01188884861767292,
                        -0.13455043733119965,
                        0.06120338290929794,
                        0.060413286089897156,
                        -0.07342272996902466,
                        0.1268845647573471,
                        0.0609271340072155,
                        -0.007232553791254759,
                        0.08451033383607864,
                        -0.048879172652959824,
                        -0.12159144133329391,
                        0.005502595100551844,
                        0.014155241660773754,
                        0.010128142312169075,
                        0.07531870901584625,
                        -0.0618031807243824,
                        -0.021533088758587837,
                        0.022997800260782242,
                        -0.10253851860761642,
                        -0.08925711363554001,
                        0.06220877915620804
                    ],
                    [
                        -0.05129127576947212,
                        0.13597258925437927,
                        -0.0066044265404343605,
                        0.026484159752726555,
                        0.08979662507772446,
                        0.030276942998170853,
                        0.03226732462644577,
                        -0.018873784691095352,
                        -0.09062594920396805,
                        0.11119280010461807,
                        -0.079986073076725,
                        0.03849618136882782,
                        0.13191942870616913,
                        -0.09945448487997055,
                        0.09826843440532684,
                        0.050991643220186234,
                        0.05646752938628197,
                        -0.10069723427295685,
                        -0.08177448809146881,
                        0.11291559785604477,
                        -0.061377570033073425,
                        0.10401411354541779,
                        0.0058084046468138695,
                        0.010936683975160122,
                        0.043280310928821564,
                        -0.010549581609666348,
                        -0.13528747856616974,
                        0.09290040284395218,
                        0.013752181082963943,
                        0.09856848418712616,
                        -0.10044736415147781,
                        0.0581747367978096,
                        -0.08811420202255249,
                        0.1175471842288971,
                        -0.08759061992168427,
                        0.11381860077381134,
                        -0.12499330192804337,
                        0.09221670776605606,
                        -0.02651776187121868,
                        -0.035731732845306396,
                        0.026631955057382584,
                        -0.1377498358488083,
                        -0.018435334786772728,
                        0.05163125321269035,
                        -0.02882368303835392,
                        -0.13259635865688324,
                        -0.07401297986507416,
                        0.12134178727865219,
                        -0.13253796100616455,
                        -0.051112763583660126,
                        -0.09698258340358734
                    ],
                    [
                        0.11921896785497665,
                        -0.04793715476989746,
                        0.012935727834701538,
                        0.0080769844353199,
                        -0.018020756542682648,
                        0.03136994317173958,
                        -0.07022830843925476,
                        0.08897113800048828,
                        0.00592304952442646,
                        -0.0623362772166729,
                        0.033716831356287,
                        0.04565522074699402,
                        0.11172367632389069,
                        -0.006669327151030302,
                        -0.11142723262310028,
                        0.11203289031982422,
                        -0.08855612576007843,
                        0.1198766753077507,
                        -0.059973299503326416,
                        -0.08400684595108032,
                        -0.1041511744260788,
                        0.07047799229621887,
                        -0.06433765590190887,
                        0.05325067415833473,
                        -0.05283157154917717,
                        -0.11260544508695602,
                        -0.06653273850679398,
                        -0.004290408920496702,
                        -0.028653735294938087,
                        -0.049387045204639435,
                        -0.11062852293252945,
                        -0.0475141815841198,
                        0.10877440124750137,
                        0.011676018126308918,
                        -0.08600179851055145,
                        0.08779104799032211,
                        -0.10293259471654892,
                        -0.026516059413552284,
                        -0.04444572329521179,
                        -0.10891406983137131,
                        0.11452341079711914,
                        0.033269766718149185,
                        -0.042450085282325745,
                        0.012891508638858795,
                        0.08802808821201324,
                        -0.1234065368771553,
                        0.0015075290575623512,
                        0.06787623465061188,
                        -0.03230184316635132,
                        -0.048949096351861954,
                        -0.11864183843135834
                    ],
                    [
                        -0.05384140834212303,
                        0.03537699580192566,
                        0.07200504094362259,
                        -0.03347358480095863,
                        0.08506380766630173,
                        -0.10740850865840912,
                        -0.13021844625473022,
                        0.01208510436117649,
                        0.04392300918698311,
                        -0.06726930290460587,
                        0.03693744167685509,
                        -0.07091492414474487,
                        -0.10151759535074234,
                        -0.07152662426233292,
                        -0.08242177963256836,
                        -0.012433713302016258,
                        -0.10851331055164337,
                        -0.022007493302226067,
                        0.03190317377448082,
                        -0.027510639280080795,
                        -0.04334866628050804,
                        0.06368283927440643,
                        0.04294285178184509,
                        -0.003925908822566271,
                        0.00679089967161417,
                        -0.11849148571491241,
                        0.012705753557384014,
                        0.06371283531188965,
                        0.008378420025110245,
                        0.011070392094552517,
                        -0.01679566688835621,
                        0.022770414128899574,
                        0.09085217863321304,
                        -0.08248353004455566,
                        0.05492006987333298,
                        -0.132078155875206,
                        -0.03097277693450451,
                        -0.05753296986222267,
                        -0.07208890467882156,
                        0.013951274566352367,
                        -0.13441096246242523,
                        -0.013458291068673134,
                        -0.06916847825050354,
                        -0.07508357614278793,
                        -0.04441053420305252,
                        0.0129545908421278,
                        -0.05816850811243057,
                        -0.07676644623279572,
                        0.07589147239923477,
                        0.12976016104221344,
                        0.13304868340492249
                    ],
                    [
                        -0.04610280320048332,
                        -0.12484166771173477,
                        -0.039091192185878754,
                        0.01746510900557041,
                        -0.06217297166585922,
                        0.000599332561250776,
                        -0.10370678454637527,
                        0.019258765503764153,
                        -0.06702505797147751,
                        0.0968509167432785,
                        0.06285912543535233,
                        0.1351906806230545,
                        0.1242510974407196,
                        0.003035473171621561,
                        0.13001735508441925,
                        -0.1227954849600792,
                        0.05701456218957901,
                        0.00625608442351222,
                        0.006149768829345703,
                        -0.034826021641492844,
                        -0.08120477199554443,
                        0.03253979980945587,
                        -0.10798805952072144,
                        -0.04584231227636337,
                        -0.12562845647335052,
                        0.0012092147953808308,
                        -0.042445745319128036,
                        0.029175713658332825,
                        0.06419610232114792,
                        0.0957338735461235,
                        0.12468692660331726,
                        0.06481066346168518,
                        -0.01933743804693222,
                        0.06607252359390259,
                        0.10547561943531036,
                        -0.017374517396092415,
                        -0.1105986088514328,
                        -0.032705288380384445,
                        -0.06016985699534416,
                        -0.09913263469934464,
                        -0.11047681421041489,
                        -0.07911166548728943,
                        -0.01270266529172659,
                        0.009412545710802078,
                        0.02197146974503994,
                        0.13775752484798431,
                        0.09334062039852142,
                        0.0027630492113530636,
                        0.07594059407711029,
                        -0.07009708881378174,
                        0.09352714568376541
                    ],
                    [
                        0.1088407039642334,
                        0.08720717579126358,
                        -0.059824638068675995,
                        -0.008724391460418701,
                        -0.1288755089044571,
                        0.08934970945119858,
                        0.05343671515583992,
                        0.03916994854807854,
                        -0.09385939687490463,
                        0.05947886407375336,
                        0.05097024142742157,
                        -0.08509273827075958,
                        0.032533589750528336,
                        -0.10575810819864273,
                        -0.09515491127967834,
                        -0.0031647910363972187,
                        -0.08772369474172592,
                        -0.03018541820347309,
                        -0.10206439346075058,
                        0.09620609879493713,
                        -0.13051895797252655,
                        -0.04205036163330078,
                        -0.05289522185921669,
                        -0.12533074617385864,
                        -0.11687634140253067,
                        -0.055532556027173996,
                        -0.05481567606329918,
                        0.13282935321331024,
                        0.04813932254910469,
                        -0.037910353392362595,
                        0.13014651834964752,
                        0.07492127269506454,
                        0.055104274302721024,
                        0.05988422781229019,
                        -0.10597257316112518,
                        0.0813731998205185,
                        0.08146118372678757,
                        0.0013601162936538458,
                        -0.08053821325302124,
                        0.06117173284292221,
                        -0.03383888676762581,
                        0.10560016334056854,
                        -0.06098746135830879,
                        0.0018375591607764363,
                        -0.05099908635020256,
                        -0.0483781099319458,
                        -0.007792241405695677,
                        -0.058753084391355515,
                        0.13760222494602203,
                        0.10920637100934982,
                        -0.10675063729286194
                    ],
                    [
                        -0.013172512874007225,
                        -0.002200857736170292,
                        0.10466647893190384,
                        -0.13960176706314087,
                        0.016374945640563965,
                        0.13686810433864594,
                        0.04737192764878273,
                        -0.08200579881668091,
                        0.0786670371890068,
                        0.07374673336744308,
                        0.07680260390043259,
                        0.05059594288468361,
                        0.03708857670426369,
                        0.10829939693212509,
                        0.1346718817949295,
                        -0.05519271269440651,
                        -0.06996740400791168,
                        0.08457326143980026,
                        -0.023414883762598038,
                        0.024155985563993454,
                        0.09037861227989197,
                        0.10922431945800781,
                        0.038368433713912964,
                        0.0496525764465332,
                        0.1180330216884613,
                        0.09204413741827011,
                        0.02967587485909462,
                        0.09607040137052536,
                        0.06274355947971344,
                        -0.05370831862092018,
                        0.02965691313147545,
                        -0.026203589513897896,
                        0.05593668669462204,
                        0.06596392393112183,
                        -0.13207204639911652,
                        0.007556791417300701,
                        0.0651732087135315,
                        -0.05444266274571419,
                        0.058199990540742874,
                        -0.022195803001523018,
                        -0.02083219774067402,
                        0.028157345950603485,
                        -0.07982465624809265,
                        -0.0635337233543396,
                        -0.018697593361139297,
                        -0.012934926897287369,
                        -0.024907421320676804,
                        0.012926296330988407,
                        -0.08889136463403702,
                        0.07569990307092667,
                        0.060875002294778824
                    ],
                    [
                        -0.0687989667057991,
                        -0.13565923273563385,
                        -0.057733166962862015,
                        -0.03308354318141937,
                        -0.08069197088479996,
                        0.05276024341583252,
                        0.13465328514575958,
                        -0.06656091660261154,
                        0.13114917278289795,
                        -0.035413552075624466,
                        0.06199982017278671,
                        -0.07105928659439087,
                        0.025970377027988434,
                        0.05839134007692337,
                        0.11184262484312057,
                        0.022444672882556915,
                        -0.08123406767845154,
                        -0.1394209861755371,
                        -0.08006981760263443,
                        -0.131596177816391,
                        0.13798026740550995,
                        -0.07091038674116135,
                        0.015206344425678253,
                        -0.1288791447877884,
                        0.06764508783817291,
                        -0.05223138630390167,
                        -0.054666828364133835,
                        0.08347903937101364,
                        -0.07426752895116806,
                        0.09651846438646317,
                        -0.08728104084730148,
                        -0.1268599033355713,
                        0.04189480468630791,
                        0.06689844280481339,
                        0.010689182206988335,
                        0.008977535180747509,
                        -0.10686132311820984,
                        -0.0938359871506691,
                        -0.0685875341296196,
                        -0.09035009890794754,
                        0.07915537804365158,
                        -0.015425151214003563,
                        0.051136601716279984,
                        0.0635659396648407,
                        0.0072815632447600365,
                        0.03839504346251488,
                        -0.05400356277823448,
                        0.0933639258146286,
                        -0.11774484068155289,
                        -0.1297711282968521,
                        -0.13673816621303558
                    ],
                    [
                        -0.11899924278259277,
                        -0.13890644907951355,
                        0.06609515845775604,
                        -0.11321152001619339,
                        0.13197588920593262,
                        -0.10825606435537338,
                        -0.07032468914985657,
                        -0.04775303602218628,
                        0.09136804938316345,
                        -0.12978258728981018,
                        -0.03301340341567993,
                        0.09757545590400696,
                        0.07124483585357666,
                        -0.08334130793809891,
                        0.04190750792622566,
                        -0.0538804717361927,
                        0.09973203390836716,
                        -0.12203952670097351,
                        -0.07135386019945145,
                        0.031355906277894974,
                        0.09873788803815842,
                        0.07572083920240402,
                        -0.11259067058563232,
                        0.0762803927063942,
                        0.07959599792957306,
                        -0.022362979128956795,
                        0.011813214048743248,
                        0.023616664111614227,
                        -0.02042858675122261,
                        0.07968796044588089,
                        -0.05236878618597984,
                        -0.03169999271631241,
                        0.08451119810342789,
                        -0.0911889374256134,
                        0.049193210899829865,
                        -0.014868935570120811,
                        0.13799279928207397,
                        0.08929643034934998,
                        -0.04891342669725418,
                        -0.029503874480724335,
                        4.62052266811952e-05,
                        0.11199019104242325,
                        0.013976163230836391,
                        0.03567948192358017,
                        -0.00509479409083724,
                        0.08277920633554459,
                        0.04717792570590973,
                        0.1343056708574295,
                        -0.08572053164243698,
                        0.09982451051473618,
                        0.08930842578411102
                    ],
                    [
                        -0.10975684970617294,
                        -0.10560362040996552,
                        0.05557912960648537,
                        -0.10066647082567215,
                        -0.051561545580625534,
                        0.08579399436712265,
                        -0.01036335900425911,
                        -0.0009852496441453695,
                        0.030126910656690598,
                        -0.06870300322771072,
                        -0.11989063024520874,
                        0.06300678849220276,
                        0.028021767735481262,
                        0.03567991778254509,
                        -0.08832366019487381,
                        -0.08457786589860916,
                        -0.09031876921653748,
                        -0.014633936807513237,
                        0.045357223600149155,
                        -0.005141233094036579,
                        -0.11971750855445862,
                        -0.01437363214790821,
                        0.11276263743638992,
                        -0.06666050851345062,
                        0.1177995428442955,
                        -0.044553790241479874,
                        -0.0845508947968483,
                        -0.09702485054731369,
                        -0.13712646067142487,
                        -0.08213847130537033,
                        -0.10451552271842957,
                        0.1177687793970108,
                        -0.08855647593736649,
                        -0.027257796376943588,
                        -0.10569273680448532,
                        0.10633260011672974,
                        -0.13994944095611572,
                        0.059143275022506714,
                        0.01700213924050331,
                        0.13092944025993347,
                        -0.0604146383702755,
                        -0.08271760493516922,
                        0.08452294766902924,
                        0.1175890639424324,
                        -0.11318372935056686,
                        -0.10523564368486404,
                        -0.12741075456142426,
                        -0.07904105633497238,
                        -0.0686824843287468,
                        0.004782307893037796,
                        0.07865919172763824
                    ],
                    [
                        0.1319069117307663,
                        0.035419560968875885,
                        0.05470021441578865,
                        0.09185484051704407,
                        -0.13409139215946198,
                        0.12634125351905823,
                        -0.025571322068572044,
                        0.10293196141719818,
                        0.03051109053194523,
                        -0.03271859139204025,
                        -0.00827369000762701,
                        -0.02247445285320282,
                        0.08473148941993713,
                        0.04064382612705231,
                        -0.029075775295495987,
                        -0.06437954306602478,
                        0.13732925057411194,
                        0.010035999119281769,
                        0.037288304418325424,
                        0.13415375351905823,
                        0.015493357554078102,
                        -0.12254735082387924,
                        0.04634232446551323,
                        0.009860742837190628,
                        0.055137962102890015,
                        0.03418874740600586,
                        -0.043013811111450195,
                        -0.004154597874730825,
                        -0.11645326763391495,
                        -0.0852126032114029,
                        0.05297399312257767,
                        0.11267510056495667,
                        -0.08615749329328537,
                        -0.0024317337665706873,
                        0.06181316450238228,
                        0.12575067579746246,
                        0.018290026113390923,
                        -0.057837579399347305,
                        -0.06495465338230133,
                        -0.006899068132042885,
                        -0.06099719554185867,
                        -0.006713496055454016,
                        0.009698857553303242,
                        -0.01644720882177353,
                        -0.028369424864649773,
                        0.09268571436405182,
                        0.0885254442691803,
                        -0.025636157020926476,
                        0.11481713503599167,
                        0.0515001006424427,
                        0.04008468613028526
                    ],
                    [
                        0.010005167685449123,
                        0.11314591765403748,
                        -0.033331096172332764,
                        -0.1067853569984436,
                        0.06938080489635468,
                        -0.05233994126319885,
                        -0.13203173875808716,
                        0.059458181262016296,
                        -0.028969742357730865,
                        -0.090864397585392,
                        -0.1229899674654007,
                        0.042855482548475266,
                        -0.01398711372166872,
                        -0.09294641017913818,
                        -0.12126851081848145,
                        -0.03307164087891579,
                        0.07768765091896057,
                        -0.059159718453884125,
                        0.02501664310693741,
                        -0.033040694892406464,
                        0.06670143455266953,
                        -0.10361795872449875,
                        0.04570792242884636,
                        -0.04976346343755722,
                        -0.028596913442015648,
                        0.1180155947804451,
                        0.06463196873664856,
                        0.01972031779587269,
                        0.025670159608125687,
                        0.017729036509990692,
                        0.10347171872854233,
                        -0.11275287717580795,
                        0.04996905103325844,
                        -0.05606520175933838,
                        -0.09799596667289734,
                        0.07214377075433731,
                        0.08013512194156647,
                        -0.07110999524593353,
                        0.08384864777326584,
                        0.06368621438741684,
                        -0.0751965343952179,
                        0.07408610731363297,
                        -0.022104911506175995,
                        -0.10417070239782333,
                        -0.1012035682797432,
                        -0.030114473775029182,
                        0.03216738626360893,
                        -0.0376155786216259,
                        -0.1257178783416748,
                        -0.12103036791086197,
                        -0.1285218745470047
                    ],
                    [
